<?xml version="1.0"?>
<opencv_storage>
<opencv_ml_ann_mlp>
  <format>3</format>
  <layer_sizes>
    120 40 34</layer_sizes>
  <activation_function>SIGMOID_SYM</activation_function>
  <f_param1>1.</f_param1>
  <f_param2>1.</f_param2>
  <min_val>-9.4999999999999996e-01</min_val>
  <max_val>9.4999999999999996e-01</max_val>
  <min_val1>-9.7999999999999998e-01</min_val1>
  <max_val1>9.7999999999999998e-01</max_val1>
  <training_params>
    <train_method>BACKPROP</train_method>
    <dw_scale>1.0000000000000001e-01</dw_scale>
    <moment_scale>1.0000000000000001e-01</moment_scale>
    <term_criteria>
      <iterations>30000</iterations></term_criteria></training_params>
  <input_scale>
    4.8377595214448794e+00 -4.0028882788372737e+00
    5.0232319971328900e+00 -4.4061551897810718e+00
    5.5927737933083881e+00 -5.0977471454925825e+00
    7.4314086584495103e+00 -6.7667337587638885e+00
    6.7779251159408416e+00 -5.9052065896217130e+00
    6.7350380224310742e+00 -5.9408799426691283e+00
    7.6136871963598587e+00 -7.1003355152844456e+00
    8.3630109209604111e+00 -7.9007387581859225e+00
    7.1840038081457696e+00 -6.5036722507428575e+00
    5.5096251407486303e+00 -4.4615632758016730e+00
    7.6401088378677935e+00 -6.9531665428130092e+00
    8.0284845295683684e+00 -7.4636879685784665e+00
    7.8818426750990724e+00 -6.8664416278703468e+00
    7.5036833080332483e+00 -6.5330751644881326e+00
    6.5126732814376149e+00 -5.8050377524618462e+00
    6.6725870420837596e+00 -5.9600747306225070e+00
    6.7592488831018871e+00 -5.7604067385308069e+00
    6.5327391107937141e+00 -5.6023842800336681e+00
    6.1420353781126025e+00 -5.5738202091165672e+00
    6.3081427649488386e+00 -5.5971099702499743e+00
    1.3355667396895480e-02 -6.9528176549775078e-01
    9.9123608945762675e-03 -1.1424940869617541e+00
    1.0976953889869849e-02 -1.6581208558645928e+00
    1.0739977937245456e-02 -1.8300855782324079e+00
    1.0598625787217675e-02 -1.9742749232206136e+00
    1.1463642310505140e-02 -2.2042078517509709e+00
    1.1860719388890877e-02 -2.1728260140466906e+00
    1.2024184531156923e-02 -1.9253273010516929e+00
    1.0651028340605368e-02 -1.1487855987807503e+00
    1.4682915451816051e-02 -5.8761531266721923e-01
    1.1753010110611674e-02 -8.9072849294781675e-01
    9.9564164833472815e-03 -1.6242828096071789e+00
    1.0737037475116713e-02 -1.8482514164062978e+00
    1.1753473708534488e-02 -1.6122255540139812e+00
    1.0867942418961512e-02 -1.2269056352930967e+00
    1.0860551998138492e-02 -1.3370625497347015e+00
    1.2064132384567902e-02 -1.8813047078038874e+00
    1.0821829099520813e-02 -1.9630513669181671e+00
    1.0166981632074778e-02 -1.5835820509381555e+00
    1.3547839953221365e-02 -8.0058069453912817e-01
    1.0348878543912185e-02 -9.4127874546751733e-01
    8.9213799115979084e-03 -1.4036711317250092e+00
    1.0812363502875089e-02 -1.5540745587107223e+00
    1.0366476067398307e-02 -8.5045484023426743e-01
    9.7180252755900420e-03 -6.8860568955164347e-01
    9.5442789306734947e-03 -7.1666024518722704e-01
    1.0123804044099212e-02 -9.6028095562869797e-01
    1.0040106189016714e-02 -1.4214599528580696e+00
    8.9316700876705749e-03 -1.2611571939582293e+00
    1.1135971766510617e-02 -7.9248154634434398e-01
    1.0445562718227891e-02 -8.9902162541201136e-01
    8.9670868336372087e-03 -1.4076174947824061e+00
    1.0580117465425370e-02 -1.6619355068692014e+00
    1.0240865955936956e-02 -1.1064114988749469e+00
    9.4157368189265091e-03 -8.7303000390046559e-01
    9.5380041796403817e-03 -9.1745733307264987e-01
    1.0272191362215164e-02 -1.1953131182445853e+00
    1.0225530195431043e-02 -1.4569095129020271e+00
    8.8998887324916124e-03 -1.0967639290633033e+00
    1.1798649660634488e-02 -6.9699538034909103e-01
    1.1297079904993188e-02 -7.8067645198963176e-01
    9.4447036773296165e-03 -1.4367313906408741e+00
    1.0216863321474966e-02 -1.8280850304905614e+00
    9.7086724858970325e-03 -1.5921434633985487e+00
    1.0287061900667105e-02 -1.6075781757947079e+00
    1.1175255666787636e-02 -1.9158233593678160e+00
    1.1396833936589504e-02 -2.1808614210535286e+00
    1.2528148518245862e-02 -2.3754795893216922e+00
    1.0208472412481408e-02 -1.3012095911007604e+00
    1.3384732000404870e-02 -6.0701017264051049e-01
    1.1441313451742458e-02 -7.2480856401038496e-01
    9.2891798066841360e-03 -1.2547722734036155e+00
    9.8866673503733918e-03 -1.5007071760909367e+00
    1.0176766371774119e-02 -1.2487046447199659e+00
    1.0673243864211470e-02 -1.1627000729712929e+00
    1.0003514648981719e-02 -1.2800729865867162e+00
    1.1041919630717652e-02 -1.8249668150255201e+00
    1.1767313249525213e-02 -2.2007419886482733e+00
    9.7885157808582472e-03 -1.4722000956294952e+00
    1.2892469586386169e-02 -7.3078144725306970e-01
    1.0595867597716791e-02 -8.2993230049950872e-01
    8.6300526957678366e-03 -1.2101668922003967e+00
    9.5500846158215694e-03 -1.2116497794499894e+00
    1.1290616022221671e-02 -7.7312086370954280e-01
    1.1050240557553886e-02 -6.0049216834639463e-01
    1.0208077896986726e-02 -7.3623503613726282e-01
    9.9352114858502569e-03 -1.0423053753171343e+00
    1.0584844649091476e-02 -1.6974220715213011e+00
    9.4344003296546013e-03 -1.4795716490715873e+00
    1.0767772278753904e-02 -8.7626504145961270e-01
    1.0650798193106513e-02 -1.0502054287306233e+00
    9.8740211771388333e-03 -1.7209900079769953e+00
    1.0397262452950529e-02 -1.5699572274456992e+00
    1.0450499619429199e-02 -8.3871027145490351e-01
    1.0314100961814199e-02 -7.6273068290348001e-01
    9.2562930458305898e-03 -7.9346072104852261e-01
    9.6559236009025919e-03 -1.0119869501340049e+00
    1.0522895931717227e-02 -1.6281354421991694e+00
    8.9624940863955831e-03 -1.4338110066019949e+00
    1.0754292895983708e-02 -9.3510450540050283e-01
    1.1632886223785520e-02 -9.9306029615672575e-01
    1.0221611981563041e-02 -1.8313031447548547e+00
    1.1135266593010274e-02 -2.0547665072743682e+00
    1.1987280339093709e-02 -1.7174201255606794e+00
    1.0938296376677622e-02 -1.3269783971638609e+00
    1.1238142731286859e-02 -1.3941202086424624e+00
    1.2463065231758014e-02 -1.8482298251694111e+00
    9.9184780503903079e-03 -1.7318619960215862e+00
    9.9104056238708028e-03 -1.5510372446281682e+00
    1.3804100026787450e-02 -8.1482597843761795e-01
    1.2885453934257714e-02 -6.4902040228125524e-01
    1.0195657022276840e-02 -1.1320136983956526e+00
    1.1980441394699299e-02 -1.8109100562352412e+00
    1.0270702365526727e-02 -1.6973033677028020e+00
    9.8765748229979362e-03 -1.7076887985465257e+00
    9.5374535662238434e-03 -1.5527117093495764e+00
    1.0139470167879892e-02 -1.4925185391415787e+00
    1.1202985912219578e-02 -1.5016651148455298e+00
    1.0599062003017457e-02 -9.8995065067756072e-01
    1.4665765470327351e-02 -5.4813599466807228e-01</input_scale>
  <output_scale>
    5.2631578947368418e-01 4.9999999999999994e-01 5.2631578947368418e-01
    4.9999999999999994e-01 5.2631578947368418e-01 4.9999999999999994e-01
    5.2631578947368418e-01 4.9999999999999994e-01 5.2631578947368418e-01
    4.9999999999999994e-01 5.2631578947368418e-01 4.9999999999999994e-01
    5.2631578947368418e-01 4.9999999999999994e-01 5.2631578947368418e-01
    4.9999999999999994e-01 5.2631578947368418e-01 4.9999999999999994e-01
    5.2631578947368418e-01 4.9999999999999994e-01 5.2631578947368418e-01
    4.9999999999999994e-01 5.2631578947368418e-01 4.9999999999999994e-01
    5.2631578947368418e-01 4.9999999999999994e-01 5.2631578947368418e-01
    4.9999999999999994e-01 5.2631578947368418e-01 4.9999999999999994e-01
    5.2631578947368418e-01 4.9999999999999994e-01 5.2631578947368418e-01
    4.9999999999999994e-01 5.2631578947368418e-01 4.9999999999999994e-01
    5.2631578947368418e-01 4.9999999999999994e-01 5.2631578947368418e-01
    4.9999999999999994e-01 5.2631578947368418e-01 4.9999999999999994e-01
    5.2631578947368418e-01 4.9999999999999994e-01 5.2631578947368418e-01
    4.9999999999999994e-01 5.2631578947368418e-01 4.9999999999999994e-01
    5.2631578947368418e-01 4.9999999999999994e-01 5.2631578947368418e-01
    4.9999999999999994e-01 5.2631578947368418e-01 4.9999999999999994e-01
    5.2631578947368418e-01 4.9999999999999994e-01 5.2631578947368418e-01
    4.9999999999999994e-01 5.2631578947368418e-01 4.9999999999999994e-01
    5.2631578947368418e-01 4.9999999999999994e-01 5.2631578947368418e-01
    4.9999999999999994e-01 5.2631578947368418e-01 4.9999999999999994e-01
    5.2631578947368418e-01 4.9999999999999994e-01</output_scale>
  <inv_output_scale>
    1.8999999999999999e+00 -9.4999999999999996e-01
    1.8999999999999999e+00 -9.4999999999999996e-01
    1.8999999999999999e+00 -9.4999999999999996e-01
    1.8999999999999999e+00 -9.4999999999999996e-01
    1.8999999999999999e+00 -9.4999999999999996e-01
    1.8999999999999999e+00 -9.4999999999999996e-01
    1.8999999999999999e+00 -9.4999999999999996e-01
    1.8999999999999999e+00 -9.4999999999999996e-01
    1.8999999999999999e+00 -9.4999999999999996e-01
    1.8999999999999999e+00 -9.4999999999999996e-01
    1.8999999999999999e+00 -9.4999999999999996e-01
    1.8999999999999999e+00 -9.4999999999999996e-01
    1.8999999999999999e+00 -9.4999999999999996e-01
    1.8999999999999999e+00 -9.4999999999999996e-01
    1.8999999999999999e+00 -9.4999999999999996e-01
    1.8999999999999999e+00 -9.4999999999999996e-01
    1.8999999999999999e+00 -9.4999999999999996e-01
    1.8999999999999999e+00 -9.4999999999999996e-01
    1.8999999999999999e+00 -9.4999999999999996e-01
    1.8999999999999999e+00 -9.4999999999999996e-01
    1.8999999999999999e+00 -9.4999999999999996e-01
    1.8999999999999999e+00 -9.4999999999999996e-01
    1.8999999999999999e+00 -9.4999999999999996e-01
    1.8999999999999999e+00 -9.4999999999999996e-01
    1.8999999999999999e+00 -9.4999999999999996e-01
    1.8999999999999999e+00 -9.4999999999999996e-01
    1.8999999999999999e+00 -9.4999999999999996e-01
    1.8999999999999999e+00 -9.4999999999999996e-01
    1.8999999999999999e+00 -9.4999999999999996e-01
    1.8999999999999999e+00 -9.4999999999999996e-01
    1.8999999999999999e+00 -9.4999999999999996e-01
    1.8999999999999999e+00 -9.4999999999999996e-01
    1.8999999999999999e+00 -9.4999999999999996e-01
    1.8999999999999999e+00 -9.4999999999999996e-01</inv_output_scale>
  <weights>
    <_>
      3.8264518658607843e-01 1.8720495230757632e+00
      -1.8192014762631822e-01 -2.0472257350881692e-01
      1.1221464138368040e-01 -2.1316493914481649e+00
      -5.3649461333096615e-01 -1.7813028034382941e+00
      -3.3982496959092562e-01 6.3959651880351054e-01
      -6.8587172554040243e-01 -9.5888242411047520e-01
      -1.6713721165832099e-01 7.9236181262348326e-01
      2.7057141098961113e-01 -1.7226372258973885e-01
      5.3216589458604135e-01 -5.7395801776850319e-01
      1.8494441069761575e-01 1.1090608510179618e+00
      3.1076496224913391e-01 -1.3114434801499095e-01
      3.2030232964271799e-01 -3.7610417761547504e-01
      -3.7948468522165613e-01 1.2408197854170719e+00
      4.4534132787269670e-01 -8.6478542294057337e-01
      1.7452842005763098e+00 -4.1925751259179711e-01
      6.7559843733122726e-01 1.3382695643979790e+00
      -1.0942262530067983e+00 1.5318919116420464e+00
      -7.2992486443425944e-02 -6.8364815854805272e-01
      5.4973614267986404e-01 2.3009224466082490e+00
      -7.1865012382313254e-01 7.3696588919630868e-01
      1.0141463659567536e-01 -4.3152520448564493e+00
      1.8042434479963751e+00 1.4219184993371092e+00
      1.0940581193099477e+00 1.4925129375634361e-01
      -2.0715948906654111e-01 -2.5320701322839216e+00
      -1.1057456287259471e+00 5.7242736704356112e-01
      -9.3559335222101692e-01 5.2314945121240086e-01
      -1.8668591679964150e+00 -3.8438119362717055e-01
      -9.1819091060296190e-02 2.3694868514381668e+00
      -2.6656453941151744e-03 -7.3894867212421333e-01
      -2.0164088261041986e+00 -1.5329584981624902e+00
      -6.8646862150443644e-01 -1.8429888162003962e+00
      2.9236560808574650e+00 -1.9678763444741911e+00
      -8.9533237258362097e-01 3.8136564376793096e+00
      -4.0001325292119745e+00 -4.0215794812174233e+00
      9.4180285853006784e-01 -5.7276609588742833e-01
      2.2566013076560254e+00 1.2501341502543932e+00
      1.6227117247689775e+00 1.9368022361271677e+00
      -1.0323399102537043e-01 -1.4139416029662946e+00
      -1.3068842276783665e+00 8.2724288870685281e-01
      2.2617219533725239e-01 -2.5837074723574553e+00
      -8.6478066308372226e-01 -3.4290022778753948e+00
      -9.5929170048294421e-01 -7.8118622992879971e-01
      -1.9747604063837791e+00 3.7511207021315884e-01
      -2.0943157562777102e+00 9.3342539405269376e-01
      -2.5407000447690342e-01 8.1086736962518069e-01
      -2.6244972779712437e+00 6.7614265233638016e-01
      -1.9508926088886771e+00 7.8482724912648882e-01
      1.7988835505018189e-01 1.8050436495474549e+00
      8.5390245778416785e-01 -1.3964908302075290e+00
      4.3128689675533044e-02 -2.5809635176667665e+00
      -1.9843273633538372e-01 3.5460517550199433e-01
      3.6756754553504223e+00 9.8117951097371670e-01
      -2.0891304920928597e-02 2.1238534238840714e+00
      -5.2330669914129468e-01 -3.4162499447396971e-01
      9.9331215499152514e-01 4.0067548012808746e-01
      2.2110339561425021e-01 1.7032934426533781e+00
      -1.1954343328063139e+00 8.1128689139923704e-01
      -2.6950849335148326e+00 -2.6478150048812181e+00
      4.5245368489363874e-01 -2.9324686090156931e+00
      4.3283389245134246e-01 -5.7457981783142520e-01
      2.1144618516913319e-01 5.1283225015745437e-01
      -9.3090460206331282e-01 -2.1729176437918596e-01
      -1.7599306707735882e-01 -2.7297007645867527e-01
      -5.7369452194276555e-02 -5.4355002471444680e-01
      3.7506290440609741e-02 -9.5618524900232671e-01
      5.2144995991378555e-02 6.3583525856644962e-01
      5.5461692206909396e-01 -5.7744194084465328e-01
      -5.9573396315599114e-01 6.5268604413495512e-01
      8.2959110471217912e-01 6.0504308915606847e-02
      8.8053094957062605e-01 3.1570840154292606e-01
      9.5304039592157497e-02 7.1821682074542514e-01
      5.9332700281926953e-01 -1.7335806287818789e+00
      -7.3721653109456931e-01 1.0905571709241719e+00
      -5.3524969244730380e-01 -2.7867750072551445e-01
      -4.2844200891117257e-01 -6.8458674458576529e-01
      1.6078136650635935e+00 2.5707247725533539e-01
      -2.0175935468833042e+00 -1.7993820157023894e+00
      1.2508492348036764e+00 1.2391862078612158e-01
      -9.0558239022333553e-01 1.2752479038271316e+00
      -8.4541171681275984e-01 1.0965085734388746e+00
      -6.8005215708268452e-01 6.2557498173612480e-01
      -3.0185985165957113e-01 -9.4019598292848372e-01
      4.7749045284556629e-01 -4.8058909516903398e-01
      7.7669309244313511e-01 1.9185009912342155e-01
      6.3652374299537606e-01 -2.5349120805650122e-01
      -3.6412178282138052e-01 2.6833518459118029e+00
      -6.4191164796768907e-01 -3.3678456793271902e-02
      -3.4574052302377417e-01 7.1631425099663493e-01
      3.8937814837603202e-01 4.9759601280628063e-01
      1.0264596591582620e-01 -6.1795679961754735e-01
      -6.2995521436713109e-01 -3.1532460596861178e-01
      8.7625735762117585e-01 -9.0200298733934026e-01
      -2.5840821411653081e-01 9.2358489858200776e-01
      2.8908043281376572e-01 1.9480030857234099e-01
      5.1374284313721752e-01 -2.8249718025600851e-01
      -1.1135935899552281e+00 -1.4412006190392107e-01
      5.5924376542361065e-01 -4.6835033553942756e-01
      -9.2234969811770307e-01 -3.0079851637971200e-01
      -2.5772293647399186e-01 3.4518819698827552e-01
      1.0361272372418582e+00 7.8409061110719991e-01
      -3.1855285725055506e-02 5.6611223070126226e-01
      1.5712150845914503e+00 -2.8295579313675939e-01
      -1.1545459204495942e-01 -6.1922504289625646e-02
      1.5327772535986726e+00 7.0488840581251444e-01
      3.9855420178452949e-01 -4.2200731045742829e-01
      2.7406428279636914e-02 7.5190258803443466e-01
      -7.9231487232435571e-01 -2.6748731192856712e-01
      -8.6009534079546057e-01 4.5746020921013497e-01
      9.2547849657284942e-01 2.5381058565155068e-01
      8.5837335507827606e-01 -9.8776017924382320e-01
      -6.0183653769218048e-01 9.8743914138943567e-02
      8.8615866290244216e-01 -1.3669315777334869e+00
      -1.3850221509758716e+00 -1.2726972959825196e+00
      7.2623833620425626e-01 4.7889828167517678e-01
      6.7088544481435730e-01 -1.1737363172732787e+00
      -1.7964998725475936e+00 -1.0518037111684744e+00
      -3.7061871046722601e-02 -1.2033548469051544e-01
      1.1805717699727669e+00 -4.0624471155061276e-01
      -4.4909953158471505e-01 -2.2525829189533428e-01
      2.2823614318941674e+00 6.1421538155630750e-01
      2.7127339547456747e-01 8.6962681621145665e-01
      1.0535860899363745e+00 -8.0821126205556382e-01
      -1.2351307449647315e+00 -1.4877144459399108e+00
      -6.4930358558607282e-01 6.6291973949587013e-01
      1.8969914742123042e-01 -1.3876666748728212e+00
      -5.2370868522841096e-01 1.4489864465841116e+00
      -1.4584774888153387e+00 -9.3000043849710823e-01
      2.2837224504340561e-01 -9.8509410289588165e-02
      -1.6265832405516569e-02 6.1287335559620670e-01
      2.0169200966197459e-01 1.1163958913414598e+00
      8.1663393940243259e-02 -1.0983662822592606e+00
      -1.4550796944901621e+00 -4.8482067623735775e-02
      -2.3511570897411769e+00 -5.0723569700816318e-01
      -9.6656286835862248e-03 3.4381141052278802e-01
      -6.8535709422295227e-02 3.5257507379497138e-01
      -3.2302535832992951e-01 -2.2822051091566675e+00
      -6.6609908685697894e-01 -1.0410436469771747e+00
      9.4939514546219766e-02 7.5310963975466505e-01
      1.1922805328781618e+00 -1.8521707197139095e-01
      7.3766849872689208e-02 1.2883282930105713e+00
      -2.1284848603571357e-01 7.0164899895865984e-01
      -1.8590493494899277e-01 -5.1388408645069128e-01
      1.0421572033287921e-01 -1.8957415550529744e-01
      4.7807999684446156e-01 -8.9448821603541362e-01
      -1.5723179736341371e+00 -9.8717714019179292e-01
      3.6067741597337666e-01 1.1771827897065472e+00
      -8.6223394361292860e-01 1.1416416336524648e-01
      3.7451823980506077e-01 2.4007215611214502e-01
      -1.1265640978551006e-01 2.6242680217033398e-01
      -5.5790695101172350e-01 -2.5077598017326483e+00
      1.3861826818144005e-02 3.6672566158069320e-01
      -4.0373179027416528e-01 2.0236052240321336e+00
      -4.6870268459973857e-01 -1.9205791237868758e-01
      -5.7461881021667349e-01 -5.7014206962425984e-02
      8.1719872016967376e-01 -6.3253575152880137e-01
      -1.0964227615500992e+00 -3.7173833149098062e-01
      -1.0427252258227204e+00 3.0377560261400713e+00
      4.6672814562409176e-01 3.9333950943738941e-02
      4.5196762738949242e-01 -1.1547664685795751e+00
      9.5496968753687073e-01 7.5340491492954687e-01
      -1.4883493899474776e+00 -7.1688155006500731e-01
      4.4529811956591830e-01 -9.4216451229913156e-01
      1.9128673625688020e-01 -7.0580910630817772e-01
      -4.5435670262752470e-01 -4.2396410368645898e-01
      2.3233687011055562e-01 4.7836222889492119e-01
      7.5762292917810647e-01 5.1084245439536935e-01
      -2.6380766142779248e+00 -6.5538521836419839e-01
      3.5210152097153627e-02 -2.0742215886669952e+00
      1.8487596821216399e+00 1.7942778552369583e+00
      -2.9043504270545153e+00 -8.0441699327334459e-01
      -5.8788622402840163e-01 1.8060874454381617e+00
      8.2379972409972912e-01 1.3614789918133874e+00
      7.2764742851434505e-01 -2.2667419498393913e+00
      1.2458367801818528e-01 -2.6837649823558474e+00
      4.4478000575787641e-01 -2.1977118180230693e+00
      -1.2162333323155943e+00 1.2287760293226056e-01
      3.1938469857901146e+00 2.8838842314976172e+00
      6.3209275346777227e-01 -1.2710454399970459e+00
      2.6469625138254166e-01 1.3476164661419889e+00
      2.1506321356682458e+00 -6.3169462904823961e-02
      -7.4502623554690706e-01 5.2174913690641511e-01
      1.1520341566595469e+00 -4.0908657560327055e-01
      3.1324261233747824e-01 -2.1551687124507692e+00
      -1.7834161359723863e-01 -5.5052142237962265e-01
      -8.0786270995730158e-01 -1.5484451620434525e+00
      -6.2110669467187241e-01 -1.2352317257243954e-01
      1.0151607935646407e+00 7.6850488264602376e-02
      -5.7611199963336879e-01 -4.5298777080335674e-02
      5.5607253349625729e-01 5.7817478737275296e-01
      1.9164458821008135e-01 1.2197937967221031e+00
      1.2948771566633990e-01 4.4922476744913986e-01
      -1.9264094892432890e-01 -1.1271241179057627e+00
      -9.2544068637821264e-01 -2.4457300809141338e+00
      3.4896756590474393e-01 8.3522722183586007e-01
      7.1005682694907502e-01 -2.3297848659434733e-01
      -3.8424360193172546e-01 -1.0545111461098526e+00
      6.5195543629756436e-01 -8.8584870410605310e-01
      1.0317100406271169e+00 6.9671084696946450e-01
      -2.6896324369589708e-01 2.5557582535002427e-01
      -1.8350703698581741e+00 6.6080976757122378e-01
      -2.0837674225660308e-01 -6.9015192621545951e-01
      1.0699736443977277e-01 4.6625717322226207e-01
      5.9676948336975111e-01 1.1409729503535535e+00
      1.7653972756084258e-02 1.5852413870699751e+00
      -3.3673597801452865e-01 -2.6692952918158883e+00
      -2.2993988437296831e+00 -6.1164016261364940e-01
      -1.7108047931363162e+00 -4.3635934216551581e-01
      1.0269839281244064e+00 1.0640611003270750e+00
      2.5374036910601290e+00 -8.5737869422908886e-01
      1.6686300155772460e-01 -2.8584852287831199e+00
      2.6667370687693415e-02 -6.1077831139592483e-02
      1.5732554489166815e+00 -2.2567471931061939e-01
      -1.4500540163353424e+00 6.7720033521262446e-01
      -1.6228679922325606e+00 -2.7820475917284065e-01
      -3.2469133865958172e-01 -9.6128684405528719e-01
      4.8802381218150004e-01 1.8988347403641872e+00
      -1.2598698936772519e+00 6.8379048638397444e-01
      2.2849110342078979e-01 -1.2174467040874233e+00
      9.2370429937589249e-01 8.9979065387353652e-01
      2.9521102598149214e+00 -1.4618850157129395e+00
      8.6225320237831152e-02 -1.0086438648561693e+00
      -2.7211653860200780e-01 6.5664244123537230e-01
      -2.0098865456244543e+00 1.0525860710899400e+00
      -2.0251996921546220e-01 -1.6095965839447551e-01
      2.8386840417146830e-01 3.6661017948808350e-01
      -2.2635944457400112e-01 3.3089173847088954e-01
      -1.4405494035151223e+00 -3.8245540939889799e-01
      3.6927524647059340e-01 -1.5134267012958817e+00
      6.9342632048718278e-01 3.3069955683966396e-01
      -8.1221696697920720e-01 2.5151966587425628e-01
      -5.7734134035771412e-01 -3.6702381523612138e-01
      1.1585296290283734e-01 -2.1560845762332700e-01
      5.7444619433069345e-03 -2.9323486192667153e-01
      -3.5377851751843181e-01 2.4956005672400919e-01
      -7.1846096140337290e-01 1.0985516284881656e+00
      -9.6874138542677757e-01 8.2494341577420327e-01
      -3.7030606414282513e-01 -2.4259609725301288e+00
      -1.2845198406030196e+00 -9.8468450704085841e-01
      -4.8934470500968569e-01 1.1240007877464053e-01
      7.7171189270740015e-01 -3.6069058182211977e-01
      1.2545838733813439e-01 -2.1773888065100624e+00
      1.0378001677027186e-01 5.9335746922467225e-01
      6.7390688005591881e-01 8.0518132012774812e-01
      -1.4079281210017233e-01 1.2747838332538597e+00
      -8.4806785794456130e-01 7.6048843052997062e-01
      3.3063074866195534e-04 6.8569242920017870e-01
      7.1503097077984468e-01 9.1452605565107481e-02
      7.2955225725137574e-01 -4.8020385002507016e-01
      -3.8904882772070840e-02 -6.4162648954450274e-01
      -2.0861219265401384e-01 -6.1518846915476144e-01
      -2.3594324405929909e-01 -5.7873380969318411e-01
      -1.0664507107573558e-01 -5.8055089307976863e-02
      -3.7971337245507675e-01 7.0010426573040307e-01
      1.9108553492628325e-01 -6.7448415889799451e-01
      -8.9852158883091593e-01 -5.4400218873111153e-02
      -1.6143461995466826e-01 4.4136258727163097e-01
      -5.2512332195677580e-01 1.3897477090938207e-01
      -5.8945575563484687e-01 -6.0877973988558531e-01
      -1.4665886749063950e-01 -1.1901190373652026e+00
      1.8501285544277632e-01 -3.3008496342045758e-02
      8.7824415537007400e-03 -1.1907235349079905e+00
      -1.8931632846752464e+00 9.9818402637264059e-01
      9.9096410531737356e-01 1.8099640294383614e+00
      2.7697894965535702e-01 8.7547369231695937e-01
      -6.0338860010560887e-02 -2.1900991640499620e-01
      1.8297622425839160e+00 -1.1031159041679317e-01
      4.4297669307109350e-01 3.1956882119739055e-01
      7.3776318296075283e-01 -8.8378358215371333e-01
      7.5132947456011179e-02 3.7012762416820436e-03
      1.4030056258552609e-01 -1.3525197752498934e+00
      -2.7063355334291661e-01 -3.1872418123420027e-01
      -7.6146688697973575e-01 3.8607918590730123e-01
      1.8144325142439224e+00 1.2944235107191715e-01
      -4.1943353127800626e-01 -1.7467994536007605e+00
      2.4555562825992936e-03 2.5057694056657326e-01
      8.6095519787854680e-01 8.0800557050945090e-02
      -8.4583870810066741e-01 -1.1445440482563700e+00
      -4.1077851059357090e-01 -1.2665895869739527e+00
      1.7812544386501858e-01 -1.2634051590939483e+00
      1.0313267851664714e+00 2.9965960806593522e-01
      -6.3825437909314164e-01 -2.2653724952307854e+00
      -8.3827895580652748e-02 8.3513540351866467e-01
      -1.8808577677735334e+00 1.5373085588199222e+00
      2.5232806373637151e-01 1.8530084999711178e+00
      5.7259873185485873e-02 -1.1392296720450419e+00
      -2.1464256993604489e-01 -4.0935099240461403e-01
      -1.0984825612997471e+00 6.4394603694759334e-01
      3.9511576340288812e-01 -3.0026483286128897e-01
      1.7681376533734650e-01 -2.0868377306259320e-01
      -1.0204426793479560e+00 -1.6494457688825248e+00
      -6.0085247690373911e-01 -4.8844501619151592e-01
      -7.0146621580366186e-01 1.1080047795673298e+00
      -1.1508961093018926e+00 1.5484671748142200e+00
      -2.3494673236335470e-01 -2.3955076142477698e+00
      5.1172337663461565e-01 -3.7618953063486926e-01
      7.3791549917172350e-01 -4.1986581322704170e-01
      3.8599453537686024e-01 1.2363903912327456e+00
      1.7835817756105699e-01 2.1841670960561083e-01
      6.1993077050654299e-01 -1.6534238111996555e+00
      3.0603028895465278e-01 -1.3531765565474465e+00
      3.9976732431269518e-01 -8.2029116911801858e-01
      2.6292767645989273e-01 1.2036957346015265e+00
      -1.9138774455967795e+00 2.3035661547668052e+00
      2.2355979404962076e-01 -1.1893782382296159e+00
      8.5661486357058420e-02 4.9971865783155334e-01
      3.4192177310574320e-02 -7.5070672573834052e-01
      -1.5050175492975959e+00 2.3921219691477327e+00
      8.2219199496014106e-01 2.7958732984953025e+00
      4.6972394823355529e-01 6.8408959658668209e-02
      -1.2123304550087937e+00 -6.9835247647664400e-01
      1.3615139788520385e+00 9.2689848881526549e-01
      -1.5189121409976205e+00 2.4020824099741200e-01
      1.5884575577417979e+00 8.4012197565289837e-01
      -3.9661261612410786e-01 -4.9570107983154538e-01
      2.6103344405233492e-01 6.4411257220915008e-01
      -1.2073518777287327e-01 -3.4291645267949152e-02
      9.2950921290920863e-02 1.8077900740203983e+00
      2.5956071268565356e-01 -1.7669519663221211e-01
      1.6552000223525478e+00 -1.3931352498099190e+00
      -8.4145153211074164e-01 2.0543597095336882e-01
      7.6038899527403514e-01 8.7399978574413695e-01
      -1.5830299139696327e+00 -1.0369752315012312e-01
      -6.2320655964319038e-01 6.7933284551610074e-01
      -6.0046122180178108e-01 8.6439456159380079e-01
      -3.8977282934661228e-01 1.1446780021282268e+00
      -3.1547524504567070e-01 -3.1026753423852715e-01
      1.0134564951273282e+00 2.7472940161659898e-01
      7.0606698612713248e-01 3.4671689730869276e-01
      -8.3017790824475091e-01 -1.9312888389558469e-02
      3.3837951695845536e-01 -2.0924810779998961e+00
      -3.2988527686365399e-01 -5.1382162807964338e-01
      -2.7003030618179963e-01 6.6854647303154977e-02
      6.5438267339929057e-01 3.1938647018317633e-02
      -1.4246392880470691e+00 -6.9068522078716232e-01
      6.0292404543883737e-01 8.3272689475010930e-01
      2.0043386672377252e+00 1.7928829847414571e-01
      1.2455904183761248e+00 3.1232304338197669e-01
      -2.0651797222831858e+00 4.1815496709315991e-01
      -5.0970243523392545e-03 -1.1488645916296374e+00
      -6.6597976156706473e-01 -6.5543766086051936e-01
      5.4917856655280306e-01 -1.1246305133939227e+00
      -3.8979896910374262e-02 4.7740156410191320e-01
      7.3885134062392233e-01 1.0565252934101079e+00
      1.0427695630414331e+00 -2.8017084664537945e-01
      -1.1193016211303162e+00 1.6125978846271170e+00
      -1.4849577554506030e-01 -2.2987621436145291e+00
      -7.1350100373188963e-01 -4.4455562731717424e-01
      6.7082701986285492e-02 1.1905266318601407e-01
      -1.9677769712148612e-03 1.0099884699000770e+00
      -6.9871712268010711e-01 -3.6183160231175410e-01
      4.6733258327602761e-01 -1.3037583246373723e+00
      7.5059600956746164e-01 1.5694063370908673e+00
      7.7008960158526063e-01 1.0394065241552271e+00
      -6.1888078306557145e-03 1.1402448124559723e+00
      -4.1217576411252538e-01 -6.0302937271541401e-02
      1.7884712156031801e+00 1.3966387274309060e+00
      4.6719803787168263e-01 1.2303871291113539e+00
      5.0394507453431506e-02 1.2642358890443528e+00
      4.7669808460583712e-01 -7.7908556058310666e-02
      7.2262334356442537e-01 -7.3128294986047959e-01
      3.1739876225480312e-01 1.3360722577850821e+00
      -6.6979831627894904e-01 -2.0146904128492946e-01
      -3.1648493359018225e-02 -3.2071040813696738e-01
      -6.7519509963163482e-01 -1.1586937121352650e+00
      -1.0439325499513896e+00 1.6926802770398126e+00
      3.4057605058775420e-01 -9.3003928572386607e-01
      -7.7455352397285598e-02 -1.3775034665894883e+00
      -4.4296498901182058e-01 3.9952873048270310e-01
      -1.4892026357152282e+00 -1.3725117680075435e-01
      -9.1483291958819726e-02 -8.3319200397140958e-01
      1.0973011021701542e+00 2.8336357576758442e-01
      1.9864480627849428e+00 -3.7159420589709857e-01
      1.4292312470219617e+00 3.5017322093311037e-01
      5.2758347343321776e-01 8.3072240928092433e-01
      -1.6772178702184343e-01 1.4121702216560590e+00
      3.5424435463916415e-01 1.0390486034219346e+00
      3.1698836731455948e-01 -1.7484907971025547e+00
      2.6269887065634440e-01 4.9278450222250296e-02
      -6.9349944367055694e-01 4.4299965723015811e-01
      1.0266111639852778e-01 -3.0780825937580225e+00
      -1.6560936047829196e+00 1.7843056274778553e+00
      2.7586894412494387e+00 -1.0537092269975654e+00
      8.2080993724062190e-02 -9.7727337566730976e-01
      -1.3623446188453558e+00 1.3887339174521976e-01
      -7.3193799409878813e-01 3.5621099505207234e+00
      1.2370881823165321e-01 2.0498395451065821e+00
      7.1616062854554252e-01 3.7795684654620204e-01
      6.0223464539214738e-03 -7.0126447462446262e-01
      -1.1293567927094357e+00 3.2894263461455553e-01
      -3.8551463934336744e-01 -1.1834986613455545e+00
      -6.1379442115155308e-02 -6.3324105605728442e-01
      -3.7798030387338294e-01 2.0588722869555398e+00
      1.1980213345865607e+00 3.7655959842605125e-01
      3.8150916569816262e-01 -8.7154237487708142e-01
      -1.0365293816892931e-01 1.3883244581913521e+00
      2.6501333221577816e-01 1.8846712940989581e+00
      -8.7342095378343954e-01 -6.8601039421978394e-01
      2.3511246789938092e+00 1.1182131895609508e+00
      -1.4716452414824901e+00 1.1216905961303751e+00
      -4.7451474828374335e-01 -1.2449979955603618e+00
      1.2309127961352511e+00 3.1332817341425911e-01
      1.4741992025698687e+00 1.8793488128711451e+00
      -2.7432100307735574e-01 1.9935322508177514e-01
      9.3698970733833942e-01 -1.7532958119213793e+00
      -1.3203348336858619e-02 -6.7811558254978277e-01
      4.4887150422428207e-01 9.9620525953789474e-01
      9.4890599164522871e-01 -5.0539690079859634e-01
      -7.5067827700237100e-01 -3.6589714970526083e-01
      9.7392011510045029e-01 1.6318257632208779e+00
      9.6951981166464987e-02 9.9742492336252042e-01
      -7.7380749384620390e-02 4.7704453876089520e-01
      -4.0648798315040691e-01 -5.1804585324072383e-01
      -8.9028172572865083e-01 -3.8403177558669603e+00
      -6.3389062911043181e-02 5.4523962296708783e-01
      2.0015038662415125e-02 -6.0424234553891920e-01
      -8.4954606848882808e-01 -3.2691443135129677e-01
      1.1076290637242090e+00 1.5157366881886523e+00
      3.4869290814832438e-01 -4.6624695153602308e-01
      1.5785052323465210e+00 -4.3117582095601598e-01
      6.6830723261485214e-01 5.0378523826965160e-01
      1.1056092662936936e+00 -2.8518902357700284e+00
      -1.8035367622585459e+00 3.0424931415208398e+00
      -1.2238214040305373e+00 -2.7516556097874880e+00
      4.8719065046237203e-01 1.4347011561178211e-02
      -2.5041830260988123e+00 2.6493332458297756e+00
      5.8930983411850435e-01 -7.3617349925425762e-02
      2.1075098899657463e+00 -1.5803810129747835e+00
      2.3696211594984448e-01 1.8078469403739170e-01
      -1.3395548814103300e+00 -1.1403313867714171e+00
      1.2022209367579644e+00 5.4168810377684584e-01
      6.9778468983166053e-01 1.8974858412575244e+00
      8.5383836435016325e-01 -1.9393841714886750e+00
      -6.8148906789286912e-01 -8.0655004895698856e-01
      1.6860796644093123e+00 -5.3555543158889229e-01
      -8.0287658002508422e-01 -1.4358478416286382e+00
      7.9870041513969459e-01 -9.6712654099665829e-01
      -1.9796309034973327e+00 -4.3517326359242388e+00
      7.9718473911634546e-01 1.1809386916088700e+00
      -2.5864206001699412e+00 2.5300235753911422e+00
      2.5586397692635243e+00 1.4278765073133113e+00
      -1.3728543455053943e-01 1.8051154201170398e+00
      3.1992286682368598e-01 -6.5981797991545832e-01
      8.6504958595249259e-02 5.0319660231599594e-01
      -5.9602223610376800e-02 1.7951533748059523e+00
      7.3458813626017883e-01 -1.9711336921774547e-01
      3.4704649759781026e-01 1.8866324317539110e-01
      4.2507888573283731e-01 1.8894831456259173e+00
      1.0363131773890824e+00 3.8834568012148862e-01
      1.3989568698542088e+00 -2.9094392552346549e-01
      -4.0921240730869834e-01 -1.4698089328166566e+00
      5.7038270293239246e-01 2.0536343386026235e+00
      1.1208272816184650e+00 -9.4593954347308973e-01
      4.5639180275247004e-01 2.7682022848869847e-01
      -1.2123765916039597e-01 6.0538100443375986e-01
      2.0365544858632175e-02 -4.0759361075364053e-01
      5.4580596488905375e-01 1.2126369684872064e-01
      -1.6377131927961557e+00 -2.0440570771515323e+00
      6.8536757691127692e-01 -1.9515099984083837e+00
      -2.9769677752464452e-01 -8.9799613102293752e-01
      8.7463457199096706e-01 -3.9907239388987287e-01
      -5.4668573404858023e-01 -2.1533945410887521e+00
      1.1458192437210892e+00 -1.8391191068076864e+00
      1.7250292586879663e+00 2.5285134652362723e-01
      -7.3491577137793951e-01 -1.2114772880675986e-01
      2.2020736810733106e+00 8.9810478791328041e-01
      -1.2863533343339675e+00 1.1401618173321229e+00
      -3.9507899927099430e+00 -4.4791469351007429e-01
      1.2718284494973302e+00 8.2455836480851485e-01
      3.7502421712286060e+00 -1.6070576792585223e-01
      -1.9783651231549553e+00 -2.0224821315130123e-01
      1.1735226327482780e-02 -1.2506283070907140e+00
      -6.9048844072372251e-01 2.2539787930984141e+00
      7.7366999858275359e-02 -3.8335868971690901e-01
      -4.8969974872424542e+00 -2.3672515737546642e+00
      1.7582808803755190e+00 -1.4051979871518998e+00
      -2.5333962396984799e+00 4.6037359245472453e+00
      -1.0278703713006525e+00 5.9364652591824041e-01
      -2.1856875794498243e+00 -1.5584649066516099e+00
      1.4336510538987020e+00 -1.3170210719714273e+00
      1.7327670593342934e+00 -1.4453600738097996e+00
      6.9473877899392633e-01 1.1501524071662192e+00
      4.1396919329549000e+00 -4.5865746934990831e-01
      -3.2576269399347502e-01 -6.7562269980034850e-01
      7.4046181297879488e-01 -1.4854517672689271e+00
      -1.6340640639103272e+00 -1.0735814505300247e+00
      6.7812325808496754e-01 2.0452994514882228e+00
      -1.4388185289320926e-02 3.6609348600512864e-01
      -9.0720904502297162e-01 -3.0041888433732447e+00
      -1.8613818138465033e-01 1.2530833416939542e+00
      3.6441547590615425e-01 2.7611747979594599e+00
      -6.9972954129869425e-01 4.4238799289408781e-01
      -1.2364855128786867e+00 -6.9956028132297599e-01
      -2.9636624818502155e-01 -3.6804871467182942e+00
      -4.6292629972679950e-01 -8.1057826549813883e-01
      -1.1320320453759896e+00 1.7440532591368008e+00
      -6.5398386443320278e-01 -1.4773720282805531e+00
      4.4425636718998551e-01 1.3394131296672307e+00
      6.5815622126879592e-01 -3.1450536603333723e-01
      -1.0570391478268826e+00 4.5848966138224579e-03
      5.9516283886834165e-01 2.1017944604561416e+00
      6.4340092841554164e-01 4.1009115994311846e-01
      -1.6952300675150507e+00 -1.2346209616235855e+00
      -7.5745229592342844e-01 7.1032284381151867e-01
      7.6599779042751823e-02 -4.0105012346489215e-02
      8.9977112030316708e-01 -7.3330589122130141e-01
      -2.1830497859764808e+00 9.3110271924461718e-01
      -1.8831300535538292e-01 1.1831509469265347e+00
      9.5587840121230994e-01 1.7936785265037845e+00
      7.0125755913615728e-01 5.5564536854095981e-01
      9.1259449278121729e-01 -6.3602242478296855e-01
      7.1273658560698294e-01 1.5337512950662278e+00
      -1.0171665005161470e+00 7.2918669908000877e-01
      -2.1482973208964666e+00 -9.6902222985166986e-01
      7.9431444726478884e-01 -1.9695230104877353e+00
      -7.7445676223971804e-02 2.9281368161023619e-01
      7.7384335379019753e-01 7.8668438199806201e-01
      7.6967547136428194e-01 -2.1101945257302237e+00
      -2.6670205855014667e-01 -2.7874804261783463e+00
      1.4001890199019655e+00 -4.5675619441247978e-01
      2.0464851027370923e+00 -1.6797995305260007e+00
      1.5703679513997495e+00 -1.7493094880935636e-01
      2.3699604427492479e-01 -1.3788182227115233e+00
      1.1164755742997887e+00 -1.0596701305440991e-01
      -6.2991002914999905e-01 1.3229392296003193e+00
      1.1578878738235532e+00 6.3836450892504848e-01
      -2.2372853341915371e+00 -8.7979795843764175e-01
      -1.7880879768601012e+00 -5.5193321125014383e-01
      1.1549227234727450e+00 1.7598587370216998e+00
      3.0154968684640702e+00 -2.2498412361720468e+00
      -1.5779353009869543e-01 -1.8365681236910176e+00
      -4.1846671217560555e-01 -1.3646615538421065e+00
      2.8687419641635978e+00 -6.1734599527444978e-01
      -2.0700025539417088e-01 3.9885075709511035e+00
      -3.1756754259137119e+00 -1.6525754425795541e-01
      2.2677909610903679e+00 -3.2525491347204802e+00
      1.5105445318132174e-01 1.5399377927898692e+00
      -2.5295502339393603e+00 7.7962864650573305e-01
      1.3245919283758503e+00 -9.4370214560875443e-01
      1.1832968085579552e+00 -2.6863090020540339e+00
      2.5755217158814498e+00 -9.9122530210874937e-01
      1.4371068734967725e+00 1.3152951803055097e+00
      -1.3344526671609931e+00 -2.3778460245537088e-02
      9.3344376042864885e-01 1.0060237476979699e+00
      3.9808600420366802e-01 9.4820821237448250e-01
      8.1028384178486945e-01 1.4680325617866036e-01
      -4.4458923242012266e-01 -1.6807736047642392e+00
      3.6248736295161588e-01 1.4068315986257203e+00
      3.7740680762247558e-01 -3.1315298717423729e-01
      6.2088325206659312e-01 9.9812678076264594e-02
      -3.7422766337662683e-01 -1.6207008494853665e+00
      -5.3137078503394675e-01 -3.5254795083333790e-02
      -9.2465915434628920e-01 4.2273200275037714e-01
      -6.8366257812517361e-01 1.2717133640844994e-01
      -1.0290974442756837e+00 -8.3989219330139231e-01
      1.0146587675532072e-01 -4.0485561679804938e-01
      8.3702013729340030e-01 1.0885279252752372e-01
      1.5907590937519491e+00 -8.1063061394405500e-01
      -7.5560167206391871e-01 4.1165955911756114e-01
      1.2016468941384910e-02 6.7937448314680460e-01
      -9.5022243361425962e-01 -1.5047199846405235e+00
      -2.6116012627133807e+00 -2.3737127310504071e+00
      5.1757515522777342e-01 1.0359163753652296e+00
      -4.0508021656248128e-01 8.3765022867615779e-01
      3.7113653645632434e+00 -7.2969883115390743e-01
      -1.5716735567713283e+00 -2.7443713115770368e-01
      1.5955067499550293e+00 -1.3225581638900827e-01
      3.1334517327336471e+00 -1.0301105314093053e+00
      -1.0780228750870611e+00 8.4193151304420588e-01
      -2.5082879349942848e+00 6.5814575764145933e-01
      1.4596110239460880e+00 -1.0422888574652083e+00
      -1.5868889539619371e+00 1.3268318129553076e+00
      7.5593647500596339e-01 -2.5009611245352348e-01
      9.2275483347381604e-01 -1.6260625091654102e+00
      2.3235721117282999e+00 3.0009582202645251e+00
      5.4620839933576870e-01 6.8821683298036229e-01
      2.5814854030638856e-01 -2.4818433442442851e+00
      -8.3248258195978320e-01 -2.0558572906240409e+00
      5.1673684518762997e-01 2.2107658965730184e+00
      -2.0083915733198716e+00 2.6340021362193955e-01
      7.8239494097582885e-01 9.8613654012208507e-01
      4.4767857492935570e-01 2.0224696802295847e-01
      -2.3549750930396280e+00 -6.5873925500390595e-01
      6.0977257114949113e-01 -8.4300636009064717e-04
      -6.1286438011247091e-01 6.4730723866124917e-01
      2.7302329622674971e-02 1.4620167697480713e+00
      -3.4732173404571365e-01 -8.4668762571975431e-01
      3.8379299537177558e-01 -3.2154433762831586e-01
      7.8057154342318646e-01 -3.4137086312586767e-01
      4.5259844837111857e-01 -8.2665347493997399e-01
      9.0937501194180226e-01 7.7766403199781697e-01
      -1.8307272679032147e+00 -2.2172222426090267e+00
      -5.2472338273852996e-02 1.7014257902734539e-01
      -3.0725942602180595e-01 8.8809652182304855e-01
      3.6119038662615766e-01 2.9422317168802148e+00
      8.9981363747486565e-01 -7.6313148897173932e-01
      -9.2129089413480525e-02 -7.1610013386506266e-01
      7.3353820796253577e-01 -6.1789863723760496e-01
      2.0228549324699991e+00 1.5531656964567506e+00
      8.8547430977702277e-02 -5.3703729944340883e-01
      -1.1353619382615443e+00 -3.2763692502167463e-01
      -1.0438460999184618e+00 4.0012203355177578e-01
      2.3696034574827185e+00 1.1520522321051831e+00
      -1.7417798622225660e+00 -8.0004773076556868e-01
      1.4263773899018060e+00 -1.2680071536699942e+00
      -9.2187109880949614e-01 8.4165451551992443e-01
      8.8002494780377816e-01 -1.0028356783118662e+00
      1.6449757106981444e+00 2.6952569392067355e-01
      -1.3954808991151659e+00 -5.2151267898995424e-01
      -2.3931628055143568e+00 -6.0702564027256845e-01
      -1.1054239197702763e-02 2.8619859659055238e+00
      6.5096386988549637e-01 3.7058798067410686e-01
      -2.3761571986202106e+00 1.7467575966291707e-01
      -1.0254991245037668e+00 -2.0681613901955296e+00
      1.2248595517613408e+00 6.5276902028595984e-01
      1.3034166925380045e-01 1.4985738883563839e+00
      -7.1074445418655308e-01 -1.4084240277347961e+00
      -2.3320407424149274e+00 -1.4422249871016850e+00
      1.7229976728031087e+00 4.8232470819624534e-01
      -2.3158680066069155e+00 3.9756529212256803e-01
      -1.2833510773958530e+00 -4.9068543912145574e-01
      1.2326445764421907e+00 -1.9281582785799420e+00
      -4.4093385793649960e+00 3.2482916051443533e+00
      -9.9995448321003086e-02 1.6353356193943551e+00
      1.6559525769080927e+00 5.0136372160126030e-01
      -2.8859963156134976e+00 -9.8160570577702388e-01
      -1.3532035376123934e+00 -4.7110441918818841e-01
      -4.2578221889551232e-01 2.4048342537724734e+00
      1.6917377833778389e+00 3.2709503026100661e-01
      -7.1565308495518420e-01 -4.9890796760796213e-01
      -1.1231256147606983e+00 9.9273127918447709e-02
      1.6800108978665168e-01 -2.9145093874815869e-01
      2.7095014023335922e+00 -6.1702615593706531e-02
      -3.8938070662653318e-01 1.7712857832954458e+00
      -1.0185540406080094e+00 -2.1279755011086694e+00
      -2.6417734171957930e-01 -5.3148551356399579e-02
      6.6156227979599103e-01 3.7440581695664870e+00
      3.0971464260369537e+00 -1.4621795252032559e+00
      3.7600701563134320e-01 -9.4704602063908927e-01
      1.5566504432975039e+00 -2.6580030364945526e+00
      2.8811932518046048e+00 -2.9286765967504397e-01
      1.9571404863502977e+00 2.1095369015059107e+00
      -1.7779137303435120e+00 3.3416229057564726e+00
      1.0523835147070417e+00 -4.7385110528039294e-02
      2.2716775420270339e+00 2.6587109323182823e-01
      7.4681983829613524e-02 -1.0808107221678336e+00
      1.7000750469333956e-01 1.0410906640947368e+00
      -3.1277337124396194e+00 -1.3052818996803788e+00
      9.0225334307233263e-01 -1.6854844253406565e-01
      1.0563763144150631e+00 1.0938469228897606e-01
      -1.9464749531228167e+00 4.3697216519011084e-01
      -1.4315179929595117e+00 -1.6288045503543880e+00
      4.5432563088028793e-01 -2.3273175482797206e+00
      -9.3156119332189680e-01 5.8301000235891265e-01
      -1.3323906448684706e+00 -9.2529829193136526e-01
      -1.0717794855246718e+00 -3.2642427461389283e-02
      6.5362786012860130e-01 1.9468603924949029e-01
      2.0194976200116851e-01 1.4606953451032090e+00
      2.3243951201142656e+00 1.5322838882835530e+00
      -8.1790199288299489e-02 -3.5790898580668050e-02
      -9.4081814753348014e-01 1.0635894279985161e+00
      -8.3619545757963931e-01 -1.4107547175467572e+00
      5.5266670671211804e-01 -9.8546934868934200e-01
      6.9468600584296325e-01 -8.6747665536336094e-01
      1.5947951475024391e+00 6.6631627622276812e-01
      5.6660071771852272e-01 -4.8128640777063636e-01
      6.7024713022936422e-01 8.1783191024843394e-01
      -9.3173646833283919e-01 1.5919078695618480e+00
      5.2795949515941942e-01 -1.1514402618429631e+00
      1.3589457793501927e-01 8.2882555018277376e-02
      -1.4374036212319619e-01 4.4294145733255180e-01
      1.2438381745582578e+00 6.1379287364360779e-01
      4.3240721201610821e-01 -8.0692747547020172e-01
      1.0590052738382953e+00 4.3164302298743573e-01
      -8.1304314520474785e-01 -2.1684850591220170e-01
      -1.0693421702164590e-02 -1.1332300633857509e-05
      8.3890401282995922e-02 1.4668419285247505e+00
      8.9629537921406044e-01 -1.5032468121534885e+00
      1.5443528458175988e+00 2.3372247436522500e-01
      -1.7733953653531991e+00 1.5505773095545670e+00
      1.6577947408262876e+00 -1.4609551477186558e-01
      -2.9903152243988740e-01 -1.0952449299160233e-01
      1.7945943756376850e+00 -9.5845751429242232e-01
      -2.7074073328170167e-01 9.5911842615603637e-01
      1.7273125256081936e+00 -2.0421318238741985e-02
      -1.3310382659588960e-01 1.1160131213669875e+00
      -2.4453921477789002e+00 -1.0252073506473786e-01
      1.9190797271669313e+00 -3.9291906609343346e+00
      2.6072077163793794e-01 7.5222209093433717e-02
      1.2551217073423431e+00 1.1074373645710609e+00
      1.0341785912524852e+00 8.8435956642968816e-01
      -1.6037483129182488e+00 -2.0454013631322776e+00
      -3.2420423445917685e+00 2.5868860508992877e+00
      1.1853763418913321e-01 -3.0878859539446908e+00
      -1.9441534583644321e-01 8.6302897162061887e-01
      1.5450089282960389e+00 -4.3773260588963350e+00
      -1.4352381512922137e+00 -2.0061574673975651e+00
      -4.8739003744908684e+00 -3.3231885424163812e+00
      7.1950756502575852e-01 -8.6129482759823284e-01
      -2.6977067546815716e+00 -6.8742329284779002e-01
      -3.0748996936554014e+00 5.1156364036166402e-01
      -8.1999949252998167e-02 -6.3388252005980272e-01
      2.6097049453964254e+00 1.0720429195085850e+00
      3.0572027718022139e+00 -5.5560017249825988e-01
      6.7803820322875719e-01 -7.8430664328858912e-01
      -7.8225857185249770e-01 -4.4710337483829017e+00
      -7.7854808381687701e-01 9.5664173293579591e-01
      1.3860863962852701e+00 1.8498514846884165e-01
      -6.6419703743663383e-01 -2.9477962089167653e-01
      -1.3649881611104651e+00 4.7320007936017688e-01
      1.7796363974376690e+00 1.5221793017089011e+00
      1.6562916564523378e+00 7.6482301077509224e-02
      8.8074444772195470e-01 2.0149763854501868e+00
      -1.2412850256382129e+00 -2.8092033730200372e+00
      3.2273043240964618e+00 1.2631899277323670e+00
      1.3579778050543299e+00 -4.5093693424002645e-01
      -1.9198569973649913e+00 -3.2412393203479412e-01
      -1.8353905101675059e+00 3.5140751328998315e-01
      -9.6300236037604285e-03 -3.8179346715796737e-02
      -1.3181013086028051e+00 1.9650635014589571e-01
      1.5103073641678277e-01 1.1342025187712521e+00
      -2.4471644755962949e-01 3.6601187479684905e-01
      -1.1861159402641523e-01 4.7784313158045183e-01
      -1.3495734505738326e+00 7.5533845075218431e-01
      -1.5627224194205240e+00 1.7113320349028991e+00
      -1.2306636469385319e+00 2.9310733858359339e+00
      4.7208830459796020e-01 -1.6193469570838956e+00
      -5.3189763417652847e-01 2.6525047652201632e+00
      -2.3313226313109423e-01 1.7504110735574738e+00
      -1.0661158870509128e-01 -1.9046510147429498e+00
      -4.5326143385679507e-01 -6.1327245291069332e-01
      5.4042606815685812e-01 1.4678125057750429e+00
      8.5976606670981018e-02 -7.1491029455653055e-01
      7.0474827311469224e-01 3.4832299048293298e+00
      -2.8809759012532123e+00 6.7310389284675620e-01
      3.5074333290900089e-01 1.2865973185766051e+00
      9.1362441801941907e-01 1.8096959647796966e+00
      -1.2249037651864025e+00 -1.6073921719126385e+00
      4.9812210874747220e-01 1.0391727237172479e+00
      1.1526154105654238e+00 -1.1091779313841597e+00
      -7.1213342215308273e-01 -1.2180328393298065e+00
      1.5730077991294822e+00 -5.5736488794618094e-02
      -2.5687675764005249e+00 2.5940190740827884e-02
      -8.3542742798247172e-01 2.1795001473650664e+00
      9.4202693360448897e-01 1.3525028253378300e+00
      2.7399960461614098e-01 7.6096289582764765e-01
      1.1584354730615357e-01 -1.3539882008397359e+00
      -2.5876179443381728e+00 2.8204048665745884e+00
      3.1996077895435029e+00 -7.8608839008984821e-01
      9.5735347839817519e-01 4.7794294364018702e-01
      -2.7212348095165129e+00 -7.6853397307650118e-01
      3.2546511827421259e-01 3.1402705136040227e-01
      6.7563030214858155e-01 -1.9779402711818013e+00
      -9.7176297176798276e-01 1.8293958517915969e+00
      -2.8772319603335843e+00 -1.5067958700413318e+00
      -9.6086597449531297e-01 1.2918551168708550e+00
      1.2475037099007429e-01 8.6460124297685614e-01
      4.4854572060292813e-01 5.8392034371767361e-03
      6.2665293674670552e-01 -3.4365537738707572e+00
      2.8819854326115557e+00 -1.3860452459162813e+00
      1.6972001850674103e+00 1.9345592727920172e-01
      -3.9509943583948332e-01 -1.1332944578597990e+00
      6.9812353454713788e-02 -1.2817791145898865e+00
      -5.2081591592243104e-01 -6.6453550761527147e-01
      -4.8793908524608026e-01 -1.2985936608660877e+00
      1.1976317514829009e+00 -6.4019852897486951e-01
      2.2480074969158332e+00 2.6656089360810964e+00
      2.2237454979559312e+00 -1.0228492759537327e+00
      -4.2310945800239547e-01 -2.3726642549484391e+00
      6.4231216400970614e-01 1.3846062411046267e+00
      1.7056095575831780e+00 2.3002294853737850e+00
      4.8581499418754065e-01 1.6233023507406523e+00
      6.4910669889822437e-01 -1.4591469789815592e+00
      1.9660762141645365e+00 -3.1589997127263185e+00
      1.6022968644202420e+00 -1.1454289877508426e+00
      -1.4943644567834045e+00 4.6601398408409134e-01
      -5.7812381626424303e-01 1.0026020953378296e+00
      -1.5865781651848343e+00 3.3543506851731508e+00
      1.1026335551541435e+00 -1.0520799167356325e+00
      1.9138029469816242e+00 4.6145249218876590e-02
      9.7646470134420582e-01 9.5802661579634496e-01
      1.0115185087214886e+00 -5.8515476597920146e-01
      3.1883117435393844e+00 -2.5503607682596097e-01
      -8.7655037547119563e-02 -2.0967134383556645e+00
      -3.3990984084991538e-01 -1.4663575053139055e-01
      -7.5816503767147914e-01 -1.5183205297796043e+00
      3.8910941828587486e-01 1.4164596189547880e+00
      8.8152761970724813e-01 -1.4649406564265604e+00
      -1.4832800884045141e+00 -7.0077923103333295e-01
      -4.2756043417328177e-01 1.0968108215627179e+00
      1.1038731144573222e+00 -4.3102626642554653e-01
      1.2042595461808467e+00 1.5582469644172126e+00
      -7.2764971928036226e-01 -8.6958574366939123e-01
      -7.9091902125030433e-01 -1.6518742373044411e+00
      3.8857558601599945e-01 -1.1247694473734517e+00
      -6.0147982161433344e-01 -1.0752659013486257e+00
      3.9065177924003394e-02 -3.7539554167394962e+00
      3.1575830817709170e-02 1.2589351028128113e+00
      4.5494875081579578e-01 -1.7751708303542124e+00
      -1.3043933082105987e+00 1.7928024431585083e+00
      -1.3187974447035224e+00 3.7175067006182716e-01
      1.1448142096263867e+00 -3.1666895534548101e-01
      -1.2482259672180516e+00 -1.6105116193217590e+00
      1.2582189593816475e+00 2.1788483562973298e+00
      -1.4503630381404347e+00 -4.2234963646669488e-01
      9.0540960687558492e-01 -1.6042113496014991e+00
      -7.5772544875966574e-01 3.9649358836933535e-01
      -2.0805753314728781e+00 1.1867840705239578e+00
      3.2933678504452417e+00 -9.9784996002525647e-02
      8.3506414619391800e-01 3.6278010872220939e-01
      -1.4920061371792761e+00 -2.3114733675893535e+00
      -1.6026966840935217e+00 -1.4553442221430390e+00
      2.0608885938253256e+00 1.5745283822211815e+00
      2.1483384945458845e+00 6.4312013525712497e-01
      -2.3134605373454895e+00 -1.9958030594174034e+00
      -1.5690830489563892e-01 9.1258819727879037e-01
      3.4901228688259636e+00 1.8698684984732943e+00
      3.2678028014505740e+00 1.4321600646495796e+00
      -1.2140997763573498e+00 2.4797531249781066e+00
      1.3260354300158466e+00 -1.4628923790608763e+00
      4.8514060761797262e-01 -9.1891285049616589e-01
      1.2290599296618763e+00 -4.4062513927191249e+00
      2.6339428956596012e-01 2.9530100114150462e+00
      -7.7035387675698941e-01 1.4136715544853362e+00
      3.1116119034416717e-01 1.3577429589034176e+00
      -2.2588942918262909e+00 2.1908882752316030e+00
      2.1086886108124454e+00 1.2348170782151522e+00
      -5.2456238683658780e+00 2.7204217100130079e+00
      8.2633688371164560e-01 -3.5954760138897846e+00
      3.9141117433633461e+00 -1.5031954891275603e+00
      -2.0295874018755806e+00 -3.8066953699399795e+00
      -3.3814572714849916e-01 1.0844388964912424e+00
      3.5456388617048522e+00 1.8387801521243126e+00
      7.1850111864707755e-01 1.3238746735796783e+00
      -3.5667527814275659e+00 -3.3724152109343954e+00
      8.7044141302830169e-01 1.3368348906880778e+00
      1.5202004717473936e+00 3.1383041270011889e+00
      1.0991003409095139e+00 -1.2309246698031504e+00
      -2.1614122456133567e+00 -2.6878370142180597e+00
      3.0623547331115466e+00 -3.4983773562072500e+00
      5.2838890339097606e+00 -1.1658879332394445e+00
      1.1106861915244941e+00 -1.9762237962896294e+00
      -2.5173925132562900e+00 4.1659018584164187e-01
      -2.6491702757083333e+00 5.8733043031503973e-01
      4.4779888770534217e-02 -3.5641382246437026e-01
      -4.4826554633462340e-01 7.3528999562718533e-01
      -4.7204420392703395e-01 3.3659686796365029e-01
      8.5603029164464184e-01 2.6876669430169802e+00
      -7.7138369365379189e-01 3.6202967641017103e-01
      -8.9680396102386661e-01 -1.2638079422813751e+00
      4.5741147327653504e-02 3.0101620700721865e-01
      1.0412137981568723e+00 1.3918526145245280e+00
      2.2108994193299223e+00 -1.6396542188106489e+00
      1.5591582365990450e-01 1.4136995364026914e+00
      -2.7257219732110971e-01 -1.0871089815245751e+00
      2.9022115071233218e-01 2.1933195973238613e+00
      2.3528755479456573e-01 -1.4085921551787403e-01
      -1.7367353383013047e+00 -1.3201293201187114e+00
      2.2339348547793643e+00 -3.3469963389283770e-02
      2.8641722088660460e-01 -2.9716450834622565e-01
      -1.6122783492897286e+00 8.8583061302118615e-01
      3.0194595836699539e-01 6.1203893292480127e-01
      -4.6472862087377305e+00 6.8521818636465637e-01
      -1.0567837591574245e+00 -1.4673052696551145e-01
      -3.2643345937715912e-01 -6.7292772206282780e-01
      1.8066694847412514e+00 -8.9564040219601770e-01
      1.2956909586530736e+00 1.5560262073206153e+00
      -7.3489492109518995e-01 -1.9663534137780485e+00
      -1.9708049719843266e+00 4.3324600105507898e+00
      -1.9946629715877997e+00 -2.3535348627866894e+00
      -9.8636395057095344e-02 -1.2377460349606948e+00
      -2.1625259748463348e+00 2.6423562273453183e-01
      1.5649176402030913e+00 -4.5744800201524489e+00
      4.3904452166344993e-01 1.9302542398615334e+00
      -2.3624266078688594e-01 -7.4425045251709565e-01
      1.1545555471368103e+00 8.8765215765312877e-01
      7.5767504633209692e-02 -3.2679874337023667e+00
      -1.5943721068451816e-01 -5.6035960577339887e+00
      -2.3887744141381977e+00 5.5461727431286911e-01
      -1.2592740259754036e+00 -4.2055634538635518e+00
      -2.9556201350494860e+00 -4.0403363048048169e+00
      -8.3486274272380168e-01 -6.7100785002559338e-01
      5.0071464627663598e-01 -5.5131437082223664e+00
      -5.2485061567508602e+00 1.5958545121085945e+00
      -3.4897143721977546e+00 -2.9878202650162207e+00
      4.5433354733341877e+00 -5.1507587744331584e-01
      1.8167967139861601e+00 2.4209328318129542e+00
      1.6529797544178477e+00 -1.5750647754631728e+00
      -1.8243867377144367e+00 -3.7021024739485582e+00
      -3.6525142837709685e+00 8.1371225720803242e-01
      6.1863535496443645e-01 9.1671248843621067e-01
      -3.5278153186803873e+00 -3.2989522227953669e+00
      -4.4846071316861824e+00 -3.1145257722651354e+00
      1.0118729841820606e+00 -5.1407757616592376e+00
      2.4039238133581309e+00 -1.4252351945636033e+00
      -1.7338525664176068e+00 5.7092939287669831e+00
      -1.7585308985744248e+00 -5.6714153392641382e+00
      -2.1834372043677734e+00 -3.3997438932691946e+00
      -2.7767967864660852e+00 1.6277317127870943e+00
      1.4843958306268074e-01 -7.4746054231493789e-02
      -4.0790346984266206e+00 -1.6678152338309362e+00
      -2.0684009692401073e+00 7.1914334970179716e-01
      2.8826138536907684e+00 -1.3906693690721954e+00
      -1.9216425224391538e+00 -2.9005348983972081e+00
      -4.1547974318187011e+00 3.0160080048051841e-01
      1.6038992184064063e+00 -1.9483187338743069e+00
      1.7152037670276605e+00 1.1042755151301809e-01
      3.1123503368414407e-01 -2.9580599602179058e-01
      2.4775292553287337e-02 -3.7371380058935393e+00
      6.4684419457070014e-02 2.6313493016499026e+00
      2.5634248270883715e+00 1.3662585346693423e+00
      -1.4279919275548043e+00 2.6365125791066957e-01
      -2.0195718302793200e+00 -1.0248358009073799e+00
      1.6495970211430175e+00 -3.8527768637170960e+00
      2.8207045632874732e+00 3.4882549432719760e+00
      -2.2738591500391188e+00 2.6370584270096542e-01
      -4.6330734515734823e-01 -2.6332564732111532e+00
      -3.3481330512297798e+00 -4.4870503634117975e+00
      1.8496926439974792e+00 -4.1467166070023609e+00
      -1.7312944799338630e+00 5.3413712624381455e+00
      -5.9417306051970034e+00 1.5335176365254375e+00
      -4.9560250416156670e-01 2.2712095012646105e+00
      1.6636193683975249e+00 -1.2126539674722971e+00
      -3.5161032499217576e-01 -2.1849038001144496e+00
      -8.8329110516615298e-03 6.4025939913178775e-01
      3.3794339132668636e+00 -2.1100540567828143e+00
      1.8902316219148458e+00 -1.7336029448648436e+00
      -3.1983154452236606e+00 -2.1846861181215989e+00
      -2.2271899999262170e+00 -9.8201178508308273e-01
      2.4765624347778989e+00 8.9113733289747998e-01
      -1.2068301882848740e+00 5.1145260768143590e+00
      -1.1162455894559280e+00 -2.5583440631154861e+00
      -8.0202601298209375e-01 -2.7908686271076446e+00
      -1.3995174007998459e+00 -6.2684997806513443e-01
      1.3881772444802685e+00 -8.5903566097051642e-01
      -1.9789723299857127e+00 1.0128262389751399e+00
      -8.1625515912904223e-01 -3.5279734506382354e+00
      2.9811363254862280e+00 2.7697806370811939e+00
      1.1207518592127779e+00 -3.5228336443560608e+00
      1.1125701304143198e+00 2.8151735417666126e+00
      -1.7767673160290471e+00 2.7059375319169670e+00
      1.6032811804974707e+00 2.5776862805530049e-01
      -1.0228942457535648e+00 -2.2236250407291330e-01
      4.3199109866227697e-01 -8.2668167979490881e-01
      -2.9776200153116092e+00 4.9708619692302286e-01
      2.3732187532702012e-01 -1.7264266648868483e+00
      5.2785468485247500e-01 -1.6791384087866384e-01
      6.2890520000840155e-01 3.5419621119468686e-01
      -4.0910504057378716e-01 -4.1768267056701172e+00
      -1.3472915514520285e+00 -3.8504941961289990e-01
      1.1308415127894207e-01 -8.0616359189460352e-01
      -8.8792302240535104e-01 6.2555772812998744e-01
      1.4943925160175664e+00 -1.3261048650862362e+00
      -1.8361602041871610e+00 -1.5864626632198964e+00
      1.6888029841652233e-01 -1.4465171014123674e+00
      -2.0426756516408040e+00 2.7939468033629522e+00
      -3.0987603557644722e-01 -1.9765805090319759e+00
      1.8098913070070015e+00 7.3061325087615425e-01
      1.6999609841580026e+00 -1.3116691078339446e+00
      1.1785016714925958e+00 1.9441200203389615e+00
      -5.8263089766743470e-01 -3.5602442480353413e-01
      2.4078532928463483e+00 -2.4956365205296382e+00
      -1.1832058252696425e+00 -3.7553347586274360e-01
      -1.3932135503260956e+00 9.8219584152038608e-01
      -5.9927532408196793e-01 -9.8927492776751291e-01
      -8.5032162654133658e-02 -1.2368357073810594e-01
      7.9922145864161453e-01 -1.9038637921857202e+00
      1.9303819309871366e+00 2.7787770050792182e+00
      1.7166381638493530e-01 1.9057275913397109e+00
      8.0764705829791983e-01 -6.2588504808562118e-01
      1.3204572573763766e+00 -1.9528781012276235e+00
      2.5356476093890650e+00 3.0781529844160285e+00
      1.4731036250042291e+00 -1.8670650111630260e+00
      6.1798057808205775e-01 -9.1584351734144687e-01
      -3.3073786236603792e-01 -1.3374428055660053e+00
      -1.0013809845200472e+00 2.9514009981261924e+00
      4.3415174243895667e+00 1.3350895893438992e+00
      4.6281942134112928e+00 4.6087369740269271e+00
      -1.5196875905288010e+00 -3.0918148866944434e-01
      5.3058483612520000e+00 -5.8512236192824241e-01
      4.9071220508975300e+00 -1.0914601068400863e-01
      -1.7012524863480782e+00 2.4713928055537382e-01
      -1.5889550412859466e+00 1.6499181690612863e-01
      -9.5254363684892129e-01 2.0138323496383634e+00
      -4.4029634857095562e-01 1.1134758232958422e+00
      -5.8944886989995493e-01 1.1871495509557617e+00
      5.8684482050279374e-01 -1.0984613044821470e+00
      -4.4343252609491146e-01 2.1236440679329616e-01
      2.2772233629929470e+00 8.9097492812696455e-01
      -9.0214033741739041e-01 -1.2857310383367186e+00
      -1.4479865915073573e+00 -1.2843496744389318e+00
      1.4869691121404762e-02 1.8882043505299528e+00
      3.3294667495315661e-01 -1.1375786928026030e+00
      -1.8611848585686326e+00 -1.8805783070588677e-01
      -6.4983475822319292e-01 7.9265838251933521e-02
      -2.1564944298976201e+00 8.6945249409627401e-01
      7.0021350475242716e-01 1.9560851035379414e+00
      -3.9796932558060316e-01 -4.0392541828211576e-01
      5.0671155110853350e-01 -6.8548587101403005e-02
      -3.7990818329514048e-01 -1.3193263649559170e+00
      2.2686374167363219e+00 1.9180000010146556e-01
      1.4272769548973838e+00 8.2833032908821769e-01
      -2.7473059280824028e+00 -1.0664044302441305e+00
      -1.2446743665087299e+00 1.3074598625076950e+00
      2.6576907424608168e-02 -5.7857608126569160e-01
      4.2478884961723425e-02 -9.7346409547474544e-01
      1.2414072012975419e+00 1.3800127616226463e+00
      -2.6797173793434093e+00 1.3344420455049033e+00
      5.5694832930168847e-01 -2.9325627923614483e-01
      1.1003496566450106e+00 -9.2119313068121700e-01
      -6.7879145595421120e-01 -5.3708147387497862e-01
      -1.3917172779623630e+00 1.6040982147723613e-02
      2.1838540376812987e+00 4.4015309589542817e-01
      -1.0560095635254476e+00 2.2584440238832935e+00
      -1.6075089846758210e+00 -1.8908602780486021e+00
      -1.5198397312143199e+00 -3.5816403500041299e-01
      4.7239029316455067e-01 1.8756585128812746e+00
      -5.7029239696381995e-01 1.3161752777709483e+00
      4.4597256165556665e-01 -9.6928178518115538e-01
      1.9663281367944643e+00 -5.5810233709052182e-01
      5.0271977656521238e-01 9.4786151039253641e-01
      1.9148573019846820e+00 -5.4652025392406927e+00
      -3.5515777330783185e+00 -5.6690457848183984e-01
      -2.5985983523120892e+00 6.2106427312071277e+00
      -2.1705517675582878e-02 1.1590122053806873e+00
      -1.2069150230052148e+00 -1.7783871154171782e+00
      -1.2436427988556127e+00 -1.0111975893574774e+00
      -2.5733334675114365e+00 1.0084413121755276e+00
      3.9329861640383057e+00 2.9960071163742388e+00
      1.0095636102473831e+00 -1.6661055619397520e+00
      -4.3884026908142293e-01 -5.7985554043059517e+00
      -3.2717157546617875e-01 1.8920404723965856e+00
      1.3613440233720253e+00 4.0577159665217097e+00
      -5.7529182811348045e-01 2.2603094871709164e+00
      -3.2262195354669134e+00 -7.4904165999035766e-01
      2.1538474142943675e+00 -3.3608817942594754e-01
      3.6246105692913653e+00 1.0669383559105288e+00
      -3.2509738203886589e+00 2.3146678021033589e+00
      -4.5189915802667358e+00 4.8383398950811313e-01
      5.8074644355382894e+00 -1.2192240986517109e+00
      2.6004018159544984e+00 -5.1921024195992507e+00
      -7.6589595878031391e-01 1.3316312231222371e+00
      5.1188644125876348e-01 -7.5221127800031828e-01
      -3.2868499991235101e-01 -6.2120716676716883e-02
      -6.3750713163053929e-01 -5.0100002010729006e-01
      -7.4286965725356280e-01 -6.6404643415371722e-01
      3.9742431885929885e-01 -3.2558691974167070e-01
      -6.8324624174218540e-01 1.9793346904496550e-01
      1.7610142656173362e+00 1.4252600541097968e+00
      -1.0252542480171360e+00 -4.8535819919049955e-01
      1.9426675548815688e-02 -2.5324469669682914e+00
      -6.5905317850623688e-02 -1.9461774104941348e-01
      2.1188345488849064e-01 2.2265579890625391e+00
      -1.3942910256035108e+00 1.7968998713841522e+00
      -8.2505654219800739e-01 -1.6476558142166475e+00
      4.3152958056676793e-01 -3.4057715112618897e-01
      9.7334820789244703e-01 6.8531780090413119e-01
      -1.0524837697841714e+00 -1.9902028955692477e+00
      -1.8290151330473898e+00 7.5268346639922845e-01
      8.3337963387817915e-01 -1.2769814320076209e+00
      1.4085675238663731e-01 -3.8382907795113836e+00
      -6.6363692478086045e-01 -4.1398259869009219e-01
      9.5070832320645310e-02 2.1982702469647966e+00
      1.2904394633729377e+00 5.4814950623681191e-01
      -4.2080664031614951e-01 -1.8288226359969790e+00
      8.5719571494793134e-01 1.2663012745464672e+00
      -1.1298065178796513e+00 -1.8140402811060912e+00
      -3.7724177413337370e+00 1.3498852625581188e+00
      -5.0691674063347669e-01 1.1406235595543213e+00
      7.8974393667143616e-01 -4.2639746640545784e-01
      -1.7443764303174274e+00 3.1281814084719488e+00
      2.9189128738111116e-02 -1.7611188156425517e+00
      1.1759046445030772e+00 9.0526133754658755e-01
      -9.8115806651787396e-01 5.9706383724681489e-01
      -2.8663197263806340e-03 2.5989565296278588e-01
      2.1478706738145044e+00 -2.8826516244214906e+00
      1.7332202469532332e+00 2.8905184353761859e-01
      2.8807197818402206e+00 1.5140762703304522e+00
      -2.3164319422602961e+00 -1.5578426077026994e+00
      -5.6259519443509987e-01 -3.2677146683312177e+00
      -1.3843272824240964e+00 -9.6189109424393882e-01
      -4.1262199039056533e+00 2.8634242534161175e-01
      -3.8614566853072554e+00 2.1117424908878293e-01
      -3.2700914473686145e+00 2.2569634528339457e+00
      -1.2102642436832238e+00 8.8521791615615991e-02
      -2.9725562031302571e-01 2.8011285520144096e+00
      9.5459741906904871e-01 8.2180667916664973e-01
      -1.1997963736289285e+00 -3.9467862593672960e+00
      1.4383831197532242e+00 1.1895557979892175e+00
      1.4606687683967431e-01 1.3461079002609520e+00
      -5.3157059314588373e-01 3.8940465977108607e-01
      -2.7041730017034418e+00 -2.5913562777613697e+00
      -1.0679123705319882e+00 -3.5849794875874332e+00
      1.0350852521324161e+00 -4.6005073087019301e+00
      1.8209140526184805e-01 -1.4598170828282891e-01
      6.1180638899652265e-02 3.3822468300078938e+00
      -7.5724161893151842e-01 -8.1896470330442739e-01
      -1.7353759352027578e+00 -5.4891061432720596e+00
      1.2398209107342584e+00 3.1473227056938312e-03
      -1.1419085685673804e+00 -8.0707034759094987e-01
      -3.7831199317021160e+00 -3.7234015020474581e-01
      -2.2033963047773089e+00 3.1492586863420162e+00
      5.3974672311794336e+00 2.5610478982852658e-01
      -7.4936005235105393e-02 -1.6823773884303213e+00
      1.6612544401737286e+00 8.8690551845534971e-01
      -7.4833207688700965e-01 1.2306789155811073e+00
      2.2359965773446215e+00 -8.9394630518852924e-01
      -1.0812348563541299e+00 -8.4729902438972704e-01
      -7.6162424561487407e-01 -3.6239616342805370e+00
      -6.0406686636556006e-01 8.3929929079429355e-01
      -4.0531609934345014e-01 2.2791040974647094e+00
      2.2470685922408036e+00 -1.9359870568651254e+00
      -2.6753709031340311e+00 -3.3172025177784805e+00
      1.2645769295739919e+00 -1.9154510641545952e+00
      -1.2790413922159098e+00 1.6708164722209204e+00
      1.4388531668263083e+00 5.9889929194944147e-01
      -3.0248642600814151e+00 -3.3930766729651403e+00
      -6.1670641173798249e+00 -5.6432900811745357e-01
      3.2661396462737193e+00 -9.4940503953752631e-01
      3.2355162114733699e-01 3.4743375987328355e+00
      -3.6548881886909044e+00 4.8288869036772404e+00
      -1.0027725575262856e+00 1.3121489832464466e+00
      -8.1052665459126283e-01 -8.8095034496782507e-02
      -2.3616162533004212e+00 -4.7272366715466185e-01
      1.3081425727617779e+00 1.8287936034504073e+00
      1.7661464261311721e+00 9.6710780958362197e-01
      -2.2058583952847960e-02 -8.5531374233289448e-01
      1.1734716505977912e-01 -1.5523642897096264e+00
      -8.6733938904189345e-01 -3.1293188324499838e-01
      4.6755017688018979e-01 1.4131579646894790e+00
      -4.7314473598485302e-01 4.1522355914959777e+00
      -4.0983440641787661e-01 -4.3335979659085749e-01
      -1.2056883372198128e+00 1.4608760679157433e+00
      6.5035603974266076e-01 -4.1828213061077613e-01
      -4.4602451261194637e-01 1.6161531612932050e+00
      7.9258300048607933e-01 7.8525562646753666e-01
      4.6120103166990906e-01 -6.7149314686077932e-01
      3.5803251495840156e+00 1.7218641084735231e+00
      2.0894044019063327e+00 2.4730890186171445e-01
      -1.4989538185719864e+00 -2.9516642462801818e-01
      -8.6433275139251797e-01 1.2641526100615281e+00
      4.4387730149189308e-01 -5.0741736298060247e-01
      1.6484153147052534e+00 -2.6622749613337670e-02
      -2.3413162100044165e+00 -1.2318825137107798e+00
      1.0760062783909674e+00 1.3579125242669352e-01
      -6.2588255612094923e-01 -9.5779205721971661e-01
      -7.3295115517595100e-01 3.3868095643716600e+00
      1.0298366763313151e+00 1.3952582628693562e+00
      -4.5851611579591300e-01 2.3479523508751505e+00
      4.2082373954690061e-01 2.4889628078845139e-01
      -7.4196626494039608e-01 1.7919690292393666e+00
      7.9285322749805620e-01 7.5573155027249894e-01
      -1.2715487412032181e-01 1.8918957583078475e+00
      -1.8685805685442993e+00 -2.5529808471508333e+00
      2.2424623482330208e+00 -6.1075439358701888e-01
      -1.0748968781181703e+00 -9.6070209441828192e-01
      -4.9520643429940747e-01 5.9014392267791316e-01
      1.2502483647266387e+00 5.5772803741600141e-01
      -3.8727445027454124e+00 -1.3640729318905629e+00
      -1.8408617058988754e+00 1.8023593788911316e+00
      2.1701107919988569e+00 -2.9069529244180607e+00
      -1.5360819573391002e-01 3.1189586966105578e+00
      4.7665372602914541e-01 -2.4545402046016770e-01
      -1.0280201477698707e+00 1.1058683219887810e+00
      -5.3409467664081368e-02 -1.7452559903312206e+00
      3.7953722619087954e-01 -5.0637035032247635e-01
      -5.1301197687904077e-01 1.3347833431740226e+00
      -7.4848935669931791e+00 4.4097690575151534e+00
      1.8492032364373192e+00 4.3762506460913260e+00
      -1.8875077789363320e-01 -1.0287245381272567e+00
      -3.2539570809199847e+00 -7.7802414830620170e-01
      2.1416319121116756e-01 2.4706892899246475e+00
      1.4126015954706697e+00 2.3636304476795420e+00
      -8.6961855583036396e-01 1.0647073421924842e+00
      -2.8321279396423344e+00 -2.1887588841397045e+00
      -2.0297802398071010e+00 1.0334163442105204e+00
      -5.5099251312003283e-01 6.0705427031391723e-01
      1.0464283631648007e+01 1.9002541689649148e+00
      -6.2642517873199184e+00 -1.3817065870869383e+00
      1.0767598661034441e+00 1.8582233855229486e+00
      5.3619218698139592e-01 -1.6857226482990713e+00
      -9.6213407807895812e-01 1.0749566339274628e+00
      -6.2604549829247891e-01 5.9913516526645630e-02
      -3.3825732470115457e+00 -9.9968473121246815e-01
      4.1217652424027268e-01 1.2896833055353824e-01
      -1.6386806870698815e-02 6.1733122782923611e-01
      8.8722677361663094e-01 1.2223133910339159e+00
      7.5680084531083047e-01 1.3036786230341961e+00
      -1.5664215137158055e+00 1.3151832284787328e+00
      -7.7793804243753617e-01 7.7998740591410798e-01
      3.9893168543092045e-01 5.4856170077609112e-01
      -5.6385055936622053e-01 -2.6580239325745874e+00
      1.2143319733847353e+00 3.4834558445060204e+00
      -1.3882252552164476e+00 7.3715352280264035e-01
      -4.8706454997576659e-01 -1.5648122314774693e+00
      3.4543687148506902e-01 2.3677168671749702e+00
      -8.2809490760244620e-01 1.2910149006760632e+00
      3.2505647466183234e+00 1.3543489180434060e-01
      5.3787138236922438e-01 -1.4655920821833244e+00
      7.9310991904930739e-01 -4.5494031444497846e-02
      -1.8345648361526065e-01 9.3913173821483054e-01
      -1.2704562046978436e+00 -4.8832005682389115e+00
      -1.7587424823309399e+00 8.7121070892427044e-01
      -8.5605872976104747e-01 1.0248990006431475e+00
      2.5434369221264252e+00 3.1081399542007460e-01
      -1.2214581686403942e+00 -4.3552022458593637e-01
      -1.3130303124182555e-01 -8.3662597162656460e-01
      2.3516531049184559e+00 9.4410443670282862e-01
      1.3176221769396614e+00 2.8738008371280630e+00
      3.3358852287632845e-01 -2.4197796981589623e-01
      -1.4992666913327013e-01 -1.2196762098565139e+00
      3.1653481216582016e+00 1.9329412100905032e+00
      -9.5247952643667977e-01 -8.1809431616895179e-01
      1.7618107866323216e+00 2.2786008462431917e-01
      -1.1219215676018348e+00 1.7338861011325318e-01
      8.0012162303308387e-01 -2.9510164738490402e-01
      9.1753294369677371e-02 -1.0240285444410693e+00
      -2.4951261541236951e+00 -2.1600476547562777e+00
      2.3517808724182716e+00 -1.4197073533322822e+00
      -2.1704693043886980e+00 6.4802290661706397e-01
      1.1787660126455985e+00 -1.2397657631833752e+00
      -2.2071290541359878e+00 -5.2205180745154625e+00
      -1.8062836187311577e+00 -1.6426380740245512e-02
      -3.6921081457143599e+00 1.2752054076958537e+00
      3.4947022096273206e+00 2.6731274246218506e+00
      -2.4600256482736325e+00 -3.9968754866022999e-02
      -1.2544477415835102e+00 -4.4624438561511925e-01
      1.3782380129778031e+00 -1.2246299503235900e+00
      1.7850410289433665e+00 4.3253796306950791e+00
      -1.3571263566402940e+00 -9.5176321939101760e-01
      2.1745021808353504e-01 -3.7157057969360152e+00
      1.6614041677103730e+00 4.5312128160719007e+00
      8.4269699025414746e-01 2.9407144048894002e-01
      -1.2244710630351312e+00 2.4109973709248425e+00
      -1.9416630978845402e+00 5.8138734940397219e-01
      3.4905387926720655e-01 3.5546272397762690e-01
      3.6674295634133838e+00 -4.1565297391066747e-01
      -4.3334203581422024e+00 -4.4086488551513501e+00
      3.6739677684849903e-01 2.9467665656171151e+00
      -3.2290229840946711e+00 -1.9867597570168314e+00
      2.8630362439499812e+00 -1.7388078899746215e+00
      -8.1483916867602188e-02 2.9744429286806134e-01
      -3.4386424242429907e+00 8.4860202840097720e-01
      -3.0622091618740934e+00 2.2518534057179221e-01
      7.4480804638287501e-01 -4.0698686958986824e-01
      -6.9664853567728846e-01 1.2275537761162674e+00
      -1.3108765208809152e+00 9.5004946202187648e-02
      4.9593626241949948e-02 3.1485011456517196e+00
      5.1974759569319295e-01 8.8344050985242828e-01
      -3.1739537409281610e-01 -1.4568569392783155e+00
      -3.0180853326969342e-01 -1.9401760934431662e+00
      -1.6454496227389805e+00 -2.2997029419716046e+00
      1.8450690565733618e+00 2.7348717974138412e+00
      2.8464379191822382e+00 4.0863709442558447e+00
      -4.6011960727908274e-01 -3.4489476700403561e+00
      -1.2333674447249161e+00 2.4552468763875107e-01
      2.7186480475818535e+00 1.0411347053254163e+00
      -1.8492647680454155e+00 -6.7950553191038332e-01
      -4.0414941317425102e-01 2.8327402782317614e+00
      2.8791505442416518e+00 -3.3101867645438121e+00
      1.2945993763771628e+00 -2.8347226696993704e+00
      -1.0054224796830273e-01 2.6274729845871363e+00
      9.8259818090503848e-01 2.9037654063242985e-01
      -3.6301602902318035e+00 3.2460869172355711e-01
      1.7712407638093972e-01 1.5300441200780988e+00
      -2.4290145829535015e+00 1.5518834152666889e+00
      -2.7580171867611729e+00 -2.1249966965402711e+00
      6.0498890928536453e-01 3.2790366195777038e-01
      1.2538520985125936e+00 -1.3564823804293868e+00
      -2.0961292145695257e-02 -1.0179014368311461e-01
      -2.1239729884943706e-01 -4.9627861019197855e-01
      -1.2974166334661497e+00 -2.9989412778530466e+00
      5.1986334230074327e-01 -3.2595095124088376e-02
      2.1918331775069668e+00 6.5213038840938697e-01
      -1.2025114291706631e+00 1.7525051119712127e+00
      1.8712417167749931e-01 -5.8732447175909597e-01
      2.0985719889381151e+00 8.5029249425135056e-01
      2.9439537258563169e+00 -2.5374070934302289e+00
      2.0589657457643042e+00 4.9452560565135895e-01
      3.5862364074448081e+00 -8.1982002179985813e-01
      -2.7404319407669426e+00 -1.1843509159869849e+00
      3.3494520787555027e-01 1.5122782585424235e-01
      -3.6400965538467780e+00 -6.6363369950102613e-01
      -7.8018334314516735e-01 3.5275689921672613e+00
      -1.0188898346464006e+00 -6.4416396144701804e-01
      -2.7107998481833477e+00 -5.6992879878911373e-01
      -1.5042414933320554e+00 2.4539351822714734e+00
      8.2306847205011663e-02 -2.6393517456931930e+00
      2.6821249361009127e+00 -9.1627924012215506e-02
      -7.6173232616548670e-01 -6.7750726042987752e-01
      -4.4598560898501016e-01 -4.2077296731705287e+00
      -1.9435310467277258e+00 -3.1030625256798214e+00
      8.5041066247405206e-01 1.0441673581769790e+00
      -7.5158656181671502e-01 1.8808858129376727e+00
      -1.8046877740954557e+00 1.7063659213214495e+00
      1.8507316626309153e-01 -1.8160993722432586e+00
      3.1463328785240513e-01 -3.2520639955662847e+00
      -1.2912451482794312e+00 -3.9109973862594369e+00
      -1.0648088020710662e+00 2.9868308489988684e+00
      1.4320611784304526e-02 1.5701033271139486e+00
      1.2548152507878680e+00 7.4544901469811042e-01
      1.6347714787881564e+00 -1.9386602055633340e+00
      7.1552158063877280e-01 3.0630470491300907e+00
      -1.0160416251251163e+00 -1.1518914941603149e+00
      1.6270201214092357e+00 1.9698033903832263e-01
      2.5123796952359676e+00 2.6775284732073834e-01
      -6.3541457767223319e-01 -1.7531445828293706e+00
      -3.6237308765634104e+00 -2.3566259834660923e+00
      9.5318239807081462e-01 2.4422635888153490e+00
      3.6257950088211627e-01 5.9011996529527222e-01
      -9.8461656587624036e-01 -2.2717894911119294e+00
      8.6231820988954988e-01 1.0620884742675769e+00
      -8.1780966593255056e-01 1.6242855632307363e+00
      -1.5795351978424282e-01 -1.3958967451447865e-01
      3.3531931642894913e-01 2.0204652989794512e+00
      1.9935586658304167e+00 -2.0460446349041281e+00
      -6.5133228340300664e-01 2.8926336206043026e+00
      -2.1100800864233822e+00 5.4295365004936547e-01
      -2.0894657373306931e+00 -3.4676984744046990e-01
      -2.1035464783449469e+00 2.2406075431254155e+00
      1.6974249303189157e+00 -8.7915645608397630e-01
      4.1839096915556140e-01 3.0649737874219931e+00
      -1.2243465012638799e+00 2.7335204441232004e+00
      -2.2510920151576777e+00 1.1247942061225975e+00
      1.1908583246130391e+00 1.8867209388182096e+00
      -2.2838736722867325e-01 -2.0917746869143712e+00
      -1.5016314551426528e+00 1.1290922450688952e-01
      2.5391048240008507e+00 5.7591425829867382e-01
      -2.3222209435013594e+00 5.1271470032472610e-01
      1.2046456114084489e+00 6.8906859288319344e-01
      1.1922177354277308e+00 -4.9075977945387755e-01
      -2.1279818903206609e+00 5.8276884616068847e-01
      1.9248797965834907e+00 1.8708087182693447e+00
      -1.4874671367214967e+00 -6.9401173584876552e-01
      -1.8761092016060033e+00 -1.6070869219516945e-01
      2.1461496920395779e+00 -2.4685390515967995e+00
      9.0912301703448550e-01 8.2035036631342684e-01
      4.1801969081621093e-01 3.2844643280545154e+00
      -3.4130997811008035e-01 -1.8119890468262993e-03
      8.2983240318431251e-01 -8.5829223582704217e-01
      1.7410391769638467e+00 1.1344090475282966e+00
      -8.8145935121371466e-01 9.6134906636188927e-02
      -2.4865397586284640e-01 1.9058785826421962e+00
      -8.6817386613527989e-02 -5.8685112597255196e-01
      2.7368523841056938e+00 2.3881092033381073e+00
      6.4921341232056884e-01 -1.2207723883162565e+00
      7.0990951829581839e-01 4.5404015669670245e-01
      1.0488241614866255e-01 -2.6286735176000514e-01
      1.2587144504215708e+00 1.6635519100455227e+00
      6.2409524913917636e-01 6.3487287550049176e-02
      -1.2912571501231815e+00 -5.2244010953763897e-01
      -1.3110056921686670e+00 3.2570930123472452e-01
      1.1688110734972006e+00 6.7088249539795064e-01
      3.1201377044954010e-01 -1.6905527259451030e+00
      -6.4866532886474804e-01 1.8864519249292760e-01
      1.5560150256534135e+00 -7.5679702487395661e-01
      -1.3243009421325305e+00 1.3518664804136999e+00
      -5.0979782462681622e-01 2.6607980957394948e+00
      1.3486206131748318e-01 1.5395149926644544e-01
      1.7491616753399104e+00 -2.1176511809820027e+00
      1.0441738237961133e+00 2.8115958101860898e+00
      1.6960319721090020e+00 -8.8261643339088713e-01
      1.0227757590462832e+00 1.2751818453511061e+00
      1.1599306875991910e+00 1.7663999202268450e+00
      -1.0436776194730814e-01 -5.0399269363274957e-01
      1.0107485248061574e+00 5.5702793062163936e-01
      -1.8533891614444005e+00 -7.0033996782216767e-01
      -1.6218733865253419e+00 3.3238655465042366e-01
      1.0549490057370579e+00 5.9440900066829849e-01
      2.7686033147272173e+00 6.5790784045164175e-01
      -2.7262680556105867e-01 -1.8478680701142181e+00
      1.0005724881613001e+00 4.6741497863839605e+00
      1.8029106688638661e+00 1.8860266328108355e+00
      1.0541627423986570e+00 1.5537605841133340e+00
      -1.2989462064518655e+00 -1.7951016916220000e+00
      -8.7288187764273717e-01 -3.7911113787602355e-02
      -4.9628932002653198e-02 2.6965167219338007e+00
      5.0515412920672309e-01 4.6165231859626550e+00
      -1.0232267660537524e+00 -5.3024355829416814e-01
      1.5245071846558973e+00 3.3658374009306422e-02
      3.1806942326824119e+00 5.1654362318738167e-01
      8.4539699317883754e-01 -2.5294063763082604e+00
      -1.1590167884802967e+00 -8.3536523777470520e-02
      3.3221655050644727e-01 6.6308465127172900e-01
      2.8633491991292479e-02 1.6037273999113018e+00
      1.8065902273155912e+00 -3.8966413062332877e-01
      1.5270314369504490e+00 5.7344757594102247e-01
      6.6657108708819990e-01 2.3358935710876181e+00
      1.1895625395174694e+00 5.9933434326264989e-01
      2.1609333766621089e-01 1.6405672042496715e+00
      -1.3286578709614629e+00 -3.0303911322664612e-01
      5.4365219004625920e-01 2.3173677550982155e+00
      -3.8481368333745975e-03 1.9012725978119421e-01
      -5.8738376042131257e-01 5.3039025916944693e-01
      1.5238895321381947e+00 1.1920664243520045e+00
      -2.3863249385523293e+00 9.7638070590107318e-02
      1.2200908152135865e+00 -1.4261423463952747e+00
      9.6584149627979149e-02 2.8211211910965766e+00
      -8.6015806408838558e-01 1.7542164190086945e-01
      1.8077165805179616e+00 2.0343472639374336e+00
      -8.3912540410614878e-01 -1.0532071094679201e+00
      1.5329982736799727e-01 1.0119044416570000e+00
      1.3259205709477937e+00 -1.3545728933914591e-01
      -1.4201742146506096e+00 -7.4153362202766704e-01
      9.8677105273950044e-02 1.3710623883979560e+00
      -5.2912560264217190e-01 -3.1396652337392789e-01
      -6.6458242857504302e-01 7.1758682163650589e-01
      9.9655459158174226e-02 -9.0234585538320433e-01
      -1.8468276613589824e-01 -8.2887478296101669e-01
      -6.0532070897923806e-01 1.7593688348591308e-01
      2.5079993794170288e+00 6.5112160869583546e-01
      8.7996214186734567e-01 3.1169968324896464e+00
      -6.6859009062325017e-02 5.6604080656297262e-01
      -3.7706447050892650e-01 -5.0840185779491572e-02
      1.3820508679771195e+00 2.7959556379894077e+00
      -7.2948816284514084e-01 1.1107546529901193e+00
      -1.1706580996648477e+00 1.2936503917044445e-01
      1.2943250880398319e-01 2.7399650492458261e-01
      -1.8484212447087287e+00 -6.1017664612099642e-01
      1.0291118195069620e+00 6.7137685460161778e-01
      9.9726877162122307e-01 2.0488172966409879e+00
      -2.6603574980045002e+00 2.7347681231304466e+00
      -2.3993388413984853e+00 -9.6511144787148739e-03
      -1.6534459571208038e+00 5.2691143583959354e-01
      -1.6309881221574598e+00 8.8316672065783230e-01
      -1.7471568339801014e-01 1.4879512273621296e+00
      1.8805158894868523e+00 -9.1332425970662712e-01
      4.6667720236163461e+00 1.3120407842758158e-01
      -7.0827890965522311e-01 4.5955538309057804e+00
      -3.5684740378020563e+00 -1.1860682365049138e+00
      4.1351197233889296e+00 -2.1545786387693737e+00
      1.0809912013627185e+00 2.2140404965117968e+00
      1.0299197182474757e+00 -2.7738465712057614e-01
      8.9110530929783860e-01 2.2929401206162625e+00
      1.6531276481405069e-03 1.2654711408233295e+00
      -1.3519270397265675e+00 2.7352631380198977e-01
      4.4634322702573087e-02 1.2905342326524005e+00
      1.0581911385829650e+00 -5.4216206399918643e-01
      -3.0642797458682547e+00 -6.6812766433346293e-01
      -7.1098856607983618e-01 -3.2695503856473427e+00
      -1.1820559259143111e+00 -1.9064524138433601e+00
      -2.0310371871225992e+00 -1.8463603879230225e-01
      2.9024118991071211e+00 2.3304980842647165e+00
      1.1454632404336829e-01 2.4764238825020515e-01
      -5.2132426129648135e-01 -2.7485045916862503e+00
      -3.7139936014175001e-01 1.2144434443232517e+00
      -1.4079766682295083e+00 -2.0918612228314819e+00
      1.7772907216215872e+00 3.4336144405922919e-02
      3.8905911558739792e-01 1.5619385081613990e+00
      5.4728651349915147e-01 3.2391310307704629e-01
      -4.7587938982207298e-02 -1.5681648934544021e+00
      -1.6171426356198979e+00 -2.0868380913311346e-01
      -2.0538278308372213e+00 5.4652285289236247e-01
      1.7549172868612464e+00 3.0717938518695909e-01
      -1.9143185969095630e-01 -3.1101788274390019e-02
      9.0146790951335032e-01 -6.9247532530940181e-01
      1.4574761526662258e-01 -9.3686023477503863e-02
      3.3037018360734103e+00 4.4078487508581805e+00
      1.3954653916007520e+00 -1.7419039872911388e-01
      1.1450195523242159e+00 -7.3770498176222676e-01
      -5.3421131311333192e-01 1.0883459369227875e+00
      -4.8776763215164726e-01 1.5308887516021821e+00
      -2.0521758550424298e+00 8.6452757559736859e-01
      2.1262367507206156e-01 3.1873190812219581e+00
      7.6768035220083752e-01 3.4180921507806622e-01
      -2.0316576028079609e+00 -1.7484414639230046e+00
      -3.0343529380572047e-02 2.9174017725154966e-01
      1.2799094342397368e+00 6.6061652161980267e-01
      1.5878637944933021e+00 -3.3170549378964216e+00
      1.5886260499412702e-01 -6.2045486449714848e-01
      8.3302554023327902e-01 -2.5236120002384994e+00
      -2.3178644862898454e+00 -4.5566401995246091e+00
      -4.5791768261255583e-01 4.8011477506942795e+00
      3.9899964287845668e-01 1.6548209480516971e+00
      -2.2004831369792188e-01 -5.3185442455956988e-01
      1.4280900750832011e+00 -8.2004485417015627e-01
      3.2989512105933296e+00 3.2786309762579402e-01
      7.1368776934302702e-01 2.8547117212341971e-01
      1.8904941298873810e+00 1.2249439135651934e+00
      1.4887467955529381e+00 6.5431676842877740e-01
      1.6812296841155308e-01 -1.0818212078521178e-01
      1.3295963547149094e+00 2.0874835373530329e+00
      -2.4975761908805412e+00 5.5919805207926532e-01
      -1.7839189560388125e+00 1.3183666896096067e+00
      -4.1647012710437398e-01 1.8462447735760188e+00
      1.8028209909203514e+00 -4.4337573834432847e-01
      9.3067608161930149e-01 -2.3541370627098659e-01
      1.2331715058016421e-01 -2.6317268543653198e+00
      3.6279969096825232e-01 9.1433509170463712e-01
      -3.8733211804632367e-01 6.4314609800676115e-01
      -1.3480433470963049e+00 -2.0353193320101455e+00
      -2.0565367900335847e+00 -2.1917053253668550e-01
      8.4764624566242874e-01 -1.1289760248159779e+00
      -7.4270542929449312e-01 1.4683034659014880e+00
      -2.3373742688191035e+00 -2.0543669319103932e+00
      1.3126120086003819e+00 -3.3518335725887805e+00
      8.0328401605996991e-01 1.9804594014631254e+00
      4.2588695928038760e+00 2.0285490551977370e-01
      -3.7011040010572174e+00 6.7529887390553700e-01
      3.4109845196762051e-01 -1.3023582244805881e-01
      3.2223834412236756e+00 -1.1831498708751662e+00
      4.0386221637132032e+00 1.1414103103537555e-01
      -1.4717887230868048e+00 -1.8758874150483926e-01
      1.8311851084776920e+00 -1.2627575130606457e+00
      -4.9065674973934403e-01 2.8997679925388002e+00
      1.0522169001859076e+00 -8.4094523996456338e-01
      -3.0102653979059042e+00 -1.2291659873555752e-01
      -4.4655935509331923e-01 -1.4748816487728011e+00
      3.2071158975443509e-01 -1.6309367162206334e+00
      5.5782471874645911e-01 -1.2335279226147046e-01
      -1.7727679884205513e-01 -2.7137788845895849e-01
      2.8540789128987570e-01 1.3837377106389017e+00
      -1.8869030333662986e+00 4.8107527457074220e+00
      -8.2018716587129925e-01 7.8384064707992385e-01
      -3.0920586744411138e-01 2.7154432850572756e+00
      1.6575604070663541e-01 -3.2682511880089065e+00
      -5.0794012316262527e-01 -7.8213724906510518e-01
      3.2396903157032475e+00 5.7028028210657586e+00
      -4.3403796921605942e+00 1.2168584385534873e+00
      3.7515141108716277e-01 -4.7734859662458301e-01
      1.3819401514651577e+00 7.1120577963499021e-01
      1.2649375772287526e+00 1.7266757012826492e+00
      1.3902546308488248e+00 -5.8451897805071829e-01
      9.9396417470975629e-01 5.2671085345392832e-01
      2.3416307338689596e-01 8.1842921034640825e-01
      1.7437340667073103e-01 8.7214322883644324e-01
      3.4746263512969312e-02 -2.2671265865566165e-01
      1.3996315865494044e+00 1.3629131540902593e+00
      -2.5353835082658263e+00 -1.8113349642746870e+00
      1.4637930897238893e+00 6.7437081129186249e-01
      1.2249104786274900e+00 -3.2526554783680321e-02
      -1.0992817404719277e+00 -1.6125934374409294e+00
      -1.0832110955916352e+00 -1.1464851477074320e+00
      -4.7634875391068815e-01 7.7931624717601147e-03
      1.4844820949899922e+00 6.6131451218282655e-01
      1.6407251103510760e+00 -1.7219307020941539e+00
      1.2487040401031517e+00 1.0632432722627116e+00
      -8.0073139608864941e-01 9.2596979867427875e-01
      1.0965319011632850e+00 1.6671287430545791e+00
      -1.2048305343807488e+00 -5.2697239816885755e-01
      -2.6846485627786683e+00 5.8671752154562151e-01
      -2.1148206729856556e+00 9.9489887328355331e-01
      1.6069043865949693e+00 -2.6700112235260887e-01
      -1.2911469986470734e+00 -1.9552525510678556e+00
      5.1079138327312568e-01 -2.0629005078094291e+00
      3.5423596664171003e-01 8.8935970813073473e-01
      -2.5885005573902240e+00 -3.2972002782147416e+00
      -2.0677857092853222e-01 -2.1622349017683566e+00
      -9.8717716181683368e-01 1.8307797022231542e+00
      -1.9927257154606268e+00 -2.7019413644304446e-01
      4.3076275496660077e-01 6.8104290559011216e-01
      7.9591333187836610e-01 -3.0198008370018989e+00
      -2.4091513028820741e+00 2.2896961827650855e+00
      -7.3272562008699282e-01 1.2550555280174500e+00
      2.7278896264280621e+00 2.6285491435550381e+00
      1.8167988653467770e+00 -2.9845442488191662e+00
      -1.8022729044590841e-01 -1.9777806235174156e+00
      -1.0987872486308006e+00 -8.3915617383950913e-01
      -6.9903043966800438e-01 1.5599234263479882e+00
      -1.8039479170376063e+00 2.2289407503420771e+00
      -1.6502320709272174e+00 -1.4507732384429108e+00
      -2.8590420631872493e-01 -2.7343088095741703e+00
      -4.0570007678989910e+00 -1.4017544211806647e+00
      -5.5499768795880677e-01 1.8393451666029859e+00
      1.0659386644243714e-01 -2.7389881004477292e+00
      -1.7882488985884684e+00 -3.7422983906565499e-01
      -6.1196096502914630e+00 3.0345361333307641e-01
      -5.8819592675938166e+00 5.0112859769201912e-01
      -3.4198360437434527e-01 1.3441581512858576e+00
      -1.8590119521404851e+00 1.0076979721354482e+00
      -4.7828081027925062e+00 -2.5833472581504084e+00
      5.7819397830036301e-01 -4.8631068460022864e-01
      2.7616832474636621e-01 4.3958352150604929e+00
      2.7022337378073908e+00 3.2283285724631527e+00
      -8.7618784735400745e-01 -1.0988730733064420e+00
      1.1662595629074786e+00 -3.7599746878505291e-01
      8.4493600855193518e-01 5.4381318667009210e-02
      2.7980830940661314e+00 2.2765676396363309e-02
      -3.6376413866914148e+00 3.8597145667226102e-01
      -1.6045136208690172e+00 -3.9890774907286253e-01
      1.0520342026060630e+00 -1.3588958745632373e+00
      -7.9049497668082891e-01 -7.3817011056812298e-01
      -4.4765934515555855e-01 3.8661966736713327e-01
      8.0309329127364282e-01 4.5322170298431408e-01
      -2.1037978044206038e-01 -2.2399093273789072e-01
      -1.4077929578705994e+00 -1.1641445398217893e+00
      -3.5621631170687471e+00 5.9163566086865771e-01
      -1.2394727685877660e+00 -1.3948085864137640e+00
      3.0858014516168580e-01 8.0041838896156819e-02
      -5.7567192172870141e-01 2.5500772432494734e-01
      -1.4893851916995595e+00 -4.4892859713898109e-01
      -4.3498241260844606e-01 1.3416620731460476e+00
      -2.5450716415047229e-03 8.3551563284809449e-01
      -4.9425293722899299e-01 -7.2839174717924587e-02
      -8.5841263134587475e-01 -1.9344036939689822e+00
      -2.9962136038968828e-01 -1.0969026210832500e+00
      1.2792953758853648e-01 1.8403979232795025e+00
      -6.1657853346732916e-01 9.9138308562584532e-01
      -1.9857718074306234e+00 6.6273664207017047e-01
      4.4297647136558406e-02 -9.4767746506384465e-01
      6.4432008837563337e-01 6.4639037672019650e-01
      -1.1237267774344777e+00 1.9856659692394549e+00
      -4.5088829641418104e-01 -2.1914212522016635e-01
      4.2003573069280415e+00 -3.1468020644796202e-01
      -2.1406899159573518e+00 -1.1454915091321367e+00
      2.1906053244921275e+00 -1.7263156666193598e+00
      2.5751737145543774e-01 -8.4401835281819049e-01
      4.8341610847331457e-01 -1.2892404038614915e+00
      -1.5014676203836610e+00 1.3057194191518002e+00
      -7.1067052493815208e-01 -1.3823887526056922e+00
      -2.5624181981205335e-01 -2.3722586242093313e+00
      -1.7473131860603850e+00 -2.4205762290419020e+00
      -1.4538869945555051e+00 5.6333138632397295e-01
      -1.9189293837830907e+00 2.1755494539463225e+00
      1.2224316160920239e+00 -1.0197089184773531e+00
      1.1438177862977230e+00 -1.0205509258918342e+00
      1.1499088414723657e+00 -9.7506093615055223e-01
      1.1456343131213536e+00 1.8660171294932997e+00
      -8.9585546224339585e-01 4.6684371441711486e-01
      1.8889168242117933e+00 -2.9710136058276251e+00
      -9.7609176516002538e-01 -1.4756685481931566e+00
      -7.4949431685782022e+00 6.8677484483973794e+00
      -3.0401958358460441e+00 3.6898789484526948e+00
      -3.2716877481118090e+00 2.3391607502574079e+00
      -6.0202714357585547e+00 -2.4449320368502117e-01
      5.4969580661346749e+00 1.7537141014716766e+00
      9.0632987808413878e-01 -1.7467550891078618e+00
      3.0950632911340592e+00 -1.1157246023651928e+00
      -9.7051320039674857e-02 4.4535469277683850e+00
      -7.0398319423499656e-01 -2.4957083009131207e+00
      2.1267067422845130e+00 -2.2446325877818394e+00
      2.7533884434362474e+00 5.0024886768312771e-01
      -2.2026382465696179e+00 4.8878095335540711e-01
      2.8917139018000504e+00 2.3232556939414897e+00
      -8.7685134469604287e-01 2.0392581367984723e+00
      -2.1267581210756985e+00 7.9597227859634945e-01
      1.9077365484354492e+00 -1.9177343086626811e-01
      3.7496859261793993e+00 4.3370410717695211e+00
      -7.3434182186493864e+00 -6.3575237178305972e+00
      5.3273944964870719e+00 -5.1411821260045776e-01
      -7.6910123910563777e-01 -3.2928997157732489e+00
      -2.5172159425938703e+00 -9.7216211106956241e-01
      6.4188110253899266e-01 -5.1401317282324765e-01
      -1.2783210723176017e+00 -8.8902665113678142e-02
      -9.8998844065764979e-01 -5.4768333205494335e-01
      1.6764473621956846e+00 -6.5038129242204412e-01
      2.2674876733893643e+00 6.5808267284656163e-01
      2.5235625529122029e-02 -2.5027965272280936e+00
      1.1077208135656800e+00 2.1064432178602752e+00
      1.7897763398704298e+00 -5.4873477457009945e-01
      1.2290449173298608e+00 4.9497701631256891e-01
      3.2502095323141607e+00 2.5432496864077683e+00
      -3.5656009536134814e-01 -1.3694137699229567e+00
      3.5921142305190068e-01 -1.4204222545315213e+00
      4.5019615862237466e-01 1.3083658243814407e+00
      -2.0782672332954419e+00 2.9451640289382968e+00
      1.4366789701816304e-02 -7.4986341868027695e-01
      -7.4477415403698877e-01 1.4784446048715039e-01
      -1.5874240352235198e+00 -2.0292147323038106e+00
      1.3959084601175398e+00 2.1638800082272334e+00
      -1.7707880161042128e-01 2.7735336169569793e+00
      7.9803643592567264e-01 -2.6962701017903137e+00
      3.5627578519030956e-01 4.3131491637585007e-01
      3.3736818309201799e-01 7.4165197094495972e-01
      1.2767790763802529e+00 1.2767145185956918e+00
      -9.3802616851101783e-01 -2.4195171717925930e+00
      2.0606580418743397e+00 2.1376342158894987e-01
      1.6175752633507869e+00 2.4275315940743858e+00
      -6.4569545258602501e-01 -2.7436672860756626e+00
      2.6658923454768119e-01 5.5588690948195085e-01
      1.7451104425578992e+00 1.4082561745053621e+00
      7.2961216313929644e-01 7.5322320471329118e-01
      3.0987232331236729e+00 -2.6850130859095506e-01
      -5.6125372563688813e-01 -4.7811497016188964e+00
      2.3837702485510337e+00 1.7256508850782739e+00
      -2.9036921267243319e+00 3.3584927658833652e+00
      1.5744353865924723e+00 -1.7631651685563030e-01
      -1.3612224690369774e+00 2.5218377600325628e+00
      1.3930264695857151e+00 7.5827724799613505e-01
      1.3682638180374518e+00 2.0726560316183038e+00
      -1.3228619749925390e+00 3.4958933884746184e+00
      6.9779546407552773e-01 -6.6266081646006425e-01
      8.4224292207872065e-01 -9.9953200205797577e-01
      2.9195161360066624e-01 -1.3654753461255581e-01
      1.7763638383853237e+00 1.7039319111153652e+00
      -1.6022630897049250e+00 -1.3543547046132112e+00
      3.7755383927169595e+00 3.0546130437949346e+00
      5.2536801134485813e+00 -7.9765768171297891e-01
      9.3470348004596215e-01 -4.4142176077495066e+00
      2.0703391639304476e+00 1.7154854638006383e+00
      2.3958562245072996e+00 3.0622432923283900e+00
      -3.6906707243022936e+00 8.7986675564071404e-01
      -5.6800633947111601e-01 -1.1139758474265566e+00
