<?xml version="1.0"?>
<opencv_storage>
<opencv_ml_ann_mlp>
  <format>3</format>
  <layer_sizes>
    1600 64 31</layer_sizes>
  <activation_function>SIGMOID_SYM</activation_function>
  <f_param1>1.</f_param1>
  <f_param2>1.</f_param2>
  <min_val>-9.4999999999999996e-01</min_val>
  <max_val>9.4999999999999996e-01</max_val>
  <min_val1>-9.7999999999999998e-01</min_val1>
  <max_val1>9.7999999999999998e-01</max_val1>
  <training_params>
    <train_method>BACKPROP</train_method>
    <dw_scale>1.0000000000000001e-01</dw_scale>
    <moment_scale>1.0000000000000001e-01</moment_scale>
    <term_criteria>
      <iterations>30000</iterations></term_criteria></training_params>
  <input_scale>
    1. 0. 6.5936208463583030e+00 -9.0343310447378744e-01
    4.6772124649998661e+00 -1.3205793540833624e+00
    4.9773386363162508e+00 -1.1600220869258302e+00
    5.1827817141253885e+00 -8.6364109639042463e-01
    5.8050643517162168e+00 -7.5938766237071720e-01
    6.0357356084108602e+00 -7.2083799529850479e-01
    6.0001493600953282e+00 -7.4192261256075109e-01
    5.3936807938693327e+00 -7.8992823009036928e-01
    4.8764886002602434e+00 -8.2338857723284742e-01
    4.8335902609976431e+00 -8.3756722299630026e-01
    5.2196148152329576e+00 -8.0498878886588532e-01
    5.8340696542026285e+00 -7.2792998451240742e-01
    6.3945651200053124e+00 -5.9542646248576359e-01
    7.4326613334828728e+00 -4.5111858773121932e-01
    8.8343766926104763e+00 -3.0335037873328585e-01
    1.4169866381833689e+01 -2.0041361586427880e-01
    1.5177932348184447e+01 -1.6192386659899727e-01
    1.1784651199112574e+01 -2.5229222719240274e-01 1. 0. 1. 0.
    7.0457180450174448e+00 -9.2578485847063652e-01
    4.9684727161967119e+00 -1.3637016898373344e+00
    5.2025504776239577e+00 -1.1790045441593233e+00
    5.4826160177734424e+00 -8.8128462938925900e-01
    6.1230199036998307e+00 -7.6766611870305346e-01
    6.4305434242987012e+00 -7.4366983371803996e-01
    6.1796480287355724e+00 -7.7505358525035672e-01
    5.5319917280027910e+00 -8.1346917849279909e-01
    5.0551760113960080e+00 -8.3935610981150033e-01
    5.0930554472360408e+00 -8.5489569922719411e-01
    5.5123556823900310e+00 -8.1603681219747337e-01
    6.1703783467561637e+00 -7.3044072955495698e-01
    6.8877207847482058e+00 -5.9583855055646562e-01
    7.8936845095832622e+00 -4.4869575370676434e-01
    9.2226865203863539e+00 -3.0335159915400534e-01
    1.4629868756113282e+01 -1.9621747357998692e-01
    1.5573145357358943e+01 -1.6393421143974041e-01
    1.2038586767187640e+01 -2.5899004688616623e-01 1. 0. 1. 0.
    7.6977531355148221e+00 -9.4149622875966621e-01
    5.2684918115090653e+00 -1.4010055409588529e+00
    5.5211534946715499e+00 -1.2323511034398082e+00
    5.8781923515360690e+00 -9.0770912907824264e-01
    6.4389138095461833e+00 -7.6742714015777425e-01
    6.8617811148293173e+00 -7.6555352987697378e-01
    6.4232992481346853e+00 -8.2002059768871094e-01
    5.7896043808472895e+00 -8.4854209174884654e-01
    5.5134704041337939e+00 -8.5176329144788943e-01
    5.7786816019710505e+00 -8.6974848278353656e-01
    6.1185700127644429e+00 -8.0049378758322587e-01
    6.8049223457773831e+00 -6.9703068730706752e-01
    7.9838047842762139e+00 -5.7378733080162125e-01
    8.4676465332460484e+00 -4.2067537922203940e-01
    9.3256463700200314e+00 -3.0909056877342489e-01
    1.4783348070884388e+01 -1.9890704221394226e-01
    1.5152994547980974e+01 -1.7483037490826681e-01
    1.1562530072433320e+01 -2.7421339963621860e-01 1. 0. 1. 0.
    7.4666807247291036e+00 -9.1802990974188126e-01
    5.0280041273120384e+00 -1.3868025151491588e+00
    5.4653617369257574e+00 -1.2643013988236156e+00
    5.8337769807174009e+00 -9.2156597127663187e-01
    6.1779892876376632e+00 -7.7062582873632135e-01
    6.6329419675450643e+00 -7.9077134263844917e-01
    6.1703006512646530e+00 -8.3411696163415749e-01
    5.7729750477706254e+00 -8.6177635854706891e-01
    5.8061748033517571e+00 -8.3795805738272511e-01
    6.2814192718401749e+00 -8.3886332974412203e-01
    6.5627576222293014e+00 -7.6656240542952581e-01
    7.0960359800302903e+00 -6.6660922961877267e-01
    8.3677090197032626e+00 -5.7393793826654815e-01
    8.0264701449514586e+00 -4.2079571664650250e-01
    8.4572504733744793e+00 -3.3651440820481598e-01
    1.3566599461077271e+01 -2.1789008983165714e-01
    1.3624833390731157e+01 -1.9630039585639764e-01
    1.0222682376524297e+01 -2.9960590085517891e-01 1. 0. 1. 0.
    7.4699539130778350e+00 -8.6536698228549369e-01
    4.9818806084214629e+00 -1.3288108733459187e+00
    5.5332276452446516e+00 -1.2486710312342810e+00
    5.7560196986077248e+00 -9.1345981694003409e-01
    6.0630387915189692e+00 -8.1179345029274863e-01
    6.4372553121504810e+00 -8.3090815497600712e-01
    5.9944456552160332e+00 -8.5274191911075758e-01
    5.8154627146169071e+00 -8.5008637543173071e-01
    6.3083226310566749e+00 -7.9037186921323543e-01
    6.9661156646482114e+00 -7.3506103477987228e-01
    7.0003976797346468e+00 -6.6932038184600195e-01
    7.5968206847325508e+00 -6.2799383692158839e-01
    8.7972036774575315e+00 -5.8248583867049430e-01
    7.8138561892627916e+00 -4.5765237908032774e-01
    8.0591900451257352e+00 -3.7762964703249968e-01
    1.2621520298075444e+01 -2.5230550948239866e-01
    1.2590528370630485e+01 -2.2791481998305893e-01
    9.5619586471625304e+00 -3.3887246142283017e-01 1. 0. 1. 0.
    7.2032569405422731e+00 -8.2967690337232902e-01
    4.8871309317043652e+00 -1.2702719107006688e+00
    5.5095561060695006e+00 -1.2166769691486468e+00
    5.6359030506158518e+00 -9.0563990296777008e-01
    5.9060669838676283e+00 -8.4006644047257772e-01
    6.1382388144483384e+00 -8.7023149914040265e-01
    5.6693502439587071e+00 -8.7621883867922778e-01
    5.7312901396002500e+00 -8.5168360507857266e-01
    6.4486098824981539e+00 -7.5326692591410038e-01
    7.0377838350581587e+00 -6.5157763014579995e-01
    6.9585528526287037e+00 -6.1730482443223056e-01
    7.7410177740970694e+00 -6.2005650914011678e-01
    8.6770625453893668e+00 -6.2142219083956374e-01
    7.2693653476108242e+00 -5.2864779028813003e-01
    7.4775822526708380e+00 -4.5957630508753705e-01
    1.0952675630867658e+01 -3.0140553685152471e-01
    1.0952466415919096e+01 -2.6867127359175297e-01
    9.1566338416348270e+00 -3.7628275081030965e-01 1. 0. 1. 0.
    6.8087442689777991e+00 -8.2877344661824304e-01
    4.7471305360318494e+00 -1.2472484672636752e+00
    5.4286917562846213e+00 -1.2141148740748691e+00
    5.4426499768696068e+00 -9.1290104783380899e-01
    5.7044198432130315e+00 -8.8459437296524768e-01
    5.8499804195557710e+00 -9.1415914424465150e-01
    5.4119510445518646e+00 -8.9957129016204584e-01
    5.6247566129941671e+00 -8.5121984835023767e-01
    6.4105444737936086e+00 -7.1946423720736719e-01
    6.9460583623146093e+00 -6.3776153948594039e-01
    6.8167857621735033e+00 -6.2155363093896332e-01
    7.5826673461354810e+00 -6.2308662022621442e-01
    8.0757876099059995e+00 -6.4035275509459899e-01
    6.5574369439614264e+00 -5.7708958562863877e-01
    6.5190055467479100e+00 -4.9393939190620173e-01
    8.9663482545909137e+00 -3.3283124651107571e-01
    9.2311100157556965e+00 -3.0006414849371404e-01
    8.7928849654499448e+00 -4.0895434334917802e-01 1. 0. 1. 0.
    6.4050328072339413e+00 -8.3754920907219754e-01
    4.5723208460947085e+00 -1.2273149133754766e+00
    5.2561705184148657e+00 -1.2030991222211054e+00
    5.2149669182402212e+00 -9.3020509630622561e-01
    5.4638950289862933e+00 -9.1116340243869354e-01
    5.6325731528609486e+00 -9.5088850013159776e-01
    5.3661695415766841e+00 -9.5464518425824052e-01
    5.5803841500203415e+00 -8.7138043928521980e-01
    6.2748291449370663e+00 -7.1536134661048500e-01
    6.8134907097166399e+00 -6.5151597910438430e-01
    6.5527217787517085e+00 -6.1892646078117486e-01
    7.1938731887539422e+00 -6.1019256083003270e-01
    7.4473197124267605e+00 -6.3017284447511901e-01
    6.0297607419444139e+00 -5.8318518799599317e-01
    5.9853161494485878e+00 -4.8970294738119130e-01
    8.1580428343744913e+00 -3.4534615470270497e-01
    8.4899739353289352e+00 -3.1101322839205015e-01
    8.5893488538549203e+00 -4.1013806449628265e-01 1. 0. 1. 0.
    6.1023009143015194e+00 -8.7915620940957284e-01
    4.4980296985995158e+00 -1.2758273566829406e+00
    5.0871069314745254e+00 -1.2380497780539419e+00
    4.9824682185356401e+00 -9.6106033526922385e-01
    5.1906320222075886e+00 -8.9583993114222427e-01
    5.5144122584660655e+00 -9.2707785059776993e-01
    5.3895176392341844e+00 -9.6028384612187934e-01
    5.5091493082427689e+00 -8.6412685736625439e-01
    6.0760119867614524e+00 -7.1740696017089522e-01
    6.5722011840790318e+00 -6.5970054893896801e-01
    6.4521497451999057e+00 -6.1061647877391489e-01
    7.1046090832474409e+00 -5.8829757325109933e-01
    7.3110659092260173e+00 -6.1181971272656155e-01
    6.1473555860495672e+00 -5.7917107788513078e-01
    6.2076297807249876e+00 -4.8022390539823895e-01
    8.7463299263992766e+00 -3.3335354692119357e-01
    9.0917121416195990e+00 -3.0257193387823139e-01
    8.5339612752981289e+00 -3.9220901744504211e-01 1. 0. 1. 0.
    5.9014982344116378e+00 -9.3772622767687230e-01
    4.5672677413851046e+00 -1.3935903169513373e+00
    5.1462647089504436e+00 -1.3629905256634012e+00
    4.9275869043546212e+00 -1.0350844272599011e+00
    5.1661463904195539e+00 -9.0214969763683328e-01
    5.6637657389867178e+00 -9.0445732557621472e-01
    5.4468985509393102e+00 -9.1613970781611997e-01
    5.4573797097021242e+00 -8.2322137659431893e-01
    5.9808226494513654e+00 -7.1017157304795109e-01
    6.4405052421548143e+00 -6.6595192184003904e-01
    6.5465297542037755e+00 -6.1865917771582879e-01
    7.3895700297670484e+00 -6.0053745590759267e-01
    7.7768232744056185e+00 -6.1227083495318246e-01
    6.7276376837424090e+00 -5.6996710432811126e-01
    6.7835510013365115e+00 -4.6679487988371071e-01
    1.0012425760491100e+01 -3.1155080263603346e-01
    1.0244172401432913e+01 -2.8711631750048994e-01
    8.4293010260285790e+00 -3.6237383740938217e-01 1. 0. 1. 0.
    5.7758470121223162e+00 -9.6751085900293676e-01
    4.6532520991898476e+00 -1.4925205723812238e+00
    5.2540373008752397e+00 -1.4658861826113780e+00
    4.9566106863090571e+00 -1.0688132381657403e+00
    5.4082423601730953e+00 -9.0859901286314537e-01
    5.9540528048969845e+00 -8.7221668237809713e-01
    5.6140138697033066e+00 -8.5226300548776002e-01
    5.4918655641160674e+00 -7.6618962177826833e-01
    5.9915250854696902e+00 -6.8358646173738336e-01
    6.3053442917265290e+00 -6.6565488138719586e-01
    6.6372400835445466e+00 -6.5065831365708693e-01
    7.7526016907600628e+00 -6.5618553260915757e-01
    8.2708071241734356e+00 -6.2930387380440511e-01
    7.4690121957957958e+00 -5.5078993549196265e-01
    7.4237293494833532e+00 -4.3640187203936098e-01
    1.1056405141905946e+01 -2.8565947509383977e-01
    1.1120250768796936e+01 -2.6750056271781913e-01
    8.2677407729622843e+00 -3.3308076632930433e-01 1. 0. 1. 0.
    5.5603394865564013e+00 -9.5488884117837369e-01
    4.4640821859215158e+00 -1.4766626962718350e+00
    5.0998626017601296e+00 -1.4377346839387983e+00
    4.8726380992966343e+00 -9.9708707538720454e-01
    5.6494788298812360e+00 -8.3838616696313051e-01
    6.2540083653812415e+00 -7.8588466715629735e-01
    5.8435940006790377e+00 -7.7734299188100353e-01
    5.4781499583282249e+00 -7.2148030484197723e-01
    5.7736858949541539e+00 -6.6321403093040199e-01
    6.0727633564983572e+00 -6.7285826308743524e-01
    6.4160973246527675e+00 -6.8509088528337148e-01
    7.0852052516443349e+00 -7.1724377935732953e-01
    7.2229324806104254e+00 -6.5136807820896714e-01
    7.6596975401467464e+00 -5.4979553807576997e-01
    7.7248529412301590e+00 -4.1285255857598085e-01
    1.1575254681487134e+01 -2.6193715823735630e-01
    1.1436137319207406e+01 -2.3906144469406818e-01
    8.1588916203030077e+00 -3.1990904739791898e-01 1. 0. 1. 0.
    5.4410449908282974e+00 -9.3487724899696356e-01
    4.2449575274975775e+00 -1.4401992119310663e+00
    4.8723847619035192e+00 -1.3670908624135618e+00
    4.7511317924662082e+00 -9.0201948078052174e-01
    5.8142163708580643e+00 -7.4341373230855534e-01
    6.5449844515122955e+00 -6.9743065649457170e-01
    5.9887269310697508e+00 -7.0227849383493735e-01
    5.3648619674396043e+00 -6.9588982860731707e-01
    5.5898528866036070e+00 -6.6622028193933758e-01
    5.8290179189995772e+00 -7.0131902489899578e-01
    5.9207481412652543e+00 -7.2432676121490125e-01
    6.0307482089732396e+00 -7.5469341298700432e-01
    5.9503798142453794e+00 -6.8121288892438558e-01
    7.0086918240562159e+00 -5.6426665166265166e-01
    7.4681879779159388e+00 -4.0701846585220736e-01
    1.1518516774463063e+01 -2.5814995978958422e-01
    1.1060713001189020e+01 -2.2752204117855979e-01
    8.0022904051445156e+00 -3.2145495864283119e-01 1. 0. 1. 0.
    5.4152165829494416e+00 -9.0260442090735604e-01
    4.1412367029867632e+00 -1.3915979643862595e+00
    4.6848005534737904e+00 -1.2830965976478463e+00
    4.7280159278085367e+00 -8.5834654099371299e-01
    5.8828295924713601e+00 -6.9844441466901352e-01
    6.4287002749177935e+00 -6.4991179591003223e-01
    5.9718371763428353e+00 -6.8229042570237131e-01
    5.3039509352072969e+00 -6.9187921960896093e-01
    5.5593889153502678e+00 -6.7634352298494038e-01
    5.6654086339603547e+00 -7.2505755575515263e-01
    5.4886540736058151e+00 -7.5338729710962193e-01
    5.4041017459692329e+00 -7.6615128662494392e-01
    5.4094814650527354e+00 -6.9629277463767114e-01
    6.5478818547962163e+00 -5.6957825854236555e-01
    7.1903090499012547e+00 -4.1627628838277425e-01
    1.1321074547889243e+01 -2.6914614046929336e-01
    1.0801833681336706e+01 -2.2559233719408148e-01
    7.9808525726289776e+00 -3.3432998718217061e-01 1. 0. 1. 0.
    5.4611457196671997e+00 -8.5626884369272482e-01
    4.1111661490630977e+00 -1.3159034682084536e+00
    4.5472464968454469e+00 -1.1768726569072927e+00
    4.7851875695560002e+00 -8.3489967606922932e-01
    5.9562270481414599e+00 -6.9614427720938876e-01
    6.1904542969954539e+00 -6.4627068902418505e-01
    5.9167600742242872e+00 -6.9413768052498714e-01
    5.3247231639313028e+00 -6.9079697614787927e-01
    5.7248833636774155e+00 -7.0142056410081288e-01
    5.7501090121269227e+00 -7.5871471829041603e-01
    5.3527386966748072e+00 -7.6898589478981627e-01
    5.2730189083211672e+00 -7.5361439307704781e-01
    5.3983359900507057e+00 -6.8947401922475227e-01
    6.5088494593570241e+00 -5.6791324941722965e-01
    7.0670204509085073e+00 -4.3165521964057341e-01
    1.1036060186735298e+01 -2.7695349847906109e-01
    1.0833397357181083e+01 -2.3083416149394750e-01
    8.0945122274016761e+00 -3.5561478197720325e-01 1. 0. 1. 0.
    5.5694672039607980e+00 -8.1506772552419560e-01
    4.0628189380253747e+00 -1.2167289873627272e+00
    4.4555639176374520e+00 -1.0710195380092675e+00
    4.8112061261085541e+00 -8.0246986378456076e-01
    5.8991765796273041e+00 -6.9354002664914138e-01
    6.0633476217222499e+00 -6.5708474926368199e-01
    5.9012136080223163e+00 -7.0271111575244172e-01
    5.4050470342034096e+00 -7.0548632195515293e-01
    5.8593024522668884e+00 -7.4663174457188874e-01
    5.9723689071262855e+00 -8.2083787133388753e-01
    5.5076111639165655e+00 -7.9892986223193296e-01
    5.6073324295298805e+00 -7.6215896389731419e-01
    5.7837446943877806e+00 -6.8732016912323801e-01
    6.6626864205767493e+00 -5.5635834615105606e-01
    6.8757238630965025e+00 -4.3916952113726998e-01
    1.0555870905089098e+01 -2.8749543125910137e-01
    1.0681831195649353e+01 -2.4412416837732920e-01
    8.1677261171254489e+00 -3.8479150767712855e-01 1. 0. 1. 0.
    5.7486781386031653e+00 -7.7426532949913085e-01
    4.1181287966842621e+00 -1.1249051226233131e+00
    4.5843623077201299e+00 -1.0026077282786143e+00
    4.9702896528260023e+00 -7.7334586280434814e-01
    5.8169582488053395e+00 -7.0361544271548293e-01
    6.0330055634697386e+00 -6.9605706345850527e-01
    5.9783070042182516e+00 -7.3425683414941612e-01
    5.6148098950340470e+00 -7.3475017106178619e-01
    5.9868188075760695e+00 -7.7985300261648427e-01
    6.0415874091344701e+00 -8.5098396586885472e-01
    5.7765492980178799e+00 -8.1157854906495108e-01
    6.0694574527292033e+00 -7.5221208377479842e-01
    6.2164408034085188e+00 -6.8799357168443909e-01
    6.6300963255260168e+00 -5.5834558402286583e-01
    6.5118839190270235e+00 -4.5378679496569468e-01
    1.0092294898451835e+01 -3.0845483495880799e-01
    1.0278401870214577e+01 -2.6679509337334539e-01
    8.1221071868125332e+00 -4.1469862943965569e-01 1. 0. 1. 0.
    6.3091837166504661e+00 -7.2024508619782068e-01
    4.4396311398859210e+00 -1.0243401054175481e+00
    5.0443276899578846e+00 -9.4623174302443380e-01
    5.5012181759999859e+00 -7.5799402800301141e-01
    5.9824681868381457e+00 -7.2956732963335236e-01
    6.1004664556753854e+00 -7.4772161757007582e-01
    6.1400552536416306e+00 -7.9266530167360416e-01
    5.9657568763929962e+00 -7.8760888509911653e-01
    6.1957031913052392e+00 -8.1752194873780237e-01
    6.1703833286706473e+00 -8.3932445248488396e-01
    6.2687314273399783e+00 -7.8250429975778102e-01
    6.5998689343235037e+00 -7.1203873501784987e-01
    6.5751122434248161e+00 -6.8843125846171738e-01
    6.6932764899529111e+00 -6.0147342258972825e-01
    6.4586138278310772e+00 -4.8797247318103831e-01
    9.9140070319424325e+00 -3.3951803111906237e-01
    9.9290240586934146e+00 -3.0442804221998643e-01
    8.1791432651390146e+00 -4.3873493606180974e-01 1. 0. 1. 0.
    6.2436233262755758e+00 -6.4707227229280706e-01
    4.3655573975448112e+00 -9.0630924156420800e-01
    5.0123385469812716e+00 -8.6916328950540822e-01
    5.4052436759184976e+00 -7.3577099218191122e-01
    5.6021598664401679e+00 -7.4953097469304819e-01
    5.5422359601628948e+00 -7.8076643090566922e-01
    5.4715001115913324e+00 -8.2387562003362003e-01
    5.3917932988479160e+00 -8.3234840231735474e-01
    5.3648675676771278e+00 -8.2137321220484760e-01
    5.4380083918911764e+00 -8.1019051700882150e-01
    5.9496390203270311e+00 -7.5369831241469121e-01
    6.3083946373681776e+00 -6.8383633781897180e-01
    6.0890362096888930e+00 -6.6502005858620539e-01
    5.9552699696755038e+00 -6.2833932637296364e-01
    5.8506181083996784e+00 -5.3988416216190549e-01
    8.6968870897922752e+00 -3.8491389990236963e-01
    8.7888299952221782e+00 -3.4133449176780623e-01
    7.5738051521818948e+00 -4.5436512790593153e-01 1. 0. 1. 0.
    6.0864328710026996e+00 -6.1525109705171688e-01
    4.2454609907588940e+00 -8.5734663361194297e-01
    4.8354186388129978e+00 -8.2672802113050126e-01
    5.1749425664750106e+00 -7.1669273817366619e-01
    5.2893227007015620e+00 -7.4487024569545601e-01
    5.1751689190814654e+00 -7.7746784103736721e-01
    5.0662187752467869e+00 -8.2023092432223876e-01
    4.9156604322089290e+00 -8.3026022567056190e-01
    4.8473130090571281e+00 -8.1420150208736997e-01
    4.9992672039583246e+00 -7.9571344535062916e-01
    5.5958947850994472e+00 -7.4117878503076973e-01
    5.9696767386710379e+00 -6.6564118717003329e-01
    5.7390211146732888e+00 -6.4818517658533170e-01
    5.5658643853383634e+00 -6.2987025548408859e-01
    5.4902643807249749e+00 -5.5319724565287254e-01
    8.0284984357194524e+00 -4.0571293659692487e-01
    8.1407474601939036e+00 -3.5192773484625123e-01
    7.1664323838734454e+00 -4.5491491367196163e-01 1. 0. 1. 0.
    6.8189895695967140e+00 -6.1220133325296122e-01
    5.9263586394236203e+00 -9.1641190768581204e-01
    6.4237149935475184e+00 -8.5994806083409414e-01
    6.5605158617500487e+00 -6.8412781877356554e-01
    6.8404894374735399e+00 -5.8486382038270235e-01
    7.2824069987410613e+00 -5.6096671365546580e-01
    7.0968196665568559e+00 -5.8518760746884302e-01
    7.0172067355008227e+00 -6.7324228703365518e-01
    6.6896706161433261e+00 -7.6300579082842657e-01
    6.3084278602346568e+00 -7.8827961324780027e-01
    6.6257816102176834e+00 -7.4837758814889055e-01
    6.9150548051674221e+00 -6.8864074752778726e-01
    7.2530665214433290e+00 -6.2044890641027084e-01
    8.1722884817632444e+00 -5.1767105176082262e-01
    9.7530333249486318e+00 -3.9562469996634841e-01
    1.3139484590006193e+01 -3.1286126997680780e-01
    1.3323671240964664e+01 -3.0033878202611913e-01
    8.3036865197263214e+00 -3.8307603912543525e-01 1. 0.
    9.0678385247381410e+00 -4.4257521310945575e-01
    1.1502917703839531e+01 -4.9716408196155276e-01
    8.1682064610770020e+00 -5.8524906413116073e-01
    7.9286360712904953e+00 -5.7794559194063477e-01
    8.7517282223243509e+00 -5.6864031016310246e-01
    8.4018268056426457e+00 -5.2381504525813283e-01
    8.5226139916928876e+00 -5.4040804484393212e-01
    8.0935103560604773e+00 -5.5954378636644553e-01
    8.0958837532863335e+00 -5.5278005490124182e-01
    8.5593447322672596e+00 -5.6939395801107506e-01
    9.3121561053748696e+00 -5.4809915387079733e-01
    9.0151030933097438e+00 -5.2760627456783216e-01
    9.3134371188947700e+00 -5.5157206563284700e-01
    9.4249251880020122e+00 -5.5791871716101982e-01
    1.0009210155214159e+01 -5.4449498747585023e-01
    1.0935813339624156e+01 -4.9586807798792087e-01
    1.2757291850864711e+01 -4.6968955759132014e-01
    1.3857201836333372e+01 -4.8673841180812255e-01
    1.0385453167866714e+01 -6.2165006265445899e-01
    8.1953604834269420e+00 -5.6367505068526880e-01
    6.3885831075785466e+00 -7.9602698330334987e-01
    7.2126681753665789e+00 -7.8892824462089206e-01
    6.6873503510983010e+00 -8.3830157120386195e-01
    6.6584843110770837e+00 -8.9416758590518242e-01
    6.1299742426211550e+00 -9.0274550070868764e-01
    6.1510286839921342e+00 -8.9645288154055125e-01
    6.0633895735138870e+00 -8.9333977344346416e-01
    5.8130179197196874e+00 -8.9366319522540261e-01
    6.1185040067912135e+00 -9.2171429623130252e-01
    6.4306045265366301e+00 -8.9668225688994929e-01
    6.6085651911114489e+00 -8.7057562756915408e-01
    6.6525791944900616e+00 -9.0011294553916843e-01
    6.9880287242300865e+00 -8.8619035349002828e-01
    6.9832881116400269e+00 -8.6386781076791430e-01
    7.0919325536172657e+00 -8.2114798257421451e-01
    7.4186127811943479e+00 -7.6133073980067067e-01
    8.4791709452868567e+00 -6.6323964871282370e-01
    9.2895790591931444e+00 -6.3113007659077425e-01
    7.9826840096680911e+00 -7.8046303468401623e-01
    6.4837401359568592e+00 -8.0588329477392606e-01
    7.5805309993841554e+00 -7.4408660404291693e-01
    8.4277531101628149e+00 -7.9082908681293396e-01
    7.5202885591811182e+00 -8.7096458806732169e-01
    6.4941187464174623e+00 -8.6229116458212274e-01
    6.8204448563385442e+00 -8.0956514173096494e-01
    7.0854255551493761e+00 -7.7547778548733903e-01
    6.9452480513549659e+00 -7.3411242103883123e-01
    7.2823672682985450e+00 -7.4662795523843872e-01
    7.6977003933993551e+00 -7.3236110596912252e-01
    7.7635830642080386e+00 -7.1365220181220212e-01
    7.5253941927302970e+00 -6.9660513501705756e-01
    7.6727568668899533e+00 -6.7446952278780814e-01
    7.9843162144834983e+00 -6.5640096257564773e-01
    7.9309590987031555e+00 -6.4111877260962324e-01
    8.6744679782791358e+00 -6.1867790851630122e-01
    8.5773522598877978e+00 -5.7238938187295474e-01
    1.0174639215418658e+01 -5.2911165783931369e-01
    9.7171563380654913e+00 -4.6468807738191742e-01
    8.4946711018904573e+00 -7.0486874071068029e-01
    7.8373314884717464e+00 -7.7006910850316734e-01
    8.9338461212669689e+00 -5.5596120538296001e-01
    9.7609426515091027e+00 -6.2963011054768070e-01
    7.4602967601309800e+00 -7.5389742082490618e-01
    7.7428994005549274e+00 -7.6828771403400897e-01
    7.7635150622218383e+00 -6.6110131358735624e-01
    7.7783513137995728e+00 -6.4241149409024800e-01
    8.3405573376065014e+00 -6.6307881747720232e-01
    7.6461022171031461e+00 -6.1733499337826603e-01
    7.7998294068915808e+00 -6.5400789210018750e-01
    8.3239240579056872e+00 -6.6180491843715228e-01
    8.4449429744572466e+00 -6.2906719580526682e-01
    8.5613169058803535e+00 -5.9137054591519433e-01
    8.5066857470241182e+00 -6.2462090063058373e-01
    8.3772691034577722e+00 -6.2023864682767282e-01
    8.6402301955091101e+00 -6.1888497456731340e-01
    9.7300256449976086e+00 -5.6869169896768024e-01
    1.0217222525613074e+01 -4.9312218365443228e-01
    1.1168289539318915e+01 -5.0261692611895548e-01
    9.7818628329707398e+00 -6.7795710912939422e-01
    7.8455977187909021e+00 -6.2631728475156356e-01
    9.1560822236874788e+00 -4.8483149351358107e-01
    9.0733748850472473e+00 -5.5732007922359317e-01
    7.3684748650222955e+00 -7.7597360742597010e-01
    7.4639689710751762e+00 -7.4951803694323282e-01
    7.3933198265356133e+00 -7.0179550541208247e-01
    7.7870964659485828e+00 -6.7995721492926620e-01
    7.6999917693390296e+00 -6.5273364875427409e-01
    7.8236320113488871e+00 -6.8173560382389597e-01
    7.9803090333788305e+00 -7.0783812389779954e-01
    7.5381180760157411e+00 -6.8970882469246753e-01
    7.6101181524330892e+00 -6.5964548135843271e-01
    7.9799928069811106e+00 -6.7228872691696351e-01
    7.8237066058614593e+00 -6.1427685545043287e-01
    8.2383604780286408e+00 -6.1570897859807339e-01
    8.9931287748053848e+00 -5.9968153726727325e-01
    9.4342580680115020e+00 -5.2090659908482662e-01
    1.1639563138847283e+01 -4.3791075223130121e-01
    1.1297330145517241e+01 -4.3584233072492051e-01
    9.2096982335344997e+00 -6.1228219234622061e-01
    8.4048983998238143e+00 -5.8232734859923008e-01
    9.9136515938170700e+00 -5.2779320341767777e-01
    9.3649486694210626e+00 -6.1627980315033515e-01
    7.5247861967661365e+00 -7.8587881922971359e-01
    7.6367818492188757e+00 -7.8455004579800114e-01
    7.3067588095198310e+00 -7.0147608687536667e-01
    7.3411910434799355e+00 -7.1324319262798230e-01
    6.9881880709849398e+00 -6.8978111954515453e-01
    6.8848783138434948e+00 -6.7733935745527263e-01
    7.4721238416662139e+00 -6.9386339140331077e-01
    7.6260998144014707e+00 -6.7645003989368080e-01
    7.7307944367775114e+00 -6.5643987925763625e-01
    7.6101741209815126e+00 -6.0358057064512816e-01
    7.5314355113747986e+00 -5.6863358899911687e-01
    8.2913306851410766e+00 -5.4807361636232454e-01
    8.6564787952596625e+00 -5.3503861767863581e-01
    8.8488026266486468e+00 -4.9010920416699305e-01
    1.1154659616322874e+01 -4.2590106493479646e-01
    1.2401040710130435e+01 -4.1143095524334539e-01
    1.0636709531314974e+01 -5.6618490889672168e-01
    8.9847630804590697e+00 -5.0979123958483519e-01
    9.3989137044376001e+00 -5.6806933513937619e-01
    9.3183003889540164e+00 -6.5136160896615369e-01
    7.7739855685390715e+00 -7.9401439594873990e-01
    7.9595675233237246e+00 -7.7926864089273107e-01
    6.8630854590600814e+00 -7.3746658811473176e-01
    6.7252273470711375e+00 -7.5146690488029311e-01
    7.0972409048877632e+00 -7.4582624812543596e-01
    7.4782767884432921e+00 -7.5237687387326935e-01
    7.8450355797515030e+00 -7.0915939011193219e-01
    7.8961900749985299e+00 -6.6377304102029711e-01
    8.5079507413011743e+00 -6.4975780657358884e-01
    8.8356118893984998e+00 -6.2375884680696358e-01
    8.6240923236835840e+00 -5.7565907773251235e-01
    9.0409127698728966e+00 -5.4964218047556490e-01
    8.9496322718984818e+00 -5.7962353015470824e-01
    9.2847905487585329e+00 -5.1045585615322508e-01
    1.0919833710231556e+01 -4.5855017981396073e-01
    1.1078232234303337e+01 -4.4660740462768972e-01
    9.9472093051808148e+00 -5.5899552018844567e-01
    9.2964978939499083e+00 -4.6647096747299421e-01
    8.4651081652809399e+00 -5.1457044303011290e-01
    9.2264066985230073e+00 -6.1523702062766628e-01
    7.6343576061244027e+00 -8.0669943883434903e-01
    7.8044274791593136e+00 -7.9786569908745253e-01
    7.1818024167030536e+00 -7.2696668308533530e-01
    7.4422942450431329e+00 -6.9763522586684956e-01
    7.1931230171006373e+00 -6.8336449970859103e-01
    8.2608557597314078e+00 -7.6141479142584090e-01
    7.8893112965372714e+00 -7.1415678705474084e-01
    8.0118751695167347e+00 -6.7726002400677310e-01
    8.9721826154330291e+00 -6.4327150088122853e-01
    8.4408950228592765e+00 -6.3399049834578858e-01
    8.4306967295399939e+00 -6.2270566794357851e-01
    8.4284254217480932e+00 -6.3455853868967826e-01
    8.8383696714598798e+00 -6.4444785846987385e-01
    9.3681134113804134e+00 -5.9843732930159566e-01
    1.0329115998936057e+01 -5.2187235979267443e-01
    1.0091716928322509e+01 -4.8254134747496336e-01
    1.0591808486319882e+01 -5.6765871714822524e-01
    1.0261782002690097e+01 -4.9736356131728171e-01
    9.0479365469438182e+00 -5.1535958076269661e-01
    9.4457189412477458e+00 -6.3490159782589572e-01
    7.9510861154908001e+00 -8.9125050453395549e-01
    7.5769681249673484e+00 -8.2518831551220939e-01
    7.6162714111107768e+00 -7.2495384320057898e-01
    7.8377068683597750e+00 -6.9415541551856397e-01
    8.2963781062266602e+00 -6.5402870345786157e-01
    8.1136802949312301e+00 -6.4035029846556935e-01
    7.9597070237328387e+00 -6.6681111153742267e-01
    8.3178294947662028e+00 -6.5015148167646541e-01
    8.2312948166530084e+00 -6.6796866191530213e-01
    7.7430634141615178e+00 -6.4753530373710566e-01
    7.8050095098608567e+00 -6.2804464591651754e-01
    7.7981894847190842e+00 -6.5320459216433036e-01
    8.7389525906969645e+00 -6.2368403399722183e-01
    9.1119959157363439e+00 -5.3041257595471969e-01
    1.1697319927918407e+01 -4.7984990526382110e-01
    1.1785651223726740e+01 -4.3764398019225381e-01
    9.8305461529729410e+00 -5.5007415650357627e-01
    8.6521085190770606e+00 -5.1970909093913042e-01
    9.7825946937910757e+00 -5.5925490695495750e-01
    9.9553579192518296e+00 -6.9152702947493905e-01
    8.6160907807511613e+00 -7.8812183961393734e-01
    8.0435593652884485e+00 -7.7605120653475990e-01
    7.3318632920344502e+00 -7.4002233610872081e-01
    7.3165291057336264e+00 -6.8103328899514981e-01
    7.6903966486019257e+00 -6.5100998970029578e-01
    7.5309441198876454e+00 -6.1874871530579056e-01
    8.2457679824589540e+00 -6.0322245356433557e-01
    8.4933909305130566e+00 -5.8631600274299045e-01
    8.4460381025590987e+00 -5.7832717369046671e-01
    8.1442290128841481e+00 -5.6056912117393987e-01
    8.5140325056834651e+00 -6.0199830986031755e-01
    8.6377329355677670e+00 -5.9797305974848380e-01
    9.6957166781070914e+00 -5.9212251585558395e-01
    1.1108381648538669e+01 -5.1623783066091899e-01
    1.2841175444569828e+01 -4.3913978173753043e-01
    1.2750847752216307e+01 -4.3956412088307661e-01
    1.0790853487929176e+01 -5.6561658096107326e-01
    8.7298126148563941e+00 -4.9070100863509791e-01
    8.0593509846567493e+00 -6.8537052273513510e-01
    9.2552988813882830e+00 -7.5182075925779601e-01
    8.6135276013820352e+00 -8.4628531503478766e-01
    8.4095037258304774e+00 -8.4345519166626248e-01
    7.5479530312468039e+00 -7.7092802922217452e-01
    7.2019088813924377e+00 -7.0496551950541686e-01
    7.2888450947033281e+00 -7.0257083007305765e-01
    7.1528886238802789e+00 -6.8091620802588104e-01
    7.4552243938072813e+00 -6.6276860545697902e-01
    7.9075903934411960e+00 -6.6089538710089557e-01
    8.0137146323163595e+00 -6.3005054333607102e-01
    8.4983527211266043e+00 -6.1503831353784733e-01
    8.4046847218937923e+00 -5.7701226920809001e-01
    8.4510284227294985e+00 -6.0402089664888303e-01
    8.5285504885994730e+00 -6.1055456953397280e-01
    8.8723460173058051e+00 -5.2367596821016982e-01
    9.4913187398168120e+00 -5.0068593129555905e-01
    1.0399690782422136e+01 -5.1052533538267564e-01
    9.1470361736615242e+00 -5.8848587778123052e-01
    8.7692546999376066e+00 -5.3920142548496741e-01
    8.6540886782957305e+00 -6.2587254997705133e-01
    9.2999421059139280e+00 -7.4382575916716531e-01
    7.6131037870352651e+00 -8.5936315468307523e-01
    7.3013853180313451e+00 -8.3019780181662117e-01
    7.9577120911271333e+00 -7.9221202911040833e-01
    8.1342234652761896e+00 -6.7614338547392050e-01
    8.1252670326755130e+00 -6.6398406018818057e-01
    8.2622704456963660e+00 -6.4880680721943118e-01
    8.1345489281045040e+00 -6.5471949261766127e-01
    8.3692386590762862e+00 -6.5478691812602741e-01
    8.2562747705332153e+00 -6.2319973043298171e-01
    8.5218162160902953e+00 -5.9270985753618044e-01
    8.2886501298092607e+00 -5.6092396453239257e-01
    8.7168419131514980e+00 -5.7648830546868801e-01
    9.3903684852213196e+00 -5.2114355349825436e-01
    9.5689387805619166e+00 -4.6222345454840374e-01
    1.1434032159526257e+01 -4.2591829224066996e-01
    1.1950701131130852e+01 -4.2918683795353102e-01
    1.0049771558844007e+01 -5.7480197967888924e-01
    8.0763950271792169e+00 -5.1002955855398269e-01
    1.0063754656105804e+01 -5.3451523727319017e-01
    9.9507784974369855e+00 -6.7452630797442503e-01
    8.3696058379875122e+00 -8.4677796934545579e-01
    7.8323522344159908e+00 -8.2914072733147370e-01
    7.7323499247668481e+00 -7.0411941157175773e-01
    8.3775253894193042e+00 -6.4047988096387132e-01
    9.3004179200596973e+00 -5.9234435599453195e-01
    8.8346123061015440e+00 -5.4318582913328928e-01
    9.0729623110308850e+00 -5.8475895568013281e-01
    8.7586225989447346e+00 -5.5926497576761136e-01
    8.4644057610532730e+00 -5.8229489486205632e-01
    7.9968576333156349e+00 -5.6285477806636641e-01
    8.3779125413106907e+00 -5.7176037875703101e-01
    9.0512939704814119e+00 -5.9507708440311236e-01
    9.3137650730031254e+00 -5.4521188707704960e-01
    9.6028114578536279e+00 -4.9292775141020573e-01
    1.1959441838184736e+01 -4.1437028681767230e-01
    1.2931911832821850e+01 -4.1712446111403101e-01
    8.8584197460475647e+00 -5.3392368745907859e-01
    7.5979698529762327e+00 -4.8185125880198304e-01
    8.3255173185795659e+00 -4.9944543197384134e-01
    9.6375405128460478e+00 -6.4691610224837426e-01
    8.0517689111341912e+00 -7.8395207034053771e-01
    8.2484877889728985e+00 -8.3950178956406840e-01
    7.8087202931776396e+00 -7.1913473935191075e-01
    7.5736712577146870e+00 -6.2052508229158565e-01
    8.2625311734592213e+00 -5.8416740614423934e-01
    8.2580551365861332e+00 -5.8929911191757334e-01
    8.6309547984592800e+00 -5.8820890943117754e-01
    9.4308766877697643e+00 -5.9313208026487885e-01
    8.9290508624947513e+00 -6.0738096204577907e-01
    8.4673428165104259e+00 -5.9066271371475865e-01
    8.5022206539718503e+00 -6.0226848604430039e-01
    8.2781905443383099e+00 -5.9574766728438566e-01
    9.3127734379193789e+00 -5.8452967501642117e-01
    1.0600350201756351e+01 -5.1537752058638264e-01
    1.2053809816466934e+01 -4.0463547556293150e-01
    1.2707794464065513e+01 -4.1204073123650492e-01
    9.5788418661834651e+00 -5.2840644350369159e-01
    8.9789923588977079e+00 -4.8465356406524002e-01
    9.5111010839290593e+00 -4.2964255490572351e-01
    1.0417776858128351e+01 -5.2346118488332427e-01
    8.8313262361505451e+00 -7.2452675118529952e-01
    8.8121728870659801e+00 -7.3672027795776962e-01
    9.0468498700977609e+00 -6.1795697682796802e-01
    9.5961879179047873e+00 -5.4061012535117958e-01
    8.9296905190176261e+00 -5.3946695405123157e-01
    8.9787703475155975e+00 -5.5368693279968006e-01
    9.2670170886836694e+00 -6.0771335915360902e-01
    8.9764959782756613e+00 -6.2699873688454011e-01
    9.0534394051802138e+00 -5.9939917329943426e-01
    9.6927903169742660e+00 -5.6841500893272656e-01
    9.3954407514624947e+00 -5.9752128012580397e-01
    9.4214754218843471e+00 -6.2875651419753442e-01
    9.7042911514880519e+00 -5.6492795618368152e-01
    1.0337788858188105e+01 -4.8746711235192863e-01
    1.2556985680601624e+01 -3.8824308561199117e-01
    1.4686245922770606e+01 -4.0751195254519246e-01
    1.0296044302485036e+01 -5.3244828175590375e-01
    8.9996568169573976e+00 -4.6610559052575684e-01
    1.0772943563136877e+01 -3.7085658851582448e-01
    9.9022032977372021e+00 -4.8546938506920484e-01
    8.9295146126071074e+00 -6.9091093585714491e-01
    9.1947864586819481e+00 -6.9980327898754557e-01
    9.2549488846260850e+00 -6.0300701814370605e-01
    8.8998252674853440e+00 -5.5788507479900895e-01
    8.8102054378662089e+00 -5.6045596420418697e-01
    9.1754811451313998e+00 -6.1141389242927224e-01
    7.7517029181957238e+00 -6.6534492927177635e-01
    8.0644822972999908e+00 -6.7245880479077236e-01
    8.4032909335859802e+00 -6.2770924218050383e-01
    8.5971876779432836e+00 -6.0545902970037802e-01
    8.9927121489163753e+00 -5.8391426261524870e-01
    9.7995217525744405e+00 -5.6811386079069781e-01
    1.0342185494247278e+01 -5.3690143281623415e-01
    9.8463046711456030e+00 -5.0162458159151213e-01
    1.2051731031851679e+01 -4.2640756345542108e-01
    1.2319172878917440e+01 -4.2795773416171379e-01
    1.0070007978424446e+01 -5.6699057805973618e-01
    8.8195289372092276e+00 -4.8942906250029006e-01
    1.0819273076606221e+01 -3.0501930198139854e-01
    1.0354798617118691e+01 -4.7297875461615752e-01
    8.8778350931785006e+00 -6.3791972517810736e-01
    9.3040067219196043e+00 -6.2934808659969055e-01
    9.4712643107131900e+00 -5.7905832722249662e-01
    9.4821824332518219e+00 -5.7759152215020826e-01
    9.1641726726510875e+00 -5.1682339747032680e-01
    8.8001823694786019e+00 -5.3949795583682414e-01
    9.0103442629172683e+00 -5.3042239190481788e-01
    9.8233238575291395e+00 -5.1570283432361597e-01
    9.6089382139609700e+00 -4.7627504126424425e-01
    1.0029407534438660e+01 -4.6650354512980774e-01
    9.9916623507837148e+00 -4.5468555004118472e-01
    1.0602228572798321e+01 -4.9106965610065673e-01
    1.0988905318429207e+01 -4.7232538365204502e-01
    1.1287717809115891e+01 -4.2077471443974557e-01
    1.3064758478876190e+01 -3.6348247744682050e-01
    1.3106000140623729e+01 -3.7737082532465932e-01
    1.0040783441410083e+01 -4.7059811180761507e-01
    1.1406912826405703e+01 -3.7667791623125968e-01
    6.0706927751458046e+00 -6.2832564250628165e-01
    6.6866395745935341e+00 -6.5629248231743642e-01
    7.6120418050929777e+00 -6.9458194022715614e-01
    7.1969323544888439e+00 -7.4663872183440705e-01
    6.6389289279216666e+00 -7.2326073473446995e-01
    6.8571891192024887e+00 -7.0946305632161177e-01
    6.9430436047143944e+00 -6.8432810186783410e-01
    7.3343776581644855e+00 -6.7129506632011571e-01
    7.1712804858680137e+00 -6.7179922178284179e-01
    6.4663097019246960e+00 -6.8574717116805461e-01
    6.5978793717523372e+00 -6.7828129858632624e-01
    6.5506069108361933e+00 -6.6672292527632937e-01
    5.8671303505308003e+00 -6.8730202650942795e-01
    6.1192314724535271e+00 -6.9734934915550961e-01
    6.5914275091287546e+00 -6.7497048329487253e-01
    6.9258665149634577e+00 -6.3038416083635040e-01
    7.7488956319236655e+00 -5.8329290787547261e-01
    9.3966831583579058e+00 -5.5270961672692753e-01
    7.9249069328861577e+00 -5.7329115487450721e-01
    6.3690444231022161e+00 -5.3868482064363155e-01 1. 0.
    6.8245083259399797e+00 -5.0113004697877894e-01
    6.3024215158213677e+00 -7.0351391278433739e-01
    6.3002193810027132e+00 -7.1647110649078671e-01
    6.0008696936938541e+00 -6.3271970913635667e-01
    6.5876495248441715e+00 -6.2590693323495483e-01
    6.9516406132586201e+00 -6.5643031999419499e-01
    6.6185448522306993e+00 -6.9324846187277112e-01
    6.2220649195361268e+00 -7.0259695848270409e-01
    6.3617364689858400e+00 -7.1293717552027325e-01
    6.2745474666684222e+00 -7.0935121267628520e-01
    5.9796893953698884e+00 -6.6651396976239319e-01
    6.1892184453607193e+00 -5.9831935526991231e-01
    6.6272366242360441e+00 -5.8188207767113165e-01
    6.8557274051474097e+00 -5.4476797579452096e-01
    7.2613340793248584e+00 -4.9083804485881799e-01
    9.5759684900681510e+00 -3.8368537925579271e-01
    9.5721714635389432e+00 -3.6794970812885369e-01
    6.1803455908513776e+00 -4.5373263390805935e-01 1. 0. 1. 0. 1. 0. 1.
    0. 1. 0. 1. 0. 1. 0. 1. 0. 1. 0. 1. 0. 1. 0. 1. 0. 1. 0. 1. 0. 1. 0.
    1. 0. 1. 0. 1. 0. 1. 0. 1. 0. 1. 0. 5.0055123995628863e+00
    -5.1121099243479662e-01 5.2411860672233903e+00
    -5.1216372708467162e-01 5.3696490104700452e+00
    -5.0715002892926397e-01 5.1667959356981488e+00
    -4.9700416504004341e-01 5.1181973036568253e+00
    -4.8111681509823717e-01 5.1776438460747505e+00
    -4.7110225624449853e-01 5.2267208713826543e+00
    -4.9811329063147247e-01 5.2214026165915595e+00
    -5.4977438293429526e-01 5.1840750445171926e+00
    -5.9683431536090459e-01 5.1848555610920215e+00
    -6.0027440294860801e-01 5.3353113352823867e+00
    -5.7012273565625626e-01 5.5150225181187382e+00
    -5.2928079779141846e-01 5.4218137233915966e+00
    -4.9685363147823558e-01 5.1311378025724483e+00
    -4.9987661102037256e-01 4.7449431224720522e+00
    -5.3852534710611299e-01 4.4428754525790506e+00
    -5.8526246260328252e-01 4.4437653672124124e+00
    -6.3020062747923933e-01 4.7686067992871548e+00
    -6.5755893092295215e-01 4.9127950352822385e+00
    -6.5158846818011273e-01 4.8214458972204239e+00
    -6.3936983754540111e-01 3.6482369299210244e+00
    -8.8540122413009092e-01 3.6906739350436499e+00
    -9.1697696583641453e-01 3.5959141471866958e+00
    -9.7289346737672622e-01 3.3892741545274743e+00
    -1.0192320466263849e+00 3.3285468973350247e+00
    -1.0513869441863239e+00 3.4039912420604863e+00
    -1.0861688439643911e+00 3.4614219956121355e+00
    -1.1114190345158907e+00 3.4570440994116090e+00
    -1.1337800858197609e+00 3.3700563582375684e+00
    -1.1441470909989739e+00 3.2591059404163545e+00
    -1.1408436228414507e+00 3.1393146839797277e+00
    -1.1196831407895673e+00 3.0209756793749980e+00
    -1.0963922308161806e+00 2.9771155489431020e+00
    -1.1017444943959114e+00 2.9696095689124942e+00
    -1.1165185931528896e+00 2.9727207800692659e+00
    -1.1269637730383504e+00 3.0020903964634966e+00
    -1.1202025684017527e+00 3.1675844067334529e+00
    -1.1043812725485593e+00 3.4777784137787879e+00
    -1.0625426305676215e+00 3.6249249277720716e+00
    -9.7966630947585465e-01 3.6041280405037157e+00
    -9.3621101490798375e-01 4.3653080992860174e+00
    -7.7894605235171499e-01 4.5112810562762755e+00
    -7.8448348165170279e-01 4.4998270620796097e+00
    -7.8862122351902175e-01 4.1666353065202903e+00
    -7.7916579423840981e-01 3.9381903201592872e+00
    -7.7136125382726362e-01 3.8534455833184844e+00
    -7.6976195412288873e-01 3.8470029645679151e+00
    -7.8211310216656449e-01 3.9409034694677434e+00
    -8.0985986804337395e-01 4.0929344858281285e+00
    -8.2669567015610912e-01 4.2636824586953939e+00
    -8.2147174169341675e-01 4.2885838931984477e+00
    -7.6290868236129716e-01 4.1523906067685079e+00
    -6.8968417348145072e-01 3.9756205907325342e+00
    -6.6033928975562106e-01 3.8066513560625048e+00
    -6.6026867995981131e-01 3.7041800179461237e+00
    -6.9191702222951912e-01 3.7259436944946622e+00
    -7.6862795643127757e-01 3.9204239340687139e+00
    -8.6291852974142957e-01 4.2434239774522364e+00
    -9.2341644375612753e-01 4.2814400242996467e+00
    -9.1678505752834960e-01 4.1827012568415940e+00
    -9.0269505709208342e-01 5.1394027653696606e+00
    -6.4516407328447012e-01 5.4195232348431279e+00
    -6.4275438892336278e-01 5.6195334818702429e+00
    -6.2164840157524359e-01 5.3640984880061273e+00
    -5.9543154817425681e-01 5.1545401285935162e+00
    -5.9013337223426532e-01 5.0816261133925433e+00
    -5.9977102690494577e-01 4.9965141302167044e+00
    -6.2808003528046152e-01 4.9005069904973686e+00
    -6.6508750027506636e-01 4.8429606689916511e+00
    -6.8526267110032890e-01 4.9651348591136006e+00
    -6.6608371331427230e-01 5.2184273380581585e+00
    -6.0972027469499313e-01 5.4014423298719478e+00
    -5.6366888119587810e-01 5.4463779088619546e+00
    -5.4909230322870584e-01 5.3383959439217943e+00
    -5.5285295907372634e-01 5.0932355473317728e+00
    -5.8293683523675421e-01 4.7988122657201568e+00
    -6.5898643161386594e-01 4.6085779203227277e+00
    -7.2421981042936312e-01 4.5955402253470332e+00
    -7.5458512983159665e-01 4.4322096209444899e+00
    -7.4164722596721877e-01 4.2830360967334675e+00
    -7.3179495018803520e-01 5.0476490860239824e+00
    -5.5212626985122015e-01 5.2302207964640193e+00
    -5.5741120983587789e-01 5.3598945673513327e+00
    -5.6453334976569758e-01 5.1292754619517567e+00
    -5.6854932792772883e-01 5.0258091820644326e+00
    -5.8694173666221094e-01 5.0058965153435029e+00
    -6.2657851166726131e-01 4.8413414358682072e+00
    -6.6099382824331965e-01 4.6408651418759392e+00
    -6.8975186877672801e-01 4.5052223516132051e+00
    -7.0164869811097008e-01 4.5682021567779456e+00
    -6.9356045853944248e-01 4.8136084603671856e+00
    -6.6828509898411259e-01 5.0652061573258127e+00
    -6.4015487550676786e-01 5.1177063253019544e+00
    -6.0679014489389294e-01 5.0166645009693083e+00
    -5.8605872288584004e-01 4.8692763993100598e+00
    -6.0078550969068545e-01 4.6359687642833585e+00
    -6.3048025349573700e-01 4.5286194844543681e+00
    -6.5122385487898293e-01 4.6203924520534558e+00
    -6.5773274709311369e-01 4.5563764471513153e+00
    -6.4349187540616337e-01 4.4355273600241159e+00
    -6.3324964136376993e-01 6.0153797727996192e+00
    -5.5997875636842731e-01 6.1480207847194839e+00
    -5.7262470618497530e-01 5.9285012866855746e+00
    -5.8591915079449886e-01 5.3043050872259698e+00
    -5.8147630904766046e-01 4.9103236014451541e+00
    -5.9594087136199658e-01 4.6976065827632505e+00
    -6.1856310800885816e-01 4.5824773476423735e+00
    -6.4499956375265344e-01 4.5239917543789874e+00
    -6.5908220405748219e-01 4.5360495197266957e+00
    -6.6934138691128375e-01 4.6064302888545106e+00
    -6.7075268672671262e-01 4.6836216579045429e+00
    -6.5317418309198927e-01 4.7901439219648951e+00
    -6.2426957029823860e-01 4.8817997309975745e+00
    -5.8997828379125217e-01 4.8737698390516835e+00
    -5.6646209519681789e-01 4.8277173453663567e+00
    -5.6921267100311868e-01 4.7727451575397666e+00
    -5.7238121644300133e-01 4.8804081081777202e+00
    -5.6597413083339698e-01 5.2078009740951297e+00
    -5.5998350351126469e-01 5.3057335841986779e+00
    -5.4879090365268379e-01 5.2154428367672692e+00
    -5.4222471649992643e-01 6.0853159300458790e+00
    -5.3021499337339661e-01 6.1810376478880906e+00
    -5.4593140430446896e-01 5.9530541706127957e+00
    -5.7328275228294112e-01 5.3428829837565264e+00
    -5.8564314702152231e-01 4.9444439191245877e+00
    -6.0513804808948080e-01 4.7227569518592603e+00
    -6.2430329565739406e-01 4.5765482023821438e+00
    -6.4222021175888400e-01 4.4238666579339085e+00
    -6.5586074859527399e-01 4.2666617152529911e+00
    -6.6232586336579335e-01 4.1984151509614698e+00
    -6.6048125724393336e-01 4.2360235620982420e+00
    -6.5925484012267699e-01 4.3373814366906469e+00
    -6.5297010710272430e-01 4.3964403171779853e+00
    -6.3333379259699074e-01 4.4851818100214311e+00
    -6.0888571363026744e-01 4.7598440573938996e+00
    -5.9899473914386503e-01 5.1069018672503175e+00
    -5.9364744169715167e-01 5.5557811661519967e+00
    -5.7836270424655489e-01 6.2102325045403219e+00
    -5.5404113145148837e-01 6.2975734030831765e+00
    -5.1017977156985661e-01 6.0404059551163973e+00
    -4.8669717653414407e-01 6.2430681141895850e+00
    -4.8359535733518055e-01 6.3239617401536172e+00
    -5.0566662244297444e-01 5.8869867922692523e+00
    -5.4193795377351095e-01 5.1078430203925471e+00
    -5.7960349468949235e-01 4.7151790865630776e+00
    -6.1669572145060447e-01 4.5580334253387713e+00
    -6.4384086519236450e-01 4.5465771482416510e+00
    -6.5786442245486976e-01 4.5725594905052684e+00
    -6.6072778570733537e-01 4.5675288937044352e+00
    -6.6303197791308444e-01 4.4696369259270252e+00
    -6.6743388108154666e-01 4.3035186754484789e+00
    -6.9029324750017351e-01 4.0811609412019676e+00
    -7.1634035606418833e-01 3.8304596262946937e+00
    -7.2449876398111213e-01 3.6817358854878144e+00
    -7.1490781777882817e-01 3.7617056838271870e+00
    -7.0215149976341462e-01 4.1153580258027231e+00
    -6.7867015150606247e-01 4.7168133976037563e+00
    -6.2927457028897382e-01 5.6609162851322781e+00
    -5.8083833231043758e-01 6.3782752711988770e+00
    -5.3111143550359685e-01 6.4710370387527210e+00
    -5.0308734048822612e-01 5.7180865097069988e+00
    -5.3025072363121095e-01 5.7433329921089253e+00
    -5.5377743017499192e-01 5.3444079038455943e+00
    -6.0137618246863256e-01 4.7243103399817610e+00
    -6.5039652832360539e-01 4.3819639621853188e+00
    -6.9336139186251888e-01 4.2677529214973671e+00
    -7.2535777294291803e-01 4.2665129888544815e+00
    -7.2952650831876142e-01 4.3143123936657428e+00
    -7.1027452851427353e-01 4.4119096091920920e+00
    -6.8049847428037014e-01 4.5455903017711226e+00
    -6.6850886944442522e-01 4.6249034047453410e+00
    -6.7636818973024027e-01 4.5562431828443533e+00
    -6.8611310073849452e-01 4.3077842987780164e+00
    -6.8984065556307839e-01 4.0216194707432003e+00
    -6.8219771589831635e-01 3.9311665974550052e+00
    -6.7412351735543108e-01 4.0329481944133567e+00
    -6.4942084504431652e-01 4.4124240966212138e+00
    -6.1115784704370546e-01 5.1314100885627676e+00
    -5.7662212921716394e-01 5.6106374841514466e+00
    -5.4639361516246354e-01 5.6143862258950996e+00
    -5.3055899496344650e-01 5.5298450849653751e+00
    -6.5854254242176469e-01 5.6976886722711786e+00
    -6.8152696717567529e-01 5.5372925999902307e+00
    -7.0999363036408547e-01 5.0266463539595989e+00
    -7.1530138741700333e-01 4.8572175187016944e+00
    -7.1626182360432400e-01 4.8855693751339313e+00
    -6.8404893311709791e-01 4.8741075314881224e+00
    -6.2568805134933880e-01 4.8546101518254900e+00
    -5.7640578266093390e-01 4.8179926067745393e+00
    -5.4614294708160094e-01 4.8238005083139841e+00
    -5.3789979753436790e-01 4.9506747773174125e+00
    -5.3445828254026972e-01 5.2421787364179115e+00
    -5.3678536316536607e-01 5.4227823926484282e+00
    -5.2837287238802633e-01 5.3938074898008690e+00
    -5.3369238415397502e-01 5.2380151694637966e+00
    -5.7279659741487199e-01 4.9336022688890573e+00
    -5.9239032532002922e-01 4.8609202913741560e+00
    -5.9957529881154614e-01 5.0361488362602778e+00
    -5.9149135044744749e-01 5.0273032816375318e+00
    -5.6423092686295684e-01 4.9187656583536814e+00
    -5.5219255465485884e-01 4.2836510665538245e+00
    -7.9887843859347996e-01 4.4049375743561257e+00
    -8.3066908039948351e-01 4.3521363742588246e+00
    -8.6733645290254768e-01 4.0954817246485229e+00
    -8.5684420638062875e-01 4.0590938337160818e+00
    -8.1229924083497262e-01 4.1060210240666883e+00
    -7.2651209667191485e-01 4.1893768778606484e+00
    -6.4395549856733969e-01 4.2800497557587498e+00
    -5.8592138749990086e-01 4.3096436747984779e+00
    -5.5097008699526895e-01 4.2613174929469224e+00
    -5.4451064927771575e-01 4.2526390770131650e+00
    -5.5383207802945866e-01 4.2107759595264387e+00
    -5.5776002234328248e-01 4.1115124042139026e+00
    -5.6409388118981407e-01 4.0514935883045906e+00
    -5.8586695200407668e-01 4.0915946297154049e+00
    -6.1858023979446819e-01 4.1675419879828572e+00
    -6.3903039723925614e-01 4.3791409550296070e+00
    -6.5313870756171266e-01 4.7648567785581193e+00
    -6.5568269847391747e-01 4.9024361246743746e+00
    -6.2680371172171956e-01 4.8084413464178821e+00
    -6.0427065456850815e-01 4.8694747160026015e+00
    -7.3584246247763074e-01 5.0220214961034264e+00
    -7.5371983278832289e-01 4.9634646377194960e+00
    -7.7110893114679602e-01 4.6382596973652719e+00
    -7.6366067101631918e-01 4.5531478038809148e+00
    -7.3777332079731639e-01 4.5635850483034544e+00
    -6.8439387587562683e-01 4.5731373348746702e+00
    -6.0762195528450136e-01 4.6091780980291546e+00
    -5.3487771018723052e-01 4.6122964851701864e+00
    -4.7966166108583796e-01 4.6399543835782859e+00
    -4.5936319136692483e-01 4.7589228862172410e+00
    -4.6472345953436750e-01 4.8665723795207851e+00
    -4.7960794073045276e-01 4.8285270049048856e+00
    -4.9913190877433372e-01 4.6788173065943379e+00
    -5.2593628247919966e-01 4.5642727826823322e+00
    -5.4990385883374049e-01 4.5263644360027637e+00
    -5.7232682798309520e-01 4.6884960587128663e+00
    -5.8992509154314476e-01 5.1228200874667733e+00
    -5.9640241623447510e-01 5.3185897811960103e+00
    -5.8378530467138612e-01 5.2375016868852118e+00
    -5.7253718796161501e-01 5.4031307414503473e+00
    -6.4370390616206252e-01 5.7935470831672404e+00
    -6.4832913677826953e-01 6.1180471718067837e+00
    -6.2412143494781458e-01 5.8899111366746393e+00
    -5.8609391731468874e-01 5.8049644207310882e+00
    -5.6881004546048208e-01 5.7219699739306993e+00
    -5.4918611078496316e-01 5.4471695583055286e+00
    -5.2832858376592673e-01 5.2423206896569514e+00
    -5.0573384226172668e-01 5.1426269022171383e+00
    -4.8694572472033815e-01 5.3052578843065161e+00
    -4.8655337511403013e-01 5.5388970883089987e+00
    -4.8543204531545936e-01 5.7016098974391598e+00
    -4.8362814225601641e-01 5.6000332880598442e+00
    -4.8622618512039900e-01 5.1965211405760989e+00
    -4.7375761388242354e-01 4.8069866010698536e+00
    -4.6911854771898831e-01 4.5443152653746868e+00
    -4.8341135107380240e-01 4.5035882195805650e+00
    -5.0985700466840178e-01 4.6839316867989877e+00
    -5.3889914340307132e-01 4.6729862974082108e+00
    -5.5368027093716510e-01 4.5647546481587273e+00
    -5.5694162167885941e-01 4.9343126899140755e+00
    -6.8538744802917828e-01 5.2005457329170914e+00
    -6.6960099421130015e-01 5.4124330986165470e+00
    -6.1246493967583726e-01 5.1897616201726313e+00
    -5.5441847349368489e-01 5.0677880443770595e+00
    -5.3034500791280115e-01 5.0081465063752590e+00
    -5.2168376208577438e-01 4.9207784820391351e+00
    -5.1795860292577800e-01 4.8465566171278898e+00
    -5.1757545052443477e-01 4.7803100838027293e+00
    -5.0475912640898546e-01 4.7651645516450181e+00
    -4.9950757234686033e-01 4.7659329686839111e+00
    -4.9432608591240162e-01 4.8035951115639053e+00
    -4.8939617663496482e-01 4.8795838813922989e+00
    -4.8111748393428239e-01 4.8547004099734483e+00
    -4.6800045823240222e-01 4.7530930164456899e+00
    -4.6349010099294380e-01 4.6807398690620152e+00
    -4.7328284196770504e-01 4.7435357261985640e+00
    -4.9948620989543285e-01 5.0288369150352494e+00
    -5.4081795129038845e-01 5.0356008043356582e+00
    -5.6168366235651557e-01 4.8930551169271217e+00
    -5.6236121039851816e-01 5.6704017941325660e+00
    -6.1732897018756427e-01 6.1881289477983286e+00
    -6.0619902417679672e-01 6.9109670605400524e+00
    -5.4556350539923093e-01 6.9552658340399178e+00
    -4.9523820778433575e-01 6.8755627954317955e+00
    -4.8150487169849532e-01 6.7385877210579466e+00
    -4.8799534136752387e-01 6.4519015271409108e+00
    -5.0648220215310069e-01 6.0551634807152892e+00
    -5.0911758946008923e-01 5.7105307789559578e+00
    -5.0492858891137993e-01 5.4625669641555064e+00
    -5.0881355253845817e-01 5.4232129794683308e+00
    -5.1930168627964390e-01 5.6065492922149973e+00
    -5.1668744585624193e-01 6.0129973593268637e+00
    -4.9707819460311375e-01 6.3805182738419246e+00
    -4.5514377252631283e-01 6.5372739182934447e+00
    -4.2885421111832039e-01 6.4069407191946652e+00
    -4.4658561577127276e-01 6.0991881674230184e+00
    -4.8577637550430336e-01 5.8296437040059006e+00
    -5.1431812448583158e-01 5.3686349634091526e+00
    -5.2388869680438566e-01 5.0472876865878336e+00
    -5.2294036738993566e-01 6.2882280582637344e+00
    -4.9147392469529727e-01 6.9225069018923557e+00
    -4.7890899437837231e-01 7.7942448568146236e+00
    -4.3023331320006936e-01 8.1165270200086965e+00
    -3.9885331870868740e-01 8.3825322117217045e+00
    -4.1530828431834604e-01 7.9342087116867521e+00
    -4.6477832345941966e-01 6.9489224578001574e+00
    -5.0875571210351744e-01 6.0489328557838160e+00
    -5.4080117280391460e-01 5.4019533864084854e+00
    -5.5017946168655629e-01 5.0369237971165539e+00
    -5.5572267084266302e-01 4.9964175933286077e+00
    -5.5153478755978003e-01 5.2607751101941593e+00
    -5.3257495384017461e-01 5.8361430908930574e+00
    -4.9566250980523047e-01 6.4767945156501590e+00
    -4.5424467943216273e-01 6.7418798228009589e+00
    -4.4395114022924992e-01 6.3535825290764150e+00
    -4.6428107050197087e-01 5.8339141977908842e+00
    -4.9605054200972770e-01 5.5157653498024102e+00
    -5.3155687420455555e-01 5.0742104613277972e+00
    -5.5203842939985270e-01 4.7779899459927035e+00
    -5.5451404535051230e-01 7.0576244562826842e+00
    -3.3143877622032653e-01 7.6962478366108469e+00
    -3.1732994507145390e-01 8.8655019043253009e+00
    -2.9094941709583766e-01 9.8118677307819642e+00
    -2.7071620601537194e-01 1.0304927257606408e+01
    -2.7398223908783886e-01 1.0305714100567583e+01
    -3.0779861614385384e-01 9.1781030626370299e+00
    -3.4110120626253010e-01 8.0887253155280963e+00
    -3.5873506731893956e-01 7.1920867469389096e+00
    -3.6449229306486208e-01 6.5384440942031947e+00
    -3.6544391305961793e-01 6.2570462708019079e+00
    -3.5459692261536652e-01 6.6047138068313354e+00
    -3.2502284930138609e-01 7.5579033459890024e+00
    -2.8848370510563526e-01 8.5568721886626840e+00
    -2.7388035484238771e-01 9.3573153113736378e+00
    -2.8686289712163060e-01 9.1576205811076790e+00
    -3.1082477748683390e-01 8.2717438001727377e+00
    -3.3033688202822192e-01 7.6232458071902958e+00
    -3.5084194166130672e-01 7.0486380639310013e+00
    -3.7132361105523903e-01 6.6649619393666981e+00
    -3.8154226099582772e-01 3.9256668892807225e+00
    -6.7441443607787599e-01 4.1705302695590492e+00
    -6.8735597449297514e-01 4.5131742487658144e+00
    -7.0239672310315604e-01 4.6555597571632408e+00
    -6.9841302579448394e-01 4.7368433640793262e+00
    -6.9863972113413886e-01 4.5217422192370700e+00
    -6.8096155945710501e-01 4.1277610399318716e+00
    -6.7009489111221432e-01 3.8626283055329047e+00
    -6.7608644817983410e-01 3.7047831573029071e+00
    -6.8066419479399654e-01 3.6240762957498163e+00
    -6.9569495866193121e-01 3.5931070459423489e+00
    -7.0240431724305552e-01 3.6772743083160004e+00
    -7.0046277760107101e-01 3.9605439639677780e+00
    -6.9214898293653337e-01 4.3406938079131097e+00
    -6.6089761080081055e-01 4.6150290679911210e+00
    -6.3092796300890708e-01 4.6640837829167969e+00
    -6.3371555894423048e-01 4.6110773874370361e+00
    -6.4465879527713643e-01 4.5171640590183335e+00
    -6.3225660594816580e-01 4.1918566155681320e+00
    -5.9580155877450414e-01 3.9817540840276582e+00
    -5.7619174958592489e-01 1. 0. 1. 0. 1. 0. 1. 0. 1. 0. 1. 0. 1. 0. 1.
    0. 1. 0. 1. 0. 1. 0. 1. 0. 1. 0. 1. 0. 1. 0. 1. 0. 1. 0. 1. 0. 1. 0.
    1. 0. 1. 0. 6.6495162850415221e+00 -5.2422738642677391e-01
    8.9228060262971205e+00 -4.1839045563003224e-01
    9.3969551523557993e+00 -4.5666918538748075e-01
    6.9399118468452237e+00 -6.2095686222119184e-01
    6.4960600274334395e+00 -7.3980124151556492e-01
    6.1856253370520520e+00 -7.7934404317444606e-01
    6.6075542872289565e+00 -7.0680337840597895e-01
    7.4335046906449573e+00 -6.1297873727098329e-01
    7.8499097051941549e+00 -5.1519341712078248e-01
    7.7894405880727566e+00 -4.9928417858365987e-01
    7.8853304736090752e+00 -5.5319950480765279e-01
    7.8176701443963488e+00 -5.8576969376113575e-01
    6.9508890937133190e+00 -6.5702024754360278e-01
    6.0909036382318700e+00 -7.8015051553216774e-01
    5.7497065099525830e+00 -9.3834168402649509e-01
    6.0995724943253338e+00 -1.1133816484955259e+00
    5.7480097570931967e+00 -9.9866172108829909e-01
    6.7803603746248733e+00 -6.4529565827851521e-01 1. 0.
    9.0678385247381410e+00 -4.4257521310945575e-01
    9.7185168079725504e+00 -5.1580149431735201e-01
    1.1290523656736260e+01 -4.7641671071696640e-01
    1.1167504796559751e+01 -4.5014132627042536e-01
    8.9825753241140589e+00 -4.9251610617039415e-01
    9.5043027230280508e+00 -5.0426629564438274e-01
    9.1450016347532124e+00 -4.6385569019930006e-01
    9.3278621873795249e+00 -5.1043465008366495e-01
    9.1623122292285153e+00 -5.2182094574111704e-01
    9.8186594591181215e+00 -4.9164268252268106e-01
    9.6617519433239458e+00 -5.0729565598629689e-01
    9.6169514831338923e+00 -5.4653837190300147e-01
    8.7004126943750446e+00 -5.7773152659915883e-01
    8.8622754846041545e+00 -5.6215190233385781e-01
    8.4875854048554729e+00 -5.9220654625195912e-01
    8.5328607580727205e+00 -6.3907669222424335e-01
    8.4799532402296922e+00 -6.9624292249105602e-01
    8.5475404173868199e+00 -6.8137510022684467e-01
    9.8858303772047513e+00 -6.2099716882751066e-01
    8.1953604834269420e+00 -5.6367505068526880e-01
    6.3885831075785466e+00 -7.9602698330334987e-01
    7.4536936089377166e+00 -7.7246622682710475e-01
    7.8179793944654907e+00 -6.7823936827920173e-01
    7.4112307724089641e+00 -6.9030844535811997e-01
    7.4657547221383762e+00 -7.4371438305475301e-01
    6.9044335786734505e+00 -7.6764607944491248e-01
    6.6735995447418688e+00 -7.8656677535982322e-01
    7.3527320926317108e+00 -7.6922230629998734e-01
    7.0808286540637910e+00 -7.8659846458931837e-01
    7.4129640360077627e+00 -7.9005163668479261e-01
    7.1132870072798102e+00 -7.9582190876496861e-01
    6.6154024718033773e+00 -8.4312029895293028e-01
    6.2506544766007659e+00 -8.2996390135336462e-01
    6.7060409257816547e+00 -8.9913560272525683e-01
    6.4991549130521102e+00 -9.0924233359660644e-01
    6.2356207177881409e+00 -9.5019849102961573e-01
    6.7757884397070764e+00 -1.0236883361995572e+00
    6.9192179130467535e+00 -9.5242210406912675e-01
    7.8240697315138377e+00 -8.6418431713030708e-01
    6.4837401359568592e+00 -8.0588329477392606e-01
    7.5805309993841554e+00 -7.4408660404291693e-01
    7.7855046259660812e+00 -6.7874561566642333e-01
    9.1959441715447241e+00 -5.4966357533220156e-01
    8.2856575545376909e+00 -5.6141278146961215e-01
    7.5997527852334876e+00 -6.6967426890401627e-01
    7.2017966692618680e+00 -6.7760655806394654e-01
    7.2896089232462060e+00 -7.1606789966792050e-01
    7.5218041041137882e+00 -7.2055953050306853e-01
    7.9972562532905798e+00 -6.6809458093074581e-01
    8.0870434460269838e+00 -6.7493637443996946e-01
    7.9344689561399218e+00 -6.3348889309605139e-01
    7.8846405805088704e+00 -6.6546426376071344e-01
    7.6845087228480162e+00 -6.9230737035137213e-01
    7.0803548495218145e+00 -7.2197350729339438e-01
    7.4870213277422950e+00 -7.8087416815634936e-01
    6.9381601440792311e+00 -8.4144319743926677e-01
    6.8620483670812105e+00 -9.2105147846652813e-01
    7.3994082987791225e+00 -8.8858086776287315e-01
    8.7705283207556626e+00 -8.1033213489947276e-01
    7.8373314884717464e+00 -7.7006910850316734e-01
    8.9338461212669689e+00 -5.5596120538296001e-01
    9.0778816664346191e+00 -6.4098542768959865e-01
    9.8551188199157238e+00 -5.0677787319522483e-01
    9.4835751709898570e+00 -5.1339808626906747e-01
    8.1468978551892821e+00 -6.2697388172361468e-01
    7.8184058841921065e+00 -6.6706506434282797e-01
    7.5993747998075962e+00 -6.2748242385746789e-01
    8.3944480897310587e+00 -6.4939675672270991e-01
    8.5055097325675906e+00 -5.9893657054242067e-01
    9.1401801055607166e+00 -5.8112786163812957e-01
    8.6296785107359106e+00 -6.1854780310397972e-01
    8.2453631297996441e+00 -6.5682277612264339e-01
    7.7165841729325129e+00 -6.2718819063235820e-01
    7.9368106363904340e+00 -6.2817781446312193e-01
    7.5330245958682109e+00 -6.3624098012634100e-01
    7.5613018262386822e+00 -7.0898164687697829e-01
    7.7652629639999606e+00 -8.4757850173416349e-01
    7.9395020606961788e+00 -8.3553842643836240e-01
    9.0176846800423185e+00 -7.0039268948609423e-01
    7.8455977187909021e+00 -6.2631728475156356e-01
    9.1560822236874788e+00 -4.8483149351358107e-01
    9.4711318237056723e+00 -5.9204338763058606e-01
    9.5627666484499461e+00 -4.9220819639817698e-01
    9.6018371832516376e+00 -4.8672934494950770e-01
    8.8729964052090544e+00 -6.0930131344405314e-01
    8.2205442879293944e+00 -6.1391486695935316e-01
    8.1250714795555457e+00 -6.3601501305915098e-01
    8.4890578436809143e+00 -6.3268277497451164e-01
    8.3899394928798241e+00 -6.4950380710716449e-01
    8.7289781275677445e+00 -5.9947944865124747e-01
    8.8415280111348764e+00 -5.9767018775353276e-01
    8.3880733320140504e+00 -6.2478212460911853e-01
    7.7411347565364697e+00 -6.1423774089423222e-01
    8.2072095733819044e+00 -6.1650222802948318e-01
    7.5117357358243364e+00 -6.5248781729122807e-01
    7.5539120056074331e+00 -8.0604085669385228e-01
    7.1236909534198452e+00 -8.7201648588433134e-01
    7.1963960647172636e+00 -8.4745872727931049e-01
    9.3175428054513478e+00 -6.7016594138216712e-01
    8.4048983998238143e+00 -5.8232734859923008e-01
    9.9136515938170700e+00 -5.2779320341767777e-01
    9.2632540376652130e+00 -5.6540622891308012e-01
    9.5923960581058125e+00 -4.9654385198307288e-01
    1.0017875871672379e+01 -5.1468076728061840e-01
    8.7769648289270474e+00 -5.5376006677172940e-01
    8.1715638217957185e+00 -5.8098646202147330e-01
    8.2935830999983935e+00 -5.8919516155955032e-01
    7.8691198933293389e+00 -5.6343788629946456e-01
    8.5557362045125434e+00 -5.8290006385135384e-01
    9.2644610342501839e+00 -5.7383913819955401e-01
    9.1290634162568871e+00 -5.3672031916640905e-01
    8.4470999174594805e+00 -5.8975872976578414e-01
    8.5971542055720374e+00 -5.9738258162413072e-01
    8.5906247883161875e+00 -5.9906255258884777e-01
    7.5947458568813602e+00 -6.0346218900872195e-01
    7.4305846841756056e+00 -7.2843103997931036e-01
    7.6930449001845078e+00 -8.3182902120763402e-01
    8.0353216506270826e+00 -8.3731186269751634e-01
    8.9638264647451820e+00 -5.9798849783217456e-01
    8.9847630804590697e+00 -5.0979123958483519e-01
    9.3989137044376001e+00 -5.6806933513937619e-01
    9.4734835804838085e+00 -6.2003979700193990e-01
    9.3576189750233816e+00 -5.1738316735989553e-01
    9.8765646979360096e+00 -5.1859368378952675e-01
    9.0071266299165060e+00 -5.5019230300374367e-01
    8.4203615082993686e+00 -5.7911789296799376e-01
    8.8332519200074202e+00 -6.0883458928467105e-01
    8.4702245635934297e+00 -6.0062654820665184e-01
    8.4715475113828251e+00 -5.9376696767743864e-01
    8.2338593962267677e+00 -6.0209564221211798e-01
    8.4482063384223292e+00 -6.4134273591721624e-01
    8.8944593896381487e+00 -6.8769806992341465e-01
    8.1087326412683716e+00 -6.8676925941809097e-01
    8.5439721839157308e+00 -6.8550061856683542e-01
    8.4810218119960066e+00 -6.4169454450159313e-01
    7.9239721975049964e+00 -6.9927397815090098e-01
    7.9948466452013305e+00 -8.3585557292337231e-01
    8.7664198029450056e+00 -8.1326957510606313e-01
    1.0058655866844937e+01 -5.2696424235772743e-01
    9.2964978939499083e+00 -4.6647096747299421e-01
    8.4651081652809399e+00 -5.1457044303011290e-01
    9.9126341391477659e+00 -6.4758967159733027e-01
    9.7526441525433185e+00 -5.2843737354890319e-01
    1.0345850610365236e+01 -4.9816590467521943e-01
    8.9766901894516469e+00 -5.7169127419554533e-01
    8.3967498115406745e+00 -6.4613696651468622e-01
    8.3455584157307889e+00 -6.2558290114812753e-01
    8.3376547902758666e+00 -6.0271269348211820e-01
    8.2589604797237985e+00 -5.8878679044234439e-01
    8.6696020115953534e+00 -6.2425240924566083e-01
    8.1093749229061363e+00 -6.7845236476744686e-01
    7.7025272780787750e+00 -7.0234531843852166e-01
    7.8826208819824322e+00 -6.7307921931076331e-01
    8.1232372968173419e+00 -7.0536790981156672e-01
    7.9657747030947945e+00 -6.8919089144829737e-01
    8.2272330607581470e+00 -7.3288476001917180e-01
    8.0912412227433297e+00 -8.6464834609164753e-01
    7.9819150521874631e+00 -8.4131838681186921e-01
    1.0381369719252984e+01 -5.9394920974754184e-01
    1.0261782002690097e+01 -4.9736356131728171e-01
    9.0479365469438182e+00 -5.1535958076269661e-01
    9.4201906577150130e+00 -5.6273830191117491e-01
    1.1294498340102736e+01 -4.6477172573960074e-01
    1.0996414015745437e+01 -4.7525130462905457e-01
    8.2822552732045764e+00 -5.3643295706990424e-01
    8.3021478017119481e+00 -6.1395186519188394e-01
    7.4326629857351003e+00 -6.3967732962988888e-01
    7.5298825322015848e+00 -6.4420162830108563e-01
    7.2821808948406241e+00 -6.0191337573949588e-01
    8.1849164137820871e+00 -6.0440897533031512e-01
    8.1713452502856967e+00 -6.0494483174843494e-01
    8.0111872052235142e+00 -6.5784835740400360e-01
    7.8227957724958621e+00 -6.4089078298028357e-01
    8.1919506218722304e+00 -6.3034570445960503e-01
    8.3630483557775914e+00 -6.7616137465497517e-01
    7.5392318799873390e+00 -7.6580943388738154e-01
    7.2774770658128194e+00 -9.2696382162755409e-01
    7.8882524254135804e+00 -9.1581518000225448e-01
    1.0020329482709611e+01 -6.3018483921125179e-01
    8.6521085190770606e+00 -5.1970909093913042e-01
    9.7825946937910757e+00 -5.5925490695495750e-01
    1.0641661119179796e+01 -5.8478495488689231e-01
    1.3241923689360716e+01 -4.8619628682393340e-01
    1.1752823947587251e+01 -4.6196691787936006e-01
    9.1760170512195298e+00 -5.2281513886365094e-01
    8.9830441091314590e+00 -5.4861665901395495e-01
    8.4685223645364118e+00 -5.7391821119550845e-01
    7.7025290255736367e+00 -5.6233074194197985e-01
    8.4258323063316389e+00 -5.6983155515073858e-01
    8.5668287118466679e+00 -5.6728197887580589e-01
    8.9600766139972752e+00 -5.9577369566994298e-01
    8.4639917856209177e+00 -5.7563127575413608e-01
    8.8621120944376983e+00 -5.8759181172788322e-01
    8.9446621587642294e+00 -5.9677944727387855e-01
    8.8764664303511562e+00 -6.1911613213708561e-01
    8.1090761048163262e+00 -6.9331261173309577e-01
    7.4759132456200854e+00 -8.5701989974958226e-01
    7.5980415247378961e+00 -8.7333507943905098e-01
    9.5370730479840962e+00 -6.1374593432553715e-01
    8.7298126148563941e+00 -4.9070100863509791e-01
    8.0593509846567493e+00 -6.8537052273513510e-01
    8.4040182753280721e+00 -7.1702941392836195e-01
    9.1522116223965302e+00 -5.4935825138519412e-01
    8.7038123728702281e+00 -5.5007359337991324e-01
    8.2287094941990713e+00 -6.2875130956151126e-01
    8.1783358178570680e+00 -6.5202295997682835e-01
    7.7038417754148245e+00 -6.0408836378620367e-01
    8.4589379374699831e+00 -6.0095876219991451e-01
    8.5457245784698905e+00 -5.9646209235153314e-01
    8.3695075864255575e+00 -5.8625774987412493e-01
    8.0924596076273119e+00 -5.9695346462309040e-01
    8.0885611916738913e+00 -6.5553830734935270e-01
    7.8031336483841587e+00 -6.6315773968230096e-01
    7.6911998774484394e+00 -6.5867434239834810e-01
    7.8940154385393786e+00 -6.8575484283047550e-01
    8.2946501344451971e+00 -7.5675577183380272e-01
    8.0753249272807288e+00 -8.9351857605526541e-01
    8.4260046447646388e+00 -8.3925693186738159e-01
    9.5707616367636277e+00 -6.4310216059911418e-01
    8.7692546999376066e+00 -5.3920142548496741e-01
    8.6540886782957305e+00 -6.2587254997705133e-01
    9.7185527263545097e+00 -6.5391922717054884e-01
    1.0455313393070213e+01 -5.1901755033012398e-01
    1.0275826132449318e+01 -5.3953796346332283e-01
    8.4307036386951086e+00 -5.6551503792299795e-01
    8.4259416582249678e+00 -6.2683429109579714e-01
    8.2211254550511761e+00 -6.6079438292556658e-01
    8.2841684137318552e+00 -6.1214003172407205e-01
    8.7232532645449847e+00 -5.8716989417999044e-01
    9.1284763671374858e+00 -5.4720731913553677e-01
    8.8686184409880102e+00 -5.2765488932037752e-01
    9.4748952683267387e+00 -5.8363760608934956e-01
    8.6087142154893233e+00 -5.9275689963849654e-01
    7.6377320459060964e+00 -5.9613303856114330e-01
    8.1756630814772251e+00 -6.9711785462190101e-01
    7.9020561293897451e+00 -7.7500273638170403e-01
    7.7264107716344483e+00 -9.3916923849270784e-01
    7.8404532323234202e+00 -9.0215686086776969e-01
    9.1017886299100628e+00 -6.2525954291522279e-01
    8.0763950271792169e+00 -5.1002955855398269e-01
    1.0063754656105804e+01 -5.3451523727319017e-01
    1.0960073508330625e+01 -5.6432082422993679e-01
    1.4225799455594213e+01 -4.4400848127659470e-01
    1.1730208501029722e+01 -4.5982609727347507e-01
    9.6224430573444959e+00 -5.1662132762360269e-01
    8.9031821229250152e+00 -5.5700712269648622e-01
    9.0353818612608219e+00 -6.0577761458122925e-01
    9.3300408983027996e+00 -6.0871432971912465e-01
    9.5538864660002805e+00 -5.9248909966466379e-01
    9.9581881872416975e+00 -5.7887749148533818e-01
    9.8293464999795681e+00 -5.5855171644647972e-01
    8.9015612350955564e+00 -5.3890758334469535e-01
    9.3607765680227910e+00 -5.3477698101724591e-01
    9.1382387500681101e+00 -5.1523670149390677e-01
    8.6960034025404251e+00 -5.9768731267137221e-01
    7.9588058011229332e+00 -6.8705905834963654e-01
    7.5501617108978456e+00 -8.1667244092792213e-01
    7.6476622378180554e+00 -8.6694431536562044e-01
    9.2417443487667743e+00 -6.1270907949282372e-01
    7.5979698529762327e+00 -4.8185125880198304e-01
    8.3255173185795659e+00 -4.9944543197384134e-01
    9.3970914145007320e+00 -6.0059843311582106e-01
    1.0797121309442289e+01 -4.9854625569156519e-01
    1.1605211903748062e+01 -5.1534433834713500e-01
    9.5464884902628100e+00 -5.6463316250233786e-01
    9.2811409260942757e+00 -5.9895061310619446e-01
    8.6621689177636512e+00 -5.7512480130603361e-01
    8.2788887929154171e+00 -5.7123539001104240e-01
    8.7377766192777244e+00 -5.8039909735338879e-01
    8.7581441704828435e+00 -5.8419918818189620e-01
    9.1175137159737734e+00 -5.9430010116595655e-01
    8.9953062222552020e+00 -5.8888271092128019e-01
    9.3050435017911592e+00 -5.7868198134535698e-01
    9.1508915316348851e+00 -5.5709186633613883e-01
    7.7375256909594761e+00 -5.6833892226837723e-01
    8.3192906448315362e+00 -6.9440020219849086e-01
    8.3222228580711857e+00 -8.3394212691511205e-01
    7.9748203305144880e+00 -8.4892677014436702e-01
    9.2120376049998320e+00 -6.1504748868012105e-01
    8.9789923588977079e+00 -4.8465356406524002e-01
    9.5111010839290593e+00 -4.2964255490572351e-01
    1.0435569474537393e+01 -6.0342866351526447e-01
    9.9480542952375206e+00 -5.0526399919632492e-01
    1.0675382814481024e+01 -5.1223112964135364e-01
    9.3188645873937190e+00 -5.8639475363658999e-01
    8.6296775883136512e+00 -5.8254574361173050e-01
    8.7306604994123358e+00 -5.7357351802304268e-01
    9.1759773684778256e+00 -5.8892343324045382e-01
    9.2208806610944460e+00 -5.8396854807663801e-01
    9.4698834462384358e+00 -5.8773899553326658e-01
    9.8601194670301791e+00 -5.7922260442450335e-01
    1.0465771711623370e+01 -5.7365724120777239e-01
    9.8060178344184727e+00 -5.6592172542735264e-01
    9.4941079664231456e+00 -5.5320813017392623e-01
    9.3967096754717900e+00 -5.9111086484798692e-01
    8.2429727767094931e+00 -6.3641499988909545e-01
    8.8352165492217054e+00 -7.3689810565927860e-01
    8.7344733555685821e+00 -7.5096931320860594e-01
    9.9563229741872696e+00 -5.6924462696807687e-01
    8.9996568169573976e+00 -4.6610559052575684e-01
    1.0772943563136877e+01 -3.7085658851582448e-01
    1.0284738831517497e+01 -5.0915300916150297e-01
    1.1298004445769321e+01 -4.7318088395162883e-01
    1.0479967156518892e+01 -4.8040428637408839e-01
    8.5278700925633366e+00 -5.3256683000646377e-01
    9.4123824617668745e+00 -5.6391560833314458e-01
    8.8533529514990388e+00 -5.7211673729298951e-01
    9.3184923667985533e+00 -5.9136187839458243e-01
    9.2585476694844182e+00 -5.8976746420830728e-01
    9.7915487476068161e+00 -6.2221854552062306e-01
    9.5912049517162483e+00 -5.8886655625628082e-01
    9.9984013684217370e+00 -5.6361841061473505e-01
    9.0542000700950531e+00 -5.9470594316532177e-01
    8.6124121249488645e+00 -6.0643094462549385e-01
    8.4961522764873401e+00 -6.3814083800224763e-01
    8.0273199538509115e+00 -6.6238183469443124e-01
    8.6292803067716246e+00 -7.1992299839883267e-01
    9.1467798078455225e+00 -7.4541940178707755e-01
    9.7523137355728213e+00 -5.8165124137468693e-01
    8.8195289372092276e+00 -4.8942906250029006e-01
    1.0819273076606221e+01 -3.0501930198139854e-01
    1.2426722815438987e+01 -4.1122204466282952e-01
    1.2653123065796015e+01 -3.9453006263832147e-01
    1.2314088100552564e+01 -3.7820025372032884e-01
    1.0764919836722756e+01 -4.2743848494952141e-01
    1.1537572703198480e+01 -4.3241692181747743e-01
    1.0770653885835610e+01 -4.6869185450851936e-01
    1.0574907316746462e+01 -5.0201339848268345e-01
    1.0483006876679866e+01 -5.0481083721431830e-01
    1.1051815984561619e+01 -4.8581627477904887e-01
    1.0476274612526492e+01 -5.0918247457051080e-01
    9.1612858711030043e+00 -4.6692152139563459e-01
    1.0318261276320051e+01 -5.1776007668030877e-01
    8.9204181596310637e+00 -4.9371228367694509e-01
    8.6518057666525401e+00 -4.7857696888122625e-01
    9.7757209173309700e+00 -5.2591295281595307e-01
    9.4345575151923828e+00 -5.8765182203360911e-01
    9.3210940689588355e+00 -6.3920364454634593e-01
    1.1684652074775798e+01 -4.6953549736236788e-01
    1.1406912826405703e+01 -3.7667791623125968e-01
    6.0706927751458046e+00 -6.2832564250628165e-01
    8.0584774835865538e+00 -7.0987721185060149e-01
    8.4845916529129930e+00 -6.1058505274023700e-01
    7.5341722196811700e+00 -6.3199595160994726e-01
    6.4951242204709114e+00 -6.5435837241463934e-01
    6.7996606957432784e+00 -6.7703039344387794e-01
    6.8269876637977953e+00 -6.7433320618644033e-01
    6.6825569190274479e+00 -6.7423993475751864e-01
    6.4641328597162229e+00 -6.9346862455656832e-01
    6.6281788969876283e+00 -7.1239211656024148e-01
    7.0767491784409309e+00 -7.0146129944861368e-01
    7.2189722805543823e+00 -6.9464513809885176e-01
    7.2289669869924893e+00 -6.6760866618162240e-01
    7.1790038127131819e+00 -6.3495295839687271e-01
    6.8917317765867390e+00 -6.5657703113978660e-01
    6.5982215295231388e+00 -6.8498696899351386e-01
    7.9065291621672431e+00 -7.2479779324986771e-01
    7.1504260755959610e+00 -6.4387205106513756e-01
    7.3030745260069407e+00 -6.0375372103927072e-01
    6.3690444231022161e+00 -5.3868482064363155e-01 1. 0.
    5.7238775022899961e+00 -5.8533258832531310e-01
    7.8404403955269775e+00 -5.1741689706584104e-01
    7.7827005655627675e+00 -4.8793368008008181e-01
    6.3645446586578753e+00 -6.3432413845697988e-01
    6.5110593165064250e+00 -6.8166157892168189e-01
    6.1772968516558775e+00 -6.4688683595829177e-01
    6.4154593681834795e+00 -5.9460842464896724e-01
    7.3268357749272024e+00 -5.8877134836196998e-01
    6.9340629746455527e+00 -5.7190161067814560e-01
    6.5150699609824683e+00 -5.8489048291678369e-01
    6.9686155844487727e+00 -6.2768992987834604e-01
    6.8078942911321843e+00 -6.7413815802874821e-01
    6.4434325132903636e+00 -6.7615690004438533e-01
    6.4390200566789382e+00 -7.0029522326803939e-01
    5.6512532129934456e+00 -7.6012375952919686e-01
    5.8721238045292372e+00 -8.7033296342264643e-01
    5.9456399595205269e+00 -7.7198545261497487e-01
    7.0124603823550622e+00 -5.1123042553177911e-01 1. 0.</input_scale>
  <output_scale>
    5.2631578947368418e-01 4.9999999999999994e-01 5.2631578947368418e-01
    4.9999999999999994e-01 5.2631578947368418e-01 4.9999999999999994e-01
    5.2631578947368418e-01 4.9999999999999994e-01 5.2631578947368418e-01
    4.9999999999999994e-01 5.2631578947368418e-01 4.9999999999999994e-01
    5.2631578947368418e-01 4.9999999999999994e-01 5.2631578947368418e-01
    4.9999999999999994e-01 5.2631578947368418e-01 4.9999999999999994e-01
    5.2631578947368418e-01 4.9999999999999994e-01 5.2631578947368418e-01
    4.9999999999999994e-01 5.2631578947368418e-01 4.9999999999999994e-01
    5.2631578947368418e-01 4.9999999999999994e-01 5.2631578947368418e-01
    4.9999999999999994e-01 5.2631578947368418e-01 4.9999999999999994e-01
    5.2631578947368418e-01 4.9999999999999994e-01 5.2631578947368418e-01
    4.9999999999999994e-01 5.2631578947368418e-01 4.9999999999999994e-01
    5.2631578947368418e-01 4.9999999999999994e-01 5.2631578947368418e-01
    4.9999999999999994e-01 5.2631578947368418e-01 4.9999999999999994e-01
    5.2631578947368418e-01 4.9999999999999994e-01 5.2631578947368418e-01
    4.9999999999999994e-01 5.2631578947368418e-01 4.9999999999999994e-01
    5.2631578947368418e-01 4.9999999999999994e-01 5.2631578947368418e-01
    4.9999999999999994e-01 5.2631578947368418e-01 4.9999999999999994e-01
    5.2631578947368418e-01 4.9999999999999994e-01 5.2631578947368418e-01
    4.9999999999999994e-01 5.2631578947368418e-01 4.9999999999999994e-01
    5.2631578947368418e-01 4.9999999999999994e-01</output_scale>
  <inv_output_scale>
    1.8999999999999999e+00 -9.4999999999999996e-01
    1.8999999999999999e+00 -9.4999999999999996e-01
    1.8999999999999999e+00 -9.4999999999999996e-01
    1.8999999999999999e+00 -9.4999999999999996e-01
    1.8999999999999999e+00 -9.4999999999999996e-01
    1.8999999999999999e+00 -9.4999999999999996e-01
    1.8999999999999999e+00 -9.4999999999999996e-01
    1.8999999999999999e+00 -9.4999999999999996e-01
    1.8999999999999999e+00 -9.4999999999999996e-01
    1.8999999999999999e+00 -9.4999999999999996e-01
    1.8999999999999999e+00 -9.4999999999999996e-01
    1.8999999999999999e+00 -9.4999999999999996e-01
    1.8999999999999999e+00 -9.4999999999999996e-01
    1.8999999999999999e+00 -9.4999999999999996e-01
    1.8999999999999999e+00 -9.4999999999999996e-01
    1.8999999999999999e+00 -9.4999999999999996e-01
    1.8999999999999999e+00 -9.4999999999999996e-01
    1.8999999999999999e+00 -9.4999999999999996e-01
    1.8999999999999999e+00 -9.4999999999999996e-01
    1.8999999999999999e+00 -9.4999999999999996e-01
    1.8999999999999999e+00 -9.4999999999999996e-01
    1.8999999999999999e+00 -9.4999999999999996e-01
    1.8999999999999999e+00 -9.4999999999999996e-01
    1.8999999999999999e+00 -9.4999999999999996e-01
    1.8999999999999999e+00 -9.4999999999999996e-01
    1.8999999999999999e+00 -9.4999999999999996e-01
    1.8999999999999999e+00 -9.4999999999999996e-01
    1.8999999999999999e+00 -9.4999999999999996e-01
    1.8999999999999999e+00 -9.4999999999999996e-01
    1.8999999999999999e+00 -9.4999999999999996e-01
    1.8999999999999999e+00 -9.4999999999999996e-01</inv_output_scale>
  <weights>
    <_>
      -1.1761439702883826e-03 -1.1003045346306425e-04
      5.0555537760139653e-04 -8.9754112860185818e-04
      7.4417693261889328e-04 -4.5908352276068364e-05
      7.5092685211698392e-04 5.9103267293551982e-04
      -4.6278628364865965e-04 7.1995283860514566e-04
      -9.3252553677769805e-04 -5.9154771725422150e-04
      4.7317152082282192e-04 3.2992217135987482e-04
      -1.1733839646335109e-03 -1.0870023409137953e-03
      -6.7012922564091101e-04 7.7257057362783196e-04
      -1.1530046035001121e-03 -1.1698331820897579e-03
      -7.5079525135711455e-04 1.8301974787660763e-04
      -1.1138892060507340e-04 5.0745852703379325e-04
      1.0125309809022127e-03 -1.0041260230888470e-03
      1.2228641849183514e-03 7.0666251609180660e-04
      -1.0685627651816773e-04 -9.7551899216845078e-04
      -1.8336167164252965e-04 8.7204533806791514e-04
      3.1397847405075408e-04 1.5715540245364124e-04
      -1.1568841647353724e-03 -2.1546792383776690e-04
      9.5725942933923378e-04 -5.4130469969940209e-04
      6.9742097742143342e-04 -1.5805970451168927e-04
      8.6423010183627705e-04 -3.3014876013408127e-05
      -4.8806901730084358e-04 -1.1223495213024228e-03
      2.0709779209274336e-04 4.3593442175761230e-04
      -7.2797439594156203e-04 4.9949092915692805e-04
      4.5342761173174659e-04 -1.2031502938893320e-03
      2.0496771536892823e-04 1.0562326005847280e-03
      -6.5582837065287700e-04 1.4414020588207028e-04
      -4.4118980748194013e-04 -3.4673318612074176e-04
      5.3071853828132837e-05 6.6047701976948545e-04
      -8.2801396094780489e-04 -1.1074759973776203e-03
      -1.1434552885730637e-03 -6.1035327744416595e-04
      6.7462408306068265e-04 -8.5673342218161870e-04
      -1.0537409383545114e-01 -7.0131648790554627e-02
      2.8491108626943210e-02 -2.5014553342753604e-01
      -1.0560052899387203e-01 1.0256703773296039e-01
      3.8233489390958837e-02 3.3336649338676783e-01
      -2.7597110637615091e-01 1.0701906620868906e-01
      3.2106812157723297e-01 2.2183539241336547e-01
      2.5884199283139009e-01 -5.7365878705192352e-01
      -2.9565423017132869e-01 4.4279430918390719e-02
      1.9257825487760748e-02 3.7205760586085274e-01
      -2.8126630621826237e-01 -9.3695585982927196e-02
      -1.1359627530174800e-01 2.6027063892372743e-01
      -2.2767988949390472e-01 -8.1927715309609711e-02
      1.2099600495243329e-01 2.4790526680874089e-01
      2.3667006742652830e-01 3.2414858894365750e-01
      8.9355553363490350e-03 9.3792787355875554e-02
      -1.9965668012023929e-01 -3.2788820543225972e-01
      -5.4844838536035050e-02 1.9927127062068206e-01
      -7.9187944748707426e-02 -3.1491589002360981e-01
      8.4497835719791400e-02 -4.1270212425344210e-01
      4.0217763004698487e-01 1.3576284464334173e-01
      1.1092651117173852e-01 5.6389792561043395e-01
      3.2917335711984998e-02 2.3825565377630220e-01
      2.0595079451487078e-01 -2.4143291486082097e-03
      -1.5095249735925043e-02 -1.7250759485685621e-01
      3.0235952866334220e-01 4.1502337414478080e-01
      -2.3633165215716148e-01 2.7694404858151922e-01
      1.2994404051176828e-01 2.4187588525119980e-01
      1.8947671901779231e-01 -6.2364424799885652e-02
      -4.3958388149789834e-01 1.1026286279742810e-01
      9.4899401599104871e-02 -1.5621132004483093e-01
      -2.3591606311680696e-02 -2.2500424919766093e-01
      1.0628209761170104e-01 1.9988324323401163e-01
      7.5390493896570421e-01 -8.9690820952594355e-02
      -5.3171116584172930e-02 -2.6140691045019532e-01
      6.1358937755688381e-01 -1.6794013927387802e-01
      5.4308250045632889e-02 -7.5026202874035478e-03
      -5.1189192022020380e-02 1.9575924022676988e-01
      -4.8682444770433764e-02 2.7585664173715068e-03
      -8.1417511083523478e-02 -3.8421476771743174e-01
      4.7973932974779289e-02 -2.5949156007653468e-01
      1.0488317370374613e-01 -1.5001875193692921e-01
      1.7181254208415427e-02 8.9645999428334330e-02
      -3.7085282460593266e-01 -2.8094797665426352e-01
      -1.0265621902495049e-01 -3.5295996494343129e-01
      -6.0321499681925968e-02 -2.5171983127312542e-01
      3.6507068415304872e-01 2.6651775317169041e-01
      -4.6801991094152492e-02 2.4240560665762459e-01
      4.3152680899778792e-02 2.0390356156267553e-01
      -4.2723450300421723e-01 1.7666212592066302e-01
      1.9652505146063384e-01 2.2082665352631986e-01
      -4.1681165328848685e-01 -1.1911404474606339e-01
      7.3207178029464137e-01 6.5881306358659186e-02
      3.0312053477591894e-01 5.2846249860272809e-01
      -4.4593213876592669e-01 1.3965748876142367e-01
      3.3769884062622424e-01 1.0830344826224533e-01
      -5.5786071402891235e-01 -1.0352263699604430e-01
      6.7256382322423341e-02 4.5750011094228382e-01
      -8.5832085579635176e-03 1.3802726794309281e-01
      -2.8010568348230708e-01 1.2219335168226232e-01
      1.9129507719730751e-01 -3.3950799465584003e-01
      -4.2244061543834177e-01 -6.2189045512393605e-02
      2.9492408842585432e-01 -2.1933009895532815e-01
      -3.9445741602334583e-01 1.1678198409344347e-01
      -2.2213300698720045e-01 4.9643169322580546e-02
      5.1975035883510012e-01 2.2016189606059913e-01
      9.4828462132137192e-02 1.3096216194526569e-01
      4.6888129316930466e-01 -8.2372879987978459e-02
      -7.5515689446121581e-02 2.2531384630476881e-01
      -3.6453599684571042e-01 -1.5268712644320406e-01
      -1.5043062066035458e-02 -3.9168903780100167e-01
      -6.9168058200072588e-02 -4.3058930326423089e-01
      -5.2778172345068937e-02 -4.4981946465730345e-02
      4.7139472269172794e-01 -3.2424317970039800e-02
      -1.2386622151111856e-01 -4.8962000843233738e-02
      1.6439474858238837e-02 -2.6628437189167614e-01
      2.9167861005263318e-01 -3.8384938118291234e-01
      -1.5782541437754458e-01 -1.5267005331784814e-01
      2.9091458709698492e-01 4.8675780389989909e-01
      -7.7580287260272163e-02 1.6434279703523180e-01
      2.5170090709355059e-01 -8.4869304283237273e-02
      -4.7573910669419661e-01 1.0896901326999520e-01
      2.0270736541133344e-01 -3.8302424986334033e-01
      -3.5256462958373325e-01 -3.4787231390909690e-01
      3.7608542905677483e-01 -2.8003288452052088e-02
      1.3523011996206491e-01 8.1525979459497921e-01
      4.5243166080331444e-02 1.5168322282172725e-01
      2.1311428780901190e-01 6.3336916863818371e-02
      -2.4889099415826305e-01 2.4695407842536310e-01
      -3.3040056673160949e-02 5.5970754243931831e-01
      -1.5733259039454514e-01 -2.0671557967023545e-02
      2.7555272457571004e-02 3.4836101561929012e-02
      5.2258586567760001e-02 -4.6531675681692453e-01
      -2.6808802876281196e-01 -2.3545325959730262e-01
      1.2256198969051997e-01 -1.9920428466228082e-01
      -2.7101467279346803e-01 1.5072336449520096e-01
      -5.0450208818381048e-01 -3.0800637097994332e-01
      6.3222560659244764e-01 2.3277868943329416e-01
      1.1409475506363538e-01 1.9322488362056767e-01
      -1.4484790747427478e-01 -1.1034779601999097e-01
      -1.9222912968631814e-01 1.2234477605410819e-01
      -4.6199338645136145e-01 -1.5774053296344343e-01
      7.0522358690974507e-02 -2.5581012736610570e-01
      2.0026076411438765e-02 -8.9968332233281521e-03
      -6.5904059085033953e-02 1.4354253539933462e-01
      4.3765647052054385e-01 5.7260658362525019e-01
      -6.6599974610088775e-01 1.7825048395193072e-01
      -1.3785945218656373e-01 2.4859057908206422e-01
      4.4001018203091324e-01 -9.0365243730916825e-02
      -1.3015816724815230e-01 -5.3618669237804973e-03
      3.0055872043239995e-01 2.9369293854120804e-01
      -7.8937196471988408e-02 5.6286984924531498e-02
      2.4546865228416755e-02 -2.9481330089686225e-01
      -2.5365682529593836e-01 1.5842491223840613e-01
      -2.6766811885050808e-02 -2.6482621651493277e-01
      -1.3356482846120649e-01 -5.3898770869698631e-01
      3.1298907285591415e-01 -1.2307009575482675e-01
      1.9824606445661330e-01 8.7193305965901791e-01
      1.8456299372870977e-01 3.2697512492375153e-02
      1.5720181563352040e-01 2.8202707225255091e-01
      -1.9229507381422035e-04 2.5965593722123093e-02
      -2.5324607368365115e-02 4.8088432242235973e-01
      4.1718002450964180e-02 1.2118758819572008e-01
      3.1270574153465536e-01 3.5934281151993674e-01
      4.3782630497892977e-01 -1.6052357524410377e-01
      1.7760584039177429e-01 -5.8197071876715883e-02
      3.3286609604186351e-01 -1.8284485394236080e-01
      -1.8630381159185769e-01 -4.2374919560922326e-02
      -1.4767551571468288e-01 -9.0258127835781771e-02
      -2.5138704772534110e-01 -1.3709869152393689e-01
      6.4554740178995118e-01 5.1495532381668618e-01
      2.5507435346415192e-01 1.8852026354602278e-01
      -1.6024569732651650e-01 5.4075486710400766e-01
      -1.5113876335789961e-01 -6.3825422043466570e-02
      2.9076414104916937e-01 -2.1392926972248816e-01
      -2.3292222806187290e-01 -6.8732296720038041e-02
      3.1946788958570099e-01 -5.0845492219245148e-01
      3.7745259403613074e-01 1.5690398840722578e-01
      -7.3250585459083262e-01 5.4011994865687885e-01
      1.0743076933268434e-02 -4.2273123843916899e-03
      -1.7486650274206806e-02 -2.3363073936403586e-01
      -2.9201129864853868e-02 -2.0225235769127253e-01
      2.0773607464672203e-01 4.2011431971262586e-01
      -7.1670592064618899e-01 -1.5048796201675316e-01
      1.6018691864355117e-01 -3.1578898358444470e-02
      -2.1707994092192945e-01 -2.8907556099945719e-02
      -5.3202334738590193e-02 -2.8855589508308588e-01
      -2.7819939517277598e-01 -3.6453609489746081e-01
      -2.7808570055724700e-02 -6.2066797636955262e-01
      5.6769587178025893e-01 8.9891166938783879e-02
      6.5460949298769472e-02 1.5416185812880684e-01
      3.7859727246980845e-01 -1.6381258542423602e-01
      1.4526216725667337e-01 2.7610574356325090e-01
      -3.4500469540005824e-01 1.9338645169151136e-01
      -2.8315563106623226e-01 1.5248791519807198e-01
      2.8263091461077866e-01 -3.5229506653236592e-01
      6.8568283446933456e-02 -1.3344613644396255e-01
      7.4361915969239578e-02 -5.2988475323678140e-02
      6.2580486521515502e-02 -1.9162099526320192e-01
      -1.0906473554630426e-01 -1.3110585844620626e-01
      -2.6132596581183720e-01 -2.2223947771151170e-01
      -1.4354025082661440e-01 2.6672672799040015e-01
      3.3098551856855007e-01 2.4173833782825740e-01
      1.2275931779936063e-01 2.8216616261515232e-01
      -2.3945246117594002e-01 4.8686400039185629e-01
      4.1180674926085098e-02 -1.0255783060023603e-02
      2.5766686173198518e-02 -1.8369379977261255e-01
      4.1726952815082263e-02 1.4538609217592200e-02
      -3.3635965710466911e-02 -3.0659346819198213e-01
      2.5871349607242039e-01 -1.7929240433642987e-01
      -3.3923420504897073e-01 -2.2978431434919511e-01
      3.6882430502018965e-01 -2.2681842533337296e-01
      -2.4495186981878039e-02 -1.6828350735291223e-01
      1.9662029257413691e-01 9.1281026059795781e-03
      -1.2342957854443777e-01 -8.1331075244026441e-02
      -5.4463663737776868e-01 -1.5511161046138625e-01
      2.2406539268307488e-01 1.5948977952387422e-01
      -2.0080587585056396e-02 -1.9183581352043111e-01
      1.6681473283258899e-01 9.9711999775671259e-02
      1.4262264217897783e-01 -3.1985057076104506e-01
      -7.2580733854202717e-01 2.7933684587185742e-01
      1.2984832021057577e-01 1.1416015519917283e-01
      2.3254738890419691e-01 -6.0045461552122081e-01
      7.0174946041179187e-01 2.2055555865264559e-02
      -5.4933319694023916e-02 1.2409632538679634e-01
      -2.3202684767061307e-01 1.7372765660861361e-01
      -1.5916474333761671e-02 -2.2034369431934892e-01
      9.0184568070919915e-02 -8.8885398304547558e-02
      -1.5623951474057535e-01 1.2175251569606792e-01
      -1.2750134899931542e-01 -3.3933237069635191e-02
      -1.4945837363661782e-01 -2.0239443704439106e-01
      -2.2126033841194381e-01 -3.8030123120426479e-01
      1.0196076193698370e-02 -7.4192271973845356e-02
      3.4583676625349324e-01 1.0607307870865663e-01
      5.8934733078609458e-01 2.1697052044351373e-01
      -2.6122577761243323e-02 -8.8200263163711240e-02
      1.0584047930429110e-04 7.5651285738685181e-01
      -1.6871088922435266e-02 5.2028513682266453e-01
      -2.2825827494520515e-01 -9.4652774004013979e-02
      -2.4643716460554230e-01 1.6005863349646310e-01
      2.2178173831973899e-01 -9.7978007283306398e-02
      -5.6639942017717076e-02 -3.2965435401743313e-02
      -6.7151490324441787e-01 -1.7266708048796114e-01
      3.7701072683981635e-01 1.6178039714998907e-01
      1.5142786718607648e-01 -1.5050510854882310e-01
      2.0762371601864457e-01 6.8626961017610677e-02
      -1.4689091809008681e-01 -2.4344623145370151e-01
      -2.6388708241324788e-01 -1.7901042847605037e-01
      -1.3056808946034334e-02 2.0442381192932224e-01
      1.1992011681995754e-02 2.1590967031626954e-02
      -2.2593686740740163e-01 9.6895332063291906e-01
      3.0368883022065513e-01 -2.2048779393525172e-01
      -4.5674070944080519e-01 8.5224937381804033e-02
      -3.8409790520094994e-01 -1.8783900800007899e-01
      2.8048922765172146e-01 -5.5455241608044081e-01
      3.0942116688063143e-01 1.9358162252702427e-01
      -2.5217302255806445e-01 -1.0205279939399683e-01
      -7.3451642352920857e-02 3.5567881997028106e-01
      1.3522936925246223e-01 2.7598834097574538e-02
      1.4499364948355092e-01 -1.4517654491431636e-01
      -4.9992554404215206e-01 5.1318555156110690e-01
      -4.2157575798281216e-01 5.3932212564255351e-02
      -3.3907626966153509e-01 3.4485615034796809e-02
      -1.9051584539400274e-01 -3.4816221431881311e-01
      2.0424447073896368e-01 6.9924564937826311e-02
      -2.4334595263772529e-01 -2.2463330805159357e-01
      2.3422163488525388e-01 4.5287585971560113e-01
      -2.8227656021536193e-02 1.6293978087149022e-01
      2.2243111839944629e-01 3.6086951449928018e-01
      -2.6232358514342295e-02 3.8446138800859286e-02
      -4.0831149721751431e-01 3.1875914109813547e-01
      -4.7730506894762603e-01 -2.2666393056570963e-01
      -4.4747787751778574e-02 2.5856091455214086e-01
      -3.4395604112531619e-01 8.7616989037675938e-03
      -7.1628337390424610e-02 -2.8049032347965987e-02
      5.6117708310890402e-01 -3.1330341681210599e-01
      1.7796139398415392e-01 -2.5720110181708727e-01
      4.0444695376966329e-02 -1.0837692823931218e-01
      -3.1940745654249020e-01 1.3666575095674185e-01
      -1.7580650124511057e-01 2.6846192881416459e-01
      -6.8451073288461770e-02 5.7286177924678515e-02
      -1.1261665570696662e-01 -2.2602865015219864e-01
      1.0760234119768350e-01 3.3561457046623550e-01
      7.8172091614970088e-02 1.2369503437371768e-01
      -4.1489686991057334e-01 -1.9444560872861183e-01
      -2.0531002998338715e-01 -3.8798292260229250e-01
      7.5581636751136216e-02 -6.8492223719473366e-01
      6.5524326105418224e-02 3.8531766009144591e-01
      -1.3392328608251020e-01 -1.2666731579292667e-01
      -1.5470508740609437e-01 -3.7520710979283434e-01
      -1.5212092896013693e-01 2.4306056152716979e-01
      1.3363018615777728e-01 -3.3337655345836339e-02
      -2.2388097492988657e-01 4.8793232493477690e-01
      -1.5996834985118663e-01 1.9298030987272619e-01
      -1.7467732234087766e-02 -2.8033270992866516e-01
      1.0679637519249177e-01 -2.4946790454803661e-01
      -2.4787964069911925e-01 -1.4978631911299023e-01
      -4.0694377841814316e-01 -3.7642973079039627e-01
      -1.3136848206414456e-01 1.3478415215792738e-01
      -2.1813697587304648e-01 2.8818255121062408e-01
      2.0107720162799891e-01 1.1212877774098760e-02
      5.8341634546449465e-02 -1.6812466474491711e-01
      -6.3749321561123562e-01 4.3287983186599732e-01
      -9.4074580933327073e-02 -8.0569559447210587e-02
      -4.0659065533378791e-01 2.4274200121239761e-01
      -2.8457469201689417e-01 4.0437368186514483e-01
      3.0429708848700197e-02 -1.8011002194404566e-01
      6.6504455995830852e-02 -5.8947712504319671e-01
      7.7185994312556447e-02 -2.3226671333319943e-01
      -6.1109099411920803e-02 9.2134743680377662e-02
      -1.0068592262113316e-01 4.1304634594829875e-01
      -2.0706506553138587e-01 3.5668917148784729e-01
      -2.0174233481653356e-01 5.6224166886311444e-01
      1.0595011192834702e-01 -5.4385178851614278e-02
      2.7024691168869491e-01 2.5580774280997948e-01
      1.8213752527575244e-01 3.6617058899571614e-01
      -7.3040029280508498e-02 -2.4429916624125819e-01
      -4.5759262103413539e-01 -2.7884682849203801e-01
      -3.7092176410070038e-02 -6.6588241576854001e-01
      -1.5529179135808804e-01 2.1739442203977602e-01
      -1.1197782190346381e-01 -3.3306441889804933e-01
      4.0432347520786498e-02 -3.4070787761398336e-01
      5.7152887471349123e-01 2.0727242345259989e-01
      2.9117369946718041e-01 4.8168902478517778e-01
      1.8295461765397306e-01 3.5818598046176015e-01
      5.5952787884808863e-01 3.1056580122883071e-01
      1.7787476783211303e-01 1.1815458835020018e-01
      2.2667648967011181e-01 5.9310246348910592e-02
      2.3253229840531686e-01 -2.1654966699110192e-01
      1.2864166953118542e-01 -1.0359212353011645e-01
      -2.6355703631133992e-01 1.6242898539731243e-01
      -1.6912124827646322e-01 -3.0939784314356806e-02
      2.1304836971060251e-01 2.6223510552019446e-02
      -1.6197498016963366e-01 2.4805444526336873e-02
      -5.3688073399369807e-01 3.6192901223597573e-01
      5.9954498837758552e-02 -1.6138642734480263e-02
      -3.4142605609255150e-01 4.6264976464278496e-01
      -2.1474846118112750e-01 4.2507031890098251e-01
      1.5142478518328203e-01 2.0099686957068122e-01
      -5.2922893708454299e-01 -7.1293766289744298e-01
      4.8526224029432491e-01 -3.5267711989830891e-02
      -1.9200650407063100e-01 4.0945662645671216e-01
      2.1743152717770864e-01 5.4754683538889037e-01
      8.4053053439818309e-02 3.7777336584687382e-01
      -1.2705337052522858e-01 -1.1030741363950759e-03
      5.0073454107063604e-02 1.6941149178652246e-01
      -6.5230290213859926e-02 2.2527693313245489e-01
      1.2802973431070153e-01 4.3914849719458177e-01
      3.3127594251221404e-01 -3.0317131501533506e-01
      4.9494720075107012e-03 1.9818204584196797e-01
      1.4393992793772039e-02 -7.7999017886404531e-01
      -4.5072109217414524e-01 3.2857667154072442e-04
      -2.8785265390025953e-02 9.3250882613035060e-02
      3.1882893942766499e-01 -6.3289244341593262e-02
      7.4314245491628583e-01 -4.3483908516004054e-02
      3.4093555101622636e-01 5.6810888927867242e-01
      1.1909842283944955e-01 2.8713540975626889e-01
