<?xml version="1.0"?>
<opencv_storage>
<opencv_ml_svm>
  <format>3</format>
  <svmType>C_SVC</svmType>
  <kernel>
    <type>RBF</type>
    <gamma>1.0000000000000001e-05</gamma></kernel>
  <C>1.2500000000000000e+01</C>
  <term_criteria><iterations>20000</iterations></term_criteria>
  <var_count>172</var_count>
  <class_count>2</class_count>
  <class_labels type_id="opencv-matrix">
    <rows>2</rows>
    <cols>1</cols>
    <dt>i</dt>
    <data>
      0 1</data></class_labels>
  <sv_total>197</sv_total>
  <support_vectors>
    <_>
      114. 98. 81. 66. 55. 49. 51. 59. 63. 69. 67. 72. 78. 85. 83. 75.
      61. 58. 64. 82. 80. 78. 65. 54. 48. 55. 68. 64. 65. 67. 50. 47.
      66. 78. 88. 92. 1. 16. 35. 32. 26. 10. 2. 2. 2. 2. 2. 2. 2. 1. 1.
      2. 3. 27. 36. 36. 36. 33. 29. 20. 16. 11. 15. 19. 23. 17. 9. 16.
      21. 25. 29. 30. 24. 7. 9. 9. 14. 24. 25. 22. 20. 17. 16. 18. 24.
      28. 30. 24. 20. 17. 18. 19. 25. 29. 22. 7. 7. 8. 16. 25. 27. 26.
      21. 21. 20. 12. 16. 19. 24. 29. 21. 11. 7. 8. 22. 23. 24. 24. 27.
      22. 9. 10. 12. 21. 30. 28. 23. 18. 18. 17. 16. 18. 19. 17. 15. 14.
      15. 14. 19. 22. 32. 24. 12. 12. 12. 25. 28. 28. 25. 21. 22. 18.
      17. 21. 26. 30. 28. 21. 10. 7. 6. 17. 20. 20. 19. 15. 10. 6. 15.
      22. 28. 26.</_>
    <_>
      109. 98. 68. 55. 41. 38. 45. 58. 64. 68. 67. 72. 71. 70. 78. 78.
      76. 78. 73. 69. 72. 78. 79. 84. 89. 90. 86. 76. 75. 76. 73. 78.
      78. 81. 74. 61. 27. 11. 14. 17. 17. 14. 12. 22. 21. 14. 11. 12.
      17. 19. 29. 35. 35. 36. 20. 6. 4. 5. 9. 25. 26. 25. 21. 25. 27.
      19. 9. 8. 10. 14. 33. 35. 30. 17. 11. 9. 15. 21. 23. 19. 17. 17.
      14. 19. 22. 16. 18. 14. 11. 11. 15. 17. 20. 20. 18. 20. 23. 30.
      27. 24. 19. 17. 21. 28. 21. 7. 4. 4. 6. 23. 32. 33. 29. 18. 16.
      25. 28. 27. 24. 18. 15. 13. 15. 18. 20. 19. 18. 19. 18. 16. 12.
      14. 16. 22. 33. 32. 30. 30. 25. 31. 29. 22. 15. 7. 12. 13. 13. 25.
      26. 27. 25. 23. 23. 27. 30. 29. 19. 13. 11. 10. 16. 18. 16. 15.
      18. 16. 15. 14. 17. 18. 19. 27.</_>
    <_>
      51. 115. 116. 118. 110. 87. 82. 82. 69. 63. 60. 64. 63. 63. 70.
      69. 63. 62. 58. 59. 69. 70. 78. 78. 77. 75. 70. 63. 62. 63. 59.
      67. 69. 70. 70. 83. 6. 14. 20. 25. 30. 36. 36. 36. 36. 36. 36. 36.
      22. 2. 31. 22. 5. 1. 5. 8. 10. 13. 17. 4. 10. 16. 15. 20. 25. 28.
      3. 6. 7. 8. 23. 22. 23. 19. 18. 13. 17. 23. 30. 30. 19. 16. 14.
      15. 25. 32. 27. 7. 5. 5. 12. 12. 15. 16. 12. 8. 17. 20. 34. 29.
      25. 21. 21. 19. 6. 12. 22. 22. 17. 14. 19. 22. 27. 32. 33. 26. 22.
      14. 19. 18. 7. 13. 13. 18. 25. 23. 21. 24. 21. 33. 19. 12. 12. 15.
      23. 20. 15. 14. 19. 12. 11. 9. 23. 26. 27. 9. 7. 8. 23. 16. 13.
      17. 22. 6. 7. 8. 16. 31. 7. 9. 36. 36. 36. 36. 36. 36. 36. 36. 34.
      34. 27. 16.</_>
    <_>
      6. 95. 97. 101. 99. 63. 54. 50. 52. 64. 66. 64. 75. 73. 75. 69.
      61. 57. 60. 69. 70. 70. 70. 66. 62. 56. 70. 89. 101. 118. 132.
      129. 128. 43. 32. 30. 19. 18. 18. 13. 9. 10. 10. 10. 10. 10. 10.
      10. 10. 10. 10. 10. 10. 1. 2. 32. 28. 11. 11. 22. 13. 13. 14. 22.
      23. 21. 21. 24. 32. 32. 14. 10. 8. 23. 24. 24. 22. 20. 16. 19. 22.
      32. 32. 30. 28. 28. 31. 32. 32. 21. 13. 10. 15. 21. 23. 21. 15.
      10. 13. 21. 32. 34. 33. 21. 17. 16. 17. 18. 19. 19. 17. 17. 23.
      29. 33. 32. 29. 28. 28. 28. 7. 7. 7. 28. 28. 28. 28. 31. 32. 32.
      32. 31. 31. 33. 8. 7. 7. 32. 32. 32. 32. 33. 33. 30. 16. 11. 12.
      19. 21. 20. 18. 10. 11. 19. 32. 32. 6. 2. 10. 9. 9. 9. 9. 9. 9. 9.
      9. 9. 9. 9. 19. 19.</_>
    <_>
      133. 115. 75. 103. 108. 106. 107. 70. 52. 41. 33. 33. 35. 55. 62.
      56. 60. 56. 59. 58. 64. 69. 71. 68. 65. 51. 48. 50. 51. 44. 58.
      71. 58. 39. 33. 94. 36. 36. 24. 15. 17. 20. 20. 15. 4. 3. 3. 3. 8.
      15. 15. 11. 11. 14. 22. 23. 26. 32. 32. 32. 30. 23. 17. 12. 9. 12.
      15. 15. 10. 9. 9. 15. 20. 27. 33. 32. 32. 25. 23. 20. 26. 30. 31.
      22. 13. 7. 6. 5. 10. 14. 14. 14. 12. 11. 12. 15. 17. 24. 32. 27.
      26. 28. 29. 26. 24. 10. 10. 8. 8. 11. 30. 30. 30. 25. 26. 31. 25.
      9. 8. 8. 8. 8. 20. 20. 21. 20. 20. 9. 9. 10. 12. 28. 30. 30. 15.
      4. 4. 5. 9. 11. 12. 13. 15. 13. 7. 7. 13. 14. 23. 27. 21. 10. 10.
      9. 13. 19. 24. 22. 23. 23. 13. 8. 8. 10. 12. 7. 13. 1. 1. 26. 36.
      36.</_>
    <_>
      85. 66. 54. 57. 63. 66. 67. 69. 75. 83. 86. 64. 58. 58. 57. 59.
      58. 60. 64. 63. 66. 62. 58. 53. 55. 52. 48. 46. 45. 52. 68. 74.
      93. 94. 96. 101. 35. 25. 12. 6. 6. 10. 19. 21. 8. 6. 10. 22. 25.
      25. 25. 25. 25. 27. 24. 22. 12. 6. 7. 12. 16. 15. 9. 13. 14. 23.
      21. 28. 35. 32. 22. 5. 2. 1. 3. 4. 14. 15. 17. 13. 11. 10. 18. 28.
      23. 16. 11. 10. 13. 19. 20. 13. 16. 19. 20. 30. 27. 11. 8. 6. 15.
      24. 27. 22. 15. 17. 19. 12. 7. 7. 9. 30. 36. 36. 28. 16. 13. 10.
      12. 18. 19. 18. 16. 16. 11. 9. 13. 16. 24. 33. 31. 24. 20. 16. 16.
      16. 8. 12. 13. 17. 14. 13. 14. 12. 12. 16. 20. 31. 32. 32. 23. 14.
      11. 6. 2. 8. 9. 12. 13. 14. 12. 6. 9. 16. 24. 35. 36. 36. 36. 23.
      31. 36.</_>
    <_>
      124. 15. 13. 9. 58. 118. 78. 59. 49. 45. 43. 56. 66. 73. 73. 60.
      56. 56. 53. 56. 58. 60. 62. 61. 51. 48. 52. 60. 84. 110. 34. 26.
      23. 31. 93. 132. 25. 27. 27. 26. 27. 29. 31. 34. 36. 9. 2. 2. 8.
      23. 18. 10. 4. 5. 8. 7. 7. 5. 6. 9. 12. 18. 26. 28. 28. 8. 6. 6.
      7. 6. 18. 20. 22. 24. 11. 11. 12. 14. 15. 20. 29. 23. 20. 22. 23.
      27. 27. 22. 11. 8. 6. 6. 8. 14. 16. 13. 9. 6. 8. 11. 18. 27. 28.
      7. 5. 5. 7. 16. 19. 18. 19. 17. 6. 5. 6. 7. 7. 28. 28. 21. 16. 15.
      13. 12. 12. 11. 11. 10. 8. 11. 12. 18. 21. 29. 23. 20. 19. 16. 15.
      15. 15. 15. 12. 10. 10. 11. 18. 22. 24. 27. 21. 19. 20. 22. 21.
      15. 9. 5. 4. 4. 7. 14. 12. 8. 9. 10. 10. 27. 36. 35. 34. 32.</_>
    <_>
      69. 71. 59. 66. 62. 58. 61. 68. 68. 73. 81. 84. 88. 88. 81. 65.
      65. 58. 58. 65. 76. 76. 79. 85. 79. 83. 81. 77. 69. 67. 60. 56.
      46. 47. 52. 57. 16. 4. 2. 20. 26. 26. 17. 11. 10. 15. 17. 8. 12.
      17. 20. 21. 21. 21. 16. 16. 29. 31. 24. 12. 7. 5. 10. 24. 25. 25.
      26. 24. 25. 20. 18. 17. 21. 21. 18. 17. 18. 16. 12. 13. 14. 21.
      20. 24. 16. 12. 12. 13. 16. 16. 19. 19. 14. 15. 10. 11. 14. 18.
      29. 30. 28. 24. 10. 9. 12. 19. 22. 22. 23. 21. 20. 12. 15. 17. 27.
      29. 31. 26. 14. 1. 3. 16. 20. 25. 23. 24. 27. 24. 20. 5. 0. 7. 22.
      30. 30. 27. 22. 15. 8. 11. 17. 22. 25. 22. 19. 14. 4. 10. 15. 28.
      33. 31. 32. 30. 20. 15. 13. 17. 18. 18. 18. 16. 18. 18. 15. 18.
      24. 34. 23. 17. 8. 8.</_>
    <_>
      53. 57. 58. 63. 68. 61. 61. 62. 64. 61. 60. 68. 70. 75. 72. 68.
      66. 63. 58. 53. 55. 56. 60. 58. 62. 62. 58. 56. 51. 44. 36. 28.
      19. 19. 23. 84. 10. 25. 26. 25. 25. 21. 16. 25. 31. 24. 22. 21.
      16. 6. 3. 0. 0. 0. 29. 31. 30. 30. 12. 10. 8. 9. 13. 17. 21. 36.
      36. 36. 35. 16. 6. 2. 3. 6. 5. 4. 0. 0. 0. 5. 5. 6. 6. 6. 10. 23.
      28. 31. 33. 31. 20. 15. 11. 6. 1. 1. 1. 1. 1. 1. 1. 7. 31. 33. 32.
      32. 31. 24. 1. 1. 1. 1. 1. 1. 1. 4. 16. 20. 24. 28. 26. 24. 23.
      19. 17. 18. 18. 13. 11. 7. 0. 0. 1. 4. 16. 23. 26. 31. 29. 28. 26.
      24. 22. 20. 17. 14. 11. 7. 1. 1. 1. 5. 10. 15. 16. 21. 17. 16. 15.
      18. 19. 19. 22. 19. 13. 2. 0. 0. 1. 33. 36. 34.</_>
    <_>
      14. 47. 86. 102. 80. 29. 68. 97. 111. 92. 59. 50. 46. 53. 65. 66.
      58. 50. 46. 44. 46. 58. 62. 68. 78. 76. 76. 81. 90. 98. 97. 51.
      46. 46. 79. 113. 11. 16. 17. 16. 15. 14. 11. 10. 10. 10. 10. 11.
      11. 11. 21. 35. 35. 35. 35. 35. 35. 35. 34. 5. 4. 27. 21. 9. 8.
      10. 10. 11. 8. 12. 20. 23. 29. 26. 9. 9. 9. 16. 16. 16. 16. 17.
      17. 20. 27. 27. 22. 21. 22. 27. 16. 6. 7. 8. 20. 19. 16. 13. 15.
      16. 18. 26. 27. 11. 10. 9. 16. 18. 16. 14. 12. 14. 18. 28. 28. 11.
      9. 9. 24. 25. 23. 25. 9. 10. 13. 29. 28. 20. 22. 18. 18. 21. 16.
      10. 9. 10. 28. 29. 26. 16. 15. 13. 14. 15. 14. 9. 8. 11. 24. 5. 6.
      19. 36. 36. 36. 36. 36. 36. 36. 34. 19. 11. 10. 9. 8. 9. 9. 12.
      14. 15. 16. 11.</_>
    <_>
      73. 61. 54. 43. 41. 68. 73. 81. 80. 80. 85. 79. 70. 71. 59. 60.
      57. 54. 58. 71. 73. 78. 79. 79. 78. 76. 73. 73. 76. 75. 78. 67.
      52. 53. 60. 67. 29. 17. 13. 7. 9. 7. 12. 16. 21. 9. 4. 5. 21. 25.
      25. 35. 36. 36. 15. 0. 0. 0. 3. 28. 27. 19. 17. 25. 27. 25. 1. 4.
      7. 9. 33. 36. 36. 35. 26. 13. 7. 1. 17. 35. 36. 18. 8. 5. 3. 4.
      25. 27. 24. 14. 22. 22. 21. 2. 3. 4. 14. 36. 36. 33. 28. 22. 15.
      21. 28. 26. 15. 10. 6. 4. 13. 18. 23. 25. 27. 31. 31. 33. 30. 22.
      15. 12. 9. 13. 16. 18. 17. 19. 18. 17. 12. 14. 15. 21. 30. 35. 36.
      15. 10. 7. 7. 20. 21. 21. 21. 21. 20. 18. 10. 10. 11. 15. 29. 27.
      27. 20. 17. 15. 11. 10. 9. 12. 15. 16. 16. 16. 14. 9. 12. 16. 27.
      35.</_>
    <_>
      75. 5. 43. 66. 76. 60. 62. 53. 44. 46. 50. 67. 65. 71. 69. 73. 72.
      72. 65. 59. 67. 70. 82. 76. 77. 76. 80. 66. 61. 59. 67. 71. 67.
      68. 51. 13. 36. 1. 0. 6. 18. 14. 6. 8. 10. 21. 14. 11. 15. 21. 24.
      25. 25. 22. 22. 23. 33. 33. 28. 15. 10. 10. 17. 25. 23. 20. 23.
      19. 17. 10. 11. 12. 16. 23. 16. 9. 11. 16. 16. 14. 20. 20. 22. 16.
      10. 7. 7. 9. 11. 14. 11. 14. 14. 13. 11. 16. 19. 23. 25. 22. 22.
      18. 15. 12. 12. 14. 16. 13. 13. 12. 11. 7. 6. 8. 14. 24. 24. 24.
      19. 19. 14. 18. 21. 16. 12. 10. 5. 7. 13. 20. 16. 23. 18. 30. 31.
      23. 5. 3. 2. 20. 20. 18. 24. 25. 25. 22. 8. 8. 8. 17. 32. 32. 32.
      22. 15. 11. 14. 20. 22. 24. 21. 21. 17. 8. 10. 14. 18. 26. 12. 0.
      2. 33.</_>
    <_>
      10. 32. 81. 99. 89. 67. 62. 61. 53. 57. 72. 70. 77. 77. 76. 74.
      69. 71. 58. 59. 58. 58. 42. 57. 64. 67. 76. 73. 75. 75. 74. 63.
      61. 65. 69. 76. 19. 17. 15. 15. 15. 12. 15. 15. 16. 16. 10. 0. 0.
      0. 21. 34. 26. 15. 13. 11. 9. 10. 13. 16. 7. 6. 7. 20. 22. 21. 32.
      35. 31. 26. 17. 15. 14. 9. 14. 15. 9. 8. 8. 12. 15. 22. 26. 26.
      21. 23. 20. 21. 19. 30. 28. 19. 17. 14. 12. 14. 15. 15. 15. 14.
      14. 14. 16. 17. 19. 33. 33. 31. 3. 3. 3. 4. 19. 19. 18. 20. 19.
      19. 18. 16. 15. 18. 24. 29. 21. 8. 10. 32. 34. 3. 3. 3. 2. 19. 34.
      34. 27. 29. 19. 14. 18. 12. 16. 24. 23. 19. 15. 11. 8. 6. 16. 21.
      25. 28. 29. 35. 35. 24. 20. 16. 14. 16. 17. 15. 15. 15. 14. 12.
      15. 21. 23. 26.</_>
    <_>
      55. 23. 127. 83. 64. 61. 59. 64. 60. 64. 67. 68. 71. 67. 63. 58.
      58. 63. 72. 69. 62. 58. 61. 66. 66. 65. 65. 87. 68. 72. 47. 21.
      23. 63. 120. 128. 13. 31. 36. 35. 8. 13. 29. 21. 11. 10. 15. 8.
      11. 17. 12. 10. 14. 11. 13. 18. 19. 22. 17. 18. 18. 16. 14. 13.
      13. 10. 15. 18. 16. 17. 21. 26. 28. 34. 32. 28. 20. 6. 3. 6. 4.
      13. 24. 21. 5. 5. 5. 22. 21. 19. 18. 14. 12. 12. 17. 22. 27. 24.
      20. 24. 26. 13. 9. 10. 18. 19. 16. 13. 14. 19. 14. 9. 15. 23. 26.
      25. 24. 10. 9. 6. 18. 24. 20. 14. 15. 24. 21. 7. 9. 12. 24. 29.
      28. 21. 21. 22. 21. 19. 18. 19. 21. 20. 19. 17. 14. 16. 19. 25.
      24. 19. 19. 17. 19. 12. 18. 17. 19. 17. 15. 16. 11. 12. 15. 20.
      30. 30. 4. 4. 32. 36. 19. 13.</_>
    <_>
      81. 78. 59. 47. 42. 38. 37. 40. 39. 41. 48. 49. 50. 55. 70. 79.
      84. 83. 84. 80. 68. 59. 52. 50. 44. 44. 42. 43. 47. 48. 54. 56.
      69. 77. 82. 75. 0. 0. 0. 17. 36. 36. 36. 36. 33. 6. 4. 4. 4. 4. 5.
      7. 9. 36. 36. 36. 36. 35. 19. 4. 0. 0. 0. 0. 0. 0. 0. 0. 0. 3. 36.
      36. 36. 36. 36. 22. 14. 12. 11. 11. 12. 12. 12. 11. 11. 9. 5. 4.
      1. 0. 0. 8. 16. 21. 25. 29. 24. 24. 24. 24. 21. 19. 15. 16. 18.
      21. 17. 15. 12. 0. 0. 0. 1. 23. 26. 27. 28. 27. 19. 15. 13. 13.
      13. 13. 14. 16. 26. 24. 22. 16. 0. 0. 0. 0. 9. 18. 22. 27. 32. 28.
      26. 24. 21. 19. 17. 17. 16. 18. 17. 13. 8. 0. 0. 0. 0. 4. 17. 23.
      27. 24. 25. 25. 21. 19. 17. 15. 15. 17. 19. 17. 14. 9.</_>
    <_>
      130. 117. 31. 11. 7. 62. 105. 62. 66. 39. 32. 32. 56. 71. 67. 70.
      68. 60. 46. 56. 65. 71. 76. 75. 61. 62. 66. 61. 61. 61. 80. 67.
      104. 40. 9. 85. 13. 3. 2. 25. 27. 10. 9. 7. 11. 16. 15. 5. 5. 4.
      13. 15. 11. 14. 22. 27. 28. 10. 8. 7. 7. 23. 23. 20. 21. 17. 13.
      12. 13. 17. 21. 31. 22. 11. 10. 6. 6. 5. 14. 25. 21. 7. 9. 10. 13.
      23. 23. 18. 25. 25. 23. 9. 11. 13. 15. 26. 23. 24. 19. 18. 16. 16.
      15. 17. 20. 21. 11. 8. 8. 9. 25. 25. 25. 26. 22. 19. 14. 13. 17.
      17. 19. 19. 17. 15. 13. 12. 14. 15. 27. 30. 29. 26. 15. 12. 10.
      17. 21. 23. 22. 20. 20. 15. 15. 15. 18. 24. 24. 19. 16. 16. 15.
      15. 16. 19. 20. 19. 18. 16. 13. 12. 12. 17. 24. 10. 3. 5. 15. 14.
      16. 30. 29. 13.</_>
    <_>
      21. 64. 88. 89. 111. 100. 92. 77. 53. 37. 45. 58. 71. 69. 62. 55.
      54. 59. 66. 64. 59. 54. 54. 58. 60. 61. 65. 61. 52. 47. 42. 53.
      72. 91. 100. 97. 14. 2. 20. 33. 30. 18. 12. 15. 16. 13. 14. 19.
      23. 15. 12. 17. 20. 23. 14. 22. 31. 22. 8. 7. 8. 26. 28. 25. 11.
      12. 22. 23. 6. 9. 10. 22. 33. 26. 11. 10. 8. 7. 5. 16. 25. 28. 12.
      11. 9. 18. 26. 27. 14. 16. 24. 23. 8. 9. 12. 24. 29. 30. 21. 12.
      9. 9. 22. 25. 19. 11. 17. 26. 24. 10. 12. 12. 23. 28. 26. 13. 15.
      13. 9. 16. 19. 20. 24. 21. 19. 14. 14. 16. 17. 27. 32. 18. 13. 9.
      7. 22. 25. 11. 14. 22. 26. 24. 12. 12. 14. 31. 30. 13. 11. 9. 11.
      20. 20. 20. 15. 13. 16. 20. 20. 14. 14. 14. 29. 32. 12. 2. 8. 32.
      18. 24. 4. 2.</_>
    <_>
      0. 0. 8. 73. 105. 109. 110. 110. 94. 58. 54. 66. 71. 79. 77. 72.
      72. 47. 46. 51. 72. 73. 99. 94. 82. 93. 87. 62. 46. 62. 97. 72.
      68. 30. 25. 94. 10. 6. 5. 10. 10. 10. 11. 11. 11. 11. 11. 11. 11.
      12. 11. 11. 11. 13. 26. 12. 30. 30. 24. 18. 18. 17. 13. 18. 20.
      11. 12. 22. 20. 25. 28. 29. 12. 9. 9. 22. 22. 22. 23. 20. 20. 22.
      23. 28. 29. 27. 18. 17. 18. 25. 28. 29. 8. 9. 9. 22. 21. 21. 20.
      21. 20. 20. 23. 27. 29. 28. 23. 18. 17. 17. 20. 22. 21. 16. 16.
      13. 16. 21. 24. 28. 24. 15. 12. 16. 21. 20. 21. 20. 13. 11. 15.
      25. 28. 31. 22. 9. 10. 25. 24. 24. 24. 23. 22. 9. 10. 13. 26. 25.
      24. 15. 10. 12. 18. 21. 22. 20. 18. 11. 16. 23. 31. 26. 15. 21.
      12. 12. 12. 12. 12. 9. 6. 10.</_>
    <_>
      59. 53. 58. 55. 40. 46. 52. 52. 60. 63. 62. 67. 67. 69. 66. 57.
      51. 47. 54. 61. 70. 80. 77. 71. 72. 72. 75. 69. 63. 63. 61. 46.
      55. 66. 69. 71. 29. 22. 16. 16. 14. 14. 18. 26. 24. 7. 6. 12. 20.
      18. 15. 21. 29. 23. 2. 0. 2. 12. 23. 24. 23. 22. 22. 21. 18. 15.
      14. 11. 19. 22. 19. 14. 3. 2. 2. 6. 12. 25. 28. 22. 10. 8. 7. 24.
      25. 21. 15. 17. 26. 24. 9. 6. 8. 8. 28. 26. 15. 18. 14. 13. 18.
      15. 15. 16. 15. 14. 14. 16. 12. 10. 14. 22. 28. 24. 26. 20. 18.
      12. 8. 13. 17. 17. 18. 19. 17. 11. 8. 9. 11. 16. 23. 22. 23. 34.
      21. 15. 9. 9. 18. 20. 23. 22. 21. 16. 8. 8. 14. 21. 29. 30. 30.
      20. 4. 3. 3. 14. 24. 21. 16. 16. 11. 8. 10. 15. 18. 18. 18. 17. 9.
      2. 12. 36.</_>
    <_>
      98. 78. 59. 39. 39. 36. 43. 41. 46. 60. 69. 75. 74. 58. 61. 54.
      54. 57. 63. 63. 58. 56. 49. 42. 44. 44. 42. 41. 60. 70. 77. 84.
      84. 96. 109. 113. 35. 32. 21. 11. 11. 17. 21. 17. 13. 14. 14. 16.
      17. 17. 12. 15. 15. 20. 30. 33. 27. 20. 19. 18. 18. 12. 14. 17.
      20. 12. 9. 11. 18. 24. 30. 32. 17. 13. 5. 3. 10. 9. 8. 11. 19. 19.
      11. 11. 9. 9. 21. 23. 19. 20. 21. 23. 17. 9. 10. 13. 15. 28. 28.
      22. 14. 5. 6. 8. 19. 24. 16. 7. 12. 21. 26. 17. 6. 7. 6. 20. 27.
      27. 21. 11. 9. 10. 18. 28. 27. 14. 10. 19. 26. 21. 11. 10. 11. 17.
      27. 22. 18. 19. 17. 15. 13. 15. 21. 21. 18. 17. 20. 18. 12. 10.
      12. 13. 19. 18. 16. 12. 14. 17. 16. 11. 12. 15. 15. 16. 14. 14.
      10. 7. 8. 10. 18. 30.</_>
    <_>
      108. 91. 73. 42. 38. 32. 29. 26. 37. 55. 64. 67. 69. 67. 58. 53.
      53. 58. 59. 65. 64. 63. 56. 56. 57. 60. 64. 62. 55. 44. 44. 45.
      47. 62. 76. 89. 36. 0. 0. 0. 22. 22. 13. 11. 9. 10. 8. 14. 20. 22.
      10. 9. 9. 25. 21. 16. 30. 32. 5. 4. 5. 5. 9. 26. 26. 22. 22. 27.
      26. 6. 4. 5. 8. 30. 33. 26. 14. 16. 17. 16. 18. 28. 27. 15. 8. 6.
      5. 12. 19. 19. 20. 19. 18. 15. 10. 10. 12. 15. 28. 32. 20. 11. 10.
      7. 9. 19. 20. 21. 20. 17. 8. 5. 5. 13. 21. 33. 30. 11. 7. 3. 5.
      15. 16. 10. 12. 8. 8. 15. 20. 18. 18. 10. 22. 26. 21. 13. 11. 6.
      5. 19. 20. 19. 22. 25. 24. 7. 8. 11. 15. 29. 25. 21. 10. 11. 12.
      28. 32. 5. 4. 4. 4. 16. 32. 32. 18. 14. 9. 19. 0. 0. 0. 17.</_>
    <_>
      110. 131. 133. 70. 14. 72. 90. 66. 59. 48. 47. 58. 69. 69. 74. 81.
      69. 68. 73. 78. 73. 77. 78. 62. 64. 80. 67. 77. 69. 73. 86. 126.
      123. 120. 76. 17. 17. 24. 34. 35. 29. 11. 16. 30. 21. 10. 9. 16.
      18. 15. 12. 13. 15. 20. 19. 13. 16. 21. 29. 28. 19. 17. 18. 16.
      16. 12. 17. 21. 19. 14. 18. 21. 27. 35. 35. 31. 23. 23. 19. 19.
      16. 13. 13. 10. 10. 9. 15. 26. 22. 6. 7. 9. 27. 30. 29. 17. 16.
      21. 29. 29. 11. 9. 11. 19. 27. 26. 25. 24. 19. 15. 16. 16. 20. 25.
      26. 24. 19. 19. 18. 18. 17. 19. 19. 21. 19. 19. 17. 19. 17. 18.
      25. 27. 28. 22. 20. 21. 26. 28. 23. 20. 17. 18. 21. 22. 20. 18.
      19. 27. 26. 21. 18. 20. 18. 18. 21. 22. 22. 20. 21. 20. 18. 16.
      21. 25. 18. 6. 19. 36. 36. 35. 33. 18.</_>
    <_>
      73. 62. 58. 61. 64. 72. 81. 83. 80. 74. 72. 67. 56. 53. 56. 53.
      48. 57. 63. 65. 64. 63. 65. 66. 60. 60. 67. 75. 84. 114. 136. 85.
      4. 0. 2. 25. 19. 15. 12. 11. 12. 10. 14. 14. 18. 12. 7. 8. 15. 19.
      23. 25. 31. 32. 30. 3. 3. 3. 3. 14. 25. 24. 21. 14. 8. 5. 11. 15.
      19. 24. 29. 30. 27. 24. 21. 25. 23. 28. 33. 33. 9. 3. 2. 2. 2. 24.
      27. 26. 23. 27. 27. 6. 3. 3. 3. 3. 29. 31. 31. 27. 23. 18. 15. 10.
      7. 6. 11. 11. 6. 5. 8. 13. 21. 25. 32. 32. 32. 32. 26. 23. 21. 19.
      16. 15. 15. 17. 14. 5. 2. 2. 3. 13. 28. 30. 32. 32. 31. 16. 11. 6.
      5. 8. 15. 18. 17. 18. 17. 14. 3. 5. 8. 13. 21. 32. 30. 30. 20. 15.
      13. 10. 10. 13. 14. 16. 15. 16. 15. 9. 11. 16. 18. 19.</_>
    <_>
      90. 83. 56. 41. 39. 45. 57. 78. 83. 87. 79. 77. 74. 76. 68. 65.
      59. 57. 67. 73. 73. 62. 63. 55. 64. 62. 66. 57. 47. 42. 43. 52.
      67. 65. 62. 60. 31. 31. 36. 36. 36. 21. 2. 12. 29. 18. 15. 12. 11.
      9. 7. 15. 21. 11. 9. 13. 19. 20. 13. 23. 33. 30. 3. 5. 5. 28. 27.
      28. 13. 29. 28. 10. 7. 7. 13. 34. 27. 10. 0. 0. 0. 3. 16. 28. 17.
      4. 5. 5. 23. 23. 20. 20. 18. 16. 14. 13. 18. 21. 26. 24. 16. 13.
      8. 12. 17. 21. 20. 19. 19. 14. 12. 9. 12. 16. 18. 19. 19. 5. 5.
      12. 16. 17. 18. 20. 19. 16. 17. 11. 14. 20. 27. 27. 24. 17. 13. 9.
      9. 19. 21. 22. 19. 17. 15. 9. 10. 14. 20. 23. 30. 20. 2. 5. 6. 26.
      22. 20. 14. 16. 14. 11. 10. 12. 15. 20. 5. 0. 18. 36. 36. 35. 29.
      22.</_>
    <_>
      85. 37. 84. 104. 84. 48. 34. 33. 40. 47. 50. 63. 64. 62. 60. 56.
      46. 45. 55. 64. 66. 67. 68. 63. 62. 59. 56. 55. 52. 62. 65. 67.
      76. 74. 70. 41. 36. 30. 12. 22. 29. 18. 4. 3. 10. 15. 7. 4. 6. 13.
      19. 18. 10. 4. 11. 12. 22. 26. 26. 19. 16. 14. 8. 7. 19. 22. 22.
      13. 16. 16. 19. 25. 29. 28. 25. 17. 10. 4. 3. 2. 5. 20. 22. 9. 11.
      12. 10. 16. 21. 21. 19. 20. 19. 13. 14. 15. 17. 16. 18. 7. 3. 6.
      21. 30. 28. 4. 4. 3. 5. 20. 30. 25. 16. 10. 3. 10. 15. 14. 21. 16.
      13. 11. 8. 20. 17. 15. 9. 13. 17. 23. 24. 25. 22. 25. 22. 11. 10.
      16. 16. 18. 19. 19. 18. 14. 16. 11. 13. 16. 20. 29. 26. 24. 16.
      14. 14. 11. 16. 20. 19. 20. 16. 14. 9. 11. 14. 18. 27. 19. 0. 2.
      28. 36.</_>
    <_>
      70. 63. 59. 56. 62. 78. 80. 82. 81. 85. 86. 88. 90. 90. 80. 79.
      71. 64. 69. 73. 77. 93. 94. 96. 95. 91. 91. 90. 93. 93. 88. 77.
      52. 50. 58. 64. 27. 8. 4. 4. 13. 26. 6. 5. 3. 18. 20. 20. 23. 19.
      19. 20. 35. 34. 36. 17. 7. 4. 1. 19. 25. 26. 27. 27. 23. 22. 17.
      15. 15. 18. 24. 32. 35. 33. 29. 29. 29. 29. 31. 35. 35. 7. 0. 0.
      0. 7. 32. 28. 11. 25. 29. 32. 32. 32. 32. 32. 29. 28. 36. 36. 5.
      0. 0. 0. 26. 27. 27. 27. 27. 27. 26. 19. 1. 4. 7. 22. 36. 36. 36.
      29. 24. 22. 21. 20. 20. 19. 18. 14. 12. 11. 5. 10. 13. 25. 36. 36.
      36. 36. 28. 21. 16. 13. 17. 17. 17. 16. 17. 14. 14. 10. 14. 18.
      26. 36. 36. 36. 33. 26. 22. 18. 15. 15. 19. 18. 18. 18. 16. 13.
      14. 15. 19. 31.</_>
    <_>
      97. 33. 26. 25. 21. 28. 54. 62. 72. 67. 59. 61. 63. 67. 65. 60.
      61. 62. 69. 70. 71. 63. 55. 52. 50. 55. 57. 60. 65. 65. 62. 54.
      42. 32. 31. 29. 31. 3. 2. 3. 15. 21. 17. 11. 22. 24. 24. 25. 13.
      11. 9. 12. 13. 12. 1. 1. 1. 4. 9. 15. 21. 26. 24. 20. 20. 27. 31.
      31. 29. 25. 20. 14. 10. 4. 0. 3. 4. 5. 5. 3. 4. 6. 29. 30. 30. 30.
      24. 10. 9. 9. 9. 11. 13. 15. 13. 11. 10. 2. 1. 1. 21. 24. 26. 27.
      20. 11. 12. 11. 12. 14. 12. 27. 26. 24. 21. 3. 1. 0. 7. 9. 15. 16.
      17. 17. 18. 17. 18. 18. 22. 24. 22. 21. 16. 8. 6. 5. 6. 6. 9. 11.
      14. 36. 36. 33. 31. 21. 1. 0. 0. 0. 0. 0. 0. 3. 20. 23. 26. 26.
      16. 11. 11. 9. 10. 9. 16. 28. 26. 23. 12. 0. 0. 36.</_>
    <_>
      77. 60. 47. 44. 40. 39. 59. 71. 77. 78. 80. 89. 90. 84. 77. 64.
      58. 58. 61. 68. 69. 79. 81. 78. 76. 75. 75. 79. 79. 75. 72. 63.
      62. 65. 74. 79. 27. 22. 10. 5. 5. 14. 23. 18. 8. 5. 6. 18. 23. 31.
      35. 34. 34. 21. 0. 0. 0. 14. 22. 22. 21. 20. 19. 19. 17. 16. 18.
      22. 22. 29. 23. 16. 12. 11. 13. 14. 13. 21. 25. 23. 20. 19. 14.
      11. 13. 16. 15. 12. 12. 11. 7. 9. 14. 20. 36. 36. 36. 29. 13. 14.
      21. 24. 30. 16. 11. 7. 4. 8. 15. 22. 26. 28. 28. 27. 28. 31. 18.
      15. 11. 12. 15. 16. 17. 15. 16. 14. 10. 12. 15. 17. 25. 29. 32.
      32. 33. 21. 15. 11. 9. 13. 20. 21. 18. 8. 10. 15. 19. 22. 35. 36.
      36. 36. 0. 0. 0. 6. 21. 25. 24. 24. 24. 26. 17. 0. 0. 0. 2. 36.
      36. 36. 36. 36.</_>
    <_>
      114. 63. 23. 20. 19. 16. 47. 69. 77. 82. 62. 59. 57. 57. 57. 61.
      67. 74. 77. 75. 64. 53. 46. 47. 45. 46. 47. 52. 71. 76. 73. 59.
      13. 25. 25. 57. 29. 30. 31. 35. 36. 20. 33. 14. 0. 0. 5. 10. 22.
      21. 7. 6. 10. 23. 24. 25. 18. 9. 6. 1. 1. 1. 26. 26. 27. 26. 8. 9.
      11. 14. 16. 17. 21. 18. 17. 14. 3. 2. 3. 6. 6. 7. 6. 3. 4. 28. 28.
      29. 29. 15. 14. 14. 14. 15. 15. 14. 13. 11. 9. 3. 3. 6. 9. 15. 19.
      21. 17. 17. 18. 17. 20. 22. 21. 18. 12. 5. 3. 5. 10. 12. 16. 16.
      18. 17. 17. 17. 17. 19. 19. 17. 13. 9. 0. 1. 6. 8. 9. 8. 8. 33.
      34. 28. 28. 15. 2. 1. 0. 1. 1. 1. 1. 8. 17. 24. 26. 19. 14. 11.
      11. 12. 17. 23. 19. 11. 0. 0. 1. 14. 34. 36. 36. 34.</_>
    <_>
      119. 87. 13. 11. 72. 107. 56. 46. 45. 41. 46. 65. 74. 72. 69. 62.
      63. 52. 55. 59. 75. 73. 67. 66. 67. 61. 49. 53. 56. 80. 73. 116.
      48. 35. 40. 54. 36. 36. 25. 4. 0. 7. 23. 13. 8. 8. 10. 8. 15. 14.
      19. 10. 10. 10. 21. 20. 22. 26. 28. 28. 10. 10. 10. 21. 21. 21.
      20. 24. 23. 21. 14. 16. 20. 31. 32. 20. 6. 4. 3. 3. 6. 13. 16. 15.
      13. 11. 9. 15. 17. 16. 17. 18. 17. 16. 16. 19. 20. 22. 22. 21. 19.
      11. 9. 11. 13. 17. 15. 17. 18. 17. 16. 17. 18. 18. 15. 14. 11. 12.
      7. 11. 17. 22. 18. 13. 11. 9. 17. 19. 16. 14. 9. 16. 21. 23. 20.
      23. 20. 21. 23. 22. 23. 23. 22. 17. 15. 14. 17. 24. 21. 18. 15. 9.
      11. 20. 21. 14. 12. 10. 10. 20. 16. 17. 8. 8. 11. 5. 1. 3. 32. 33.
      31. 36.</_>
    <_>
      3. 22. 47. 69. 91. 120. 125. 123. 115. 105. 91. 74. 68. 65. 61.
      57. 52. 48. 49. 48. 49. 54. 68. 68. 69. 64. 61. 61. 63. 54. 53.
      50. 51. 56. 61. 76. 5. 6. 5. 14. 26. 31. 31. 30. 30. 30. 21. 8. 9.
      10. 14. 11. 13. 8. 10. 21. 23. 19. 19. 19. 23. 31. 31. 15. 11. 8.
      8. 10. 24. 22. 23. 21. 19. 16. 13. 15. 16. 16. 17. 16. 14. 15. 13.
      15. 19. 25. 24. 20. 14. 8. 13. 18. 16. 11. 12. 12. 10. 11. 23. 26.
      29. 32. 31. 32. 26. 8. 8. 8. 9. 17. 21. 9. 14. 20. 20. 23. 22. 26.
      28. 21. 26. 32. 23. 15. 10. 9. 10. 17. 21. 19. 20. 15. 12. 10. 11.
      16. 25. 32. 30. 24. 25. 21. 15. 17. 16. 18. 14. 16. 16. 13. 12.
      15. 20. 23. 32. 32. 27. 15. 11. 10. 10. 16. 21. 16. 14. 17. 16. 8.
      5. 7. 10. 15.</_>
    <_>
      0. 0. 0. 0. 60. 128. 90. 12. 124. 128. 128. 127. 71. 55. 46. 79.
      82. 75. 74. 65. 51. 48. 55. 63. 61. 56. 56. 76. 83. 75. 81. 90.
      113. 120. 128. 27. 10. 10. 9. 9. 10. 30. 32. 21. 13. 29. 29. 23.
      19. 16. 15. 14. 16. 20. 21. 12. 13. 20. 23. 24. 29. 29. 29. 9. 9.
      10. 21. 23. 22. 21. 24. 25. 24. 12. 11. 12. 30. 29. 29. 16. 15.
      15. 15. 16. 13. 13. 14. 17. 26. 26. 9. 9. 9. 26. 26. 26. 21. 22.
      20. 25. 29. 26. 9. 10. 13. 19. 21. 19. 18. 18. 17. 9. 14. 22. 29.
      29. 28. 22. 14. 13. 11. 20. 18. 20. 20. 19. 15. 15. 15. 19. 25.
      25. 18. 13. 12. 17. 20. 24. 19. 15. 12. 17. 17. 21. 15. 16. 18.
      18. 24. 21. 18. 16. 18. 20. 20. 20. 19. 17. 15. 13. 16. 24. 26.
      21. 12. 17. 28. 30. 17. 9. 9. 9.</_>
    <_>
      19. 113. 118. 100. 95. 86. 52. 48. 38. 65. 82. 88. 76. 71. 72. 67.
      63. 59. 50. 56. 70. 67. 59. 57. 60. 68. 66. 62. 40. 53. 62. 63.
      84. 69. 58. 53. 9. 11. 15. 18. 20. 21. 22. 22. 22. 22. 23. 24. 26.
      32. 34. 35. 25. 2. 14. 30. 15. 13. 11. 10. 8. 13. 21. 21. 9. 10.
      21. 19. 13. 24. 29. 20. 7. 8. 7. 23. 23. 20. 19. 19. 19. 18. 18.
      20. 21. 16. 10. 4. 3. 3. 2. 19. 26. 14. 9. 8. 12. 24. 23. 14. 22.
      28. 25. 11. 11. 12. 30. 28. 30. 12. 11. 11. 26. 27. 28. 15. 25.
      26. 11. 10. 13. 29. 28. 29. 12. 10. 10. 24. 26. 27. 15. 22. 26.
      22. 7. 9. 13. 29. 32. 23. 20. 24. 18. 17. 17. 24. 22. 15. 16. 20.
      24. 18. 16. 15. 9. 8. 7. 10. 30. 31. 9. 8. 6. 28. 27. 7. 7. 8. 12.
      10. 4. 24.</_>
    <_>
      84. 70. 48. 34. 38. 41. 61. 58. 60. 60. 59. 61. 51. 48. 50. 57.
      52. 49. 52. 62. 64. 61. 58. 62. 65. 63. 55. 50. 48. 51. 72. 78.
      76. 98. 72. 62. 36. 27. 0. 3. 24. 18. 7. 8. 11. 21. 21. 5. 9. 15.
      16. 15. 15. 12. 12. 10. 15. 20. 11. 10. 8. 2. 5. 7. 9. 8. 19. 32.
      24. 11. 12. 14. 23. 34. 28. 8. 2. 2. 5. 4. 7. 3. 4. 5. 5. 13. 27.
      24. 3. 6. 6. 13. 29. 25. 25. 17. 14. 11. 17. 15. 16. 12. 9. 10.
      14. 16. 16. 17. 20. 19. 19. 17. 17. 19. 22. 19. 23. 23. 16. 11. 8.
      11. 19. 21. 19. 19. 17. 11. 6. 10. 16. 26. 30. 23. 15. 14. 12. 24.
      36. 29. 9. 7. 6. 10. 28. 26. 22. 9. 2. 6. 24. 30. 24. 19. 15. 10.
      16. 20. 23. 21. 21. 21. 15. 12. 16. 23. 34. 34. 10. 0. 13. 36.</_>
    <_>
      47. 23. 116. 119. 96. 93. 63. 46. 38. 42. 58. 56. 63. 66. 67. 58.
      56. 51. 58. 64. 63. 67. 67. 66. 71. 70. 69. 48. 52. 57. 79. 97.
      81. 73. 89. 59. 23. 20. 18. 14. 11. 12. 17. 23. 18. 10. 8. 12. 20.
      22. 23. 30. 30. 32. 9. 9. 10. 13. 25. 25. 27. 26. 21. 18. 11. 5.
      8. 11. 19. 33. 34. 26. 16. 9. 6. 5. 11. 28. 28. 10. 8. 8. 7. 21.
      28. 26. 15. 16. 28. 30. 10. 9. 11. 11. 30. 29. 30. 29. 10. 9. 9.
      10. 24. 25. 17. 13. 15. 18. 14. 15. 20. 20. 20. 27. 24. 24. 14.
      13. 10. 9. 23. 25. 18. 15. 19. 25. 25. 11. 13. 15. 18. 34. 35. 23.
      15. 11. 13. 10. 10. 18. 19. 21. 21. 20. 20. 16. 17. 19. 24. 21.
      18. 17. 13. 10. 10. 11. 15. 16. 19. 20. 19. 19. 21. 9. 11. 10. 15.
      21. 15. 4. 7. 22.</_>
    <_>
      109. 86. 54. 58. 65. 50. 36. 37. 40. 41. 46. 56. 64. 61. 64. 58.
      60. 62. 62. 57. 56. 63. 66. 65. 69. 62. 56. 53. 56. 59. 60. 61.
      54. 59. 63. 72. 6. 36. 36. 36. 36. 31. 17. 11. 10. 9. 6. 7. 13.
      19. 4. 4. 6. 19. 19. 14. 25. 29. 30. 2. 2. 2. 2. 27. 28. 19. 14.
      25. 28. 17. 1. 1. 2. 25. 35. 25. 3. 5. 6. 3. 7. 13. 16. 14. 10.
      10. 22. 23. 23. 10. 7. 7. 4. 21. 24. 20. 15. 16. 9. 7. 9. 11. 12.
      13. 23. 19. 6. 8. 9. 5. 22. 23. 20. 17. 12. 10. 21. 27. 16. 12.
      11. 10. 17. 22. 19. 23. 22. 20. 11. 12. 13. 14. 24. 21. 21. 18.
      14. 10. 7. 9. 17. 19. 25. 20. 2. 4. 2. 19. 28. 29. 27. 29. 10. 7.
      7. 4. 23. 24. 12. 8. 12. 23. 12. 4. 6. 8. 19. 31. 35. 36. 36. 16.</_>
    <_>
      64. 31. 48. 61. 77. 80. 75. 49. 43. 46. 47. 45. 45. 44. 48. 56.
      66. 64. 66. 67. 66. 55. 50. 44. 43. 52. 55. 53. 40. 44. 56. 64.
      65. 58. 51. 38. 4. 1. 10. 20. 18. 13. 19. 27. 27. 28. 23. 16. 19.
      23. 21. 5. 0. 0. 0. 3. 31. 32. 32. 15. 15. 15. 15. 17. 18. 22. 32.
      32. 32. 26. 11. 4. 2. 1. 3. 5. 5. 3. 1. 1. 1. 33. 34. 34. 35. 21.
      10. 11. 11. 11. 11. 11. 10. 9. 7. 7. 7. 3. 3. 9. 15. 19. 24. 24.
      22. 22. 22. 19. 16. 16. 19. 21. 14. 10. 0. 0. 0. 1. 7. 20. 28. 29.
      25. 18. 15. 14. 16. 19. 29. 29. 27. 20. 10. 0. 1. 2. 7. 8. 9. 9.
      9. 11. 20. 29. 30. 33. 35. 21. 16. 11. 8. 6. 0. 0. 0. 0. 0. 0. 0.
      3. 33. 33. 34. 33. 5. 0. 0. 0. 0. 0. 19. 36.</_>
    <_>
      127. 126. 125. 98. 80. 40. 20. 16. 20. 20. 24. 37. 50. 58. 65. 77.
      75. 67. 60. 54. 49. 49. 60. 63. 66. 69. 71. 64. 68. 73. 71. 64.
      52. 54. 63. 73. 36. 31. 17. 11. 8. 6. 5. 8. 11. 18. 6. 6. 7. 11.
      19. 20. 26. 31. 32. 31. 5. 4. 5. 5. 22. 23. 23. 24. 21. 21. 12. 4.
      6. 8. 18. 35. 35. 29. 17. 17. 12. 14. 12. 13. 17. 20. 18. 10. 14.
      10. 12. 16. 20. 20. 19. 17. 16. 15. 16. 18. 20. 29. 31. 28. 22.
      15. 12. 10. 8. 12. 15. 17. 17. 18. 18. 13. 13. 8. 13. 20. 22. 22.
      25. 16. 12. 11. 8. 12. 12. 15. 17. 18. 17. 15. 13. 16. 17. 19. 30.
      36. 36. 19. 15. 7. 5. 8. 15. 18. 21. 21. 18. 15. 8. 8. 12. 14. 25.
      25. 24. 24. 19. 18. 14. 8. 6. 9. 14. 15. 9. 7. 6. 13. 13. 18. 30.
      36.</_>
    <_>
      17. 16. 12. 27. 51. 64. 68. 50. 46. 50. 48. 41. 42. 43. 51. 52.
      60. 58. 56. 45. 42. 42. 42. 44. 47. 46. 56. 73. 69. 57. 16. 5. 4.
      4. 7. 19. 0. 1. 33. 32. 5. 0. 3. 10. 19. 13. 5. 8. 19. 16. 8. 8.
      7. 6. 11. 10. 0. 0. 0. 5. 27. 26. 22. 10. 10. 11. 14. 14. 18. 22.
      30. 25. 16. 4. 0. 0. 0. 0. 2. 2. 0. 0. 0. 8. 26. 27. 27. 10. 7. 6.
      9. 14. 22. 21. 18. 12. 2. 0. 0. 0. 2. 6. 10. 13. 14. 16. 15. 12.
      13. 14. 13. 15. 14. 11. 4. 0. 0. 0. 18. 22. 24. 12. 8. 7. 7. 7. 8.
      8. 11. 24. 21. 5. 0. 1. 1. 8. 13. 20. 18. 17. 17. 14. 12. 12. 11.
      14. 12. 7. 0. 0. 0. 0. 4. 13. 21. 19. 15. 10. 10. 9. 9. 12. 21.
      23. 18. 4. 0. 2. 21. 36. 11. 0.</_>
    <_>
      71. 78. 51. 50. 50. 56. 67. 70. 79. 85. 85. 87. 87. 80. 79. 76.
      75. 73. 79. 81. 79. 78. 77. 84. 83. 81. 81. 80. 84. 86. 75. 69.
      64. 57. 46. 55. 7. 8. 30. 31. 30. 28. 33. 25. 12. 10. 14. 20. 6.
      4. 2. 15. 20. 22. 23. 22. 22. 27. 35. 36. 27. 11. 7. 5. 4. 21. 23.
      23. 24. 25. 23. 16. 16. 19. 18. 23. 25. 18. 19. 21. 19. 22. 27.
      34. 32. 30. 22. 20. 18. 16. 13. 11. 13. 13. 13. 14. 17. 20. 22.
      24. 29. 33. 33. 29. 20. 3. 2. 14. 15. 7. 16. 18. 18. 10. 1. 2. 2.
      31. 36. 36. 36. 30. 28. 29. 30. 28. 24. 12. 7. 4. 2. 7. 16. 22.
      25. 30. 34. 33. 34. 31. 31. 27. 26. 24. 17. 10. 7. 3. 0. 14. 21.
      24. 26. 33. 34. 32. 34. 20. 14. 10. 6. 10. 10. 12. 13. 14. 14. 12.
      16. 19. 16. 22.</_>
    <_>
      118. 63. 27. 25. 21. 22. 22. 44. 51. 54. 57. 53. 53. 53. 55. 54.
      58. 69. 76. 76. 63. 58. 51. 52. 54. 55. 59. 65. 68. 74. 65. 50.
      43. 37. 38. 45. 36. 36. 10. 5. 2. 0. 5. 18. 20. 18. 17. 19. 21.
      19. 17. 17. 18. 14. 4. 1. 1. 1. 8. 25. 26. 22. 17. 11. 13. 18. 27.
      29. 36. 29. 23. 16. 13. 8. 4. 3. 2. 1. 1. 1. 1. 2. 2. 8. 14. 21.
      25. 26. 24. 19. 22. 23. 21. 19. 16. 10. 3. 1. 2. 1. 1. 8. 10. 15.
      19. 20. 22. 22. 24. 26. 29. 27. 19. 11. 1. 1. 0. 0. 0. 0. 4. 10.
      15. 20. 21. 21. 23. 26. 28. 22. 12. 6. 1. 2. 4. 13. 21. 27. 32.
      30. 29. 26. 23. 20. 16. 14. 17. 13. 10. 1. 0. 0. 5. 10. 12. 12. 9.
      7. 9. 9. 11. 13. 15. 17. 14. 9. 2. 3. 13. 32. 36. 36.</_>
    <_>
      56. 38. 44. 51. 52. 51. 55. 58. 63. 58. 62. 58. 54. 55. 54. 53.
      54. 54. 58. 61. 58. 58. 52. 51. 54. 54. 58. 59. 62. 61. 57. 52.
      51. 40. 40. 48. 26. 6. 0. 0. 0. 13. 25. 25. 9. 1. 21. 26. 27. 18.
      1. 30. 31. 29. 18. 0. 0. 0. 0. 7. 8. 11. 22. 26. 28. 33. 36. 36.
      28. 14. 12. 12. 2. 1. 1. 3. 5. 5. 2. 0. 1. 1. 1. 1. 1. 2. 4. 36.
      36. 36. 36. 34. 26. 3. 1. 1. 1. 0. 0. 0. 11. 18. 25. 26. 27. 25.
      27. 27. 30. 35. 29. 22. 18. 12. 8. 0. 0. 0. 4. 6. 7. 7. 9. 24. 30.
      35. 35. 34. 32. 15. 13. 8. 0. 0. 1. 3. 4. 5. 5. 6. 36. 36. 36. 34.
      32. 24. 1. 0. 0. 0. 0. 0. 0. 1. 12. 20. 25. 27. 24. 23. 23. 24.
      21. 22. 19. 14. 10. 4. 0. 0. 2. 32.</_>
    <_>
      51. 52. 49. 47. 58. 69. 75. 82. 85. 78. 70. 68. 58. 60. 61. 58.
      64. 69. 75. 75. 75. 75. 73. 70. 69. 65. 56. 53. 53. 54. 63. 74.
      79. 81. 68. 62. 36. 36. 12. 11. 16. 6. 0. 0. 2. 3. 8. 17. 19. 15.
      7. 8. 14. 20. 25. 28. 29. 27. 26. 25. 21. 14. 12. 8. 16. 18. 15.
      7. 12. 13. 17. 22. 31. 35. 36. 31. 23. 21. 17. 15. 16. 19. 9. 5.
      3. 4. 9. 23. 22. 22. 26. 24. 24. 5. 6. 9. 11. 34. 34. 33. 10. 7.
      4. 5. 22. 24. 25. 27. 25. 24. 9. 6. 9. 10. 26. 34. 34. 23. 11. 8.
      9. 13. 18. 20. 20. 20. 20. 14. 11. 14. 15. 22. 32. 30. 21. 7. 4.
      4. 16. 22. 25. 24. 25. 27. 22. 6. 6. 8. 12. 34. 33. 33. 18. 8. 5.
      5. 11. 18. 21. 19. 13. 6. 5. 5. 11. 20. 30. 30. 13. 22. 36. 36.</_>
    <_>
      82. 52. 39. 35. 32. 30. 46. 70. 74. 72. 74. 71. 70. 63. 63. 63.
      74. 76. 72. 77. 64. 58. 69. 73. 71. 66. 62. 57. 58. 62. 95. 89.
      79. 69. 33. 86. 29. 29. 5. 10. 31. 36. 23. 11. 4. 5. 6. 10. 18.
      18. 7. 7. 9. 22. 24. 30. 31. 29. 25. 18. 16. 9. 7. 7. 11. 15. 16.
      13. 14. 16. 21. 22. 23. 28. 29. 24. 14. 10. 9. 11. 15. 18. 17. 15.
      12. 12. 13. 13. 16. 16. 17. 14. 13. 7. 12. 16. 21. 29. 28. 27. 22.
      18. 18. 13. 10. 14. 22. 20. 15. 9. 12. 17. 21. 23. 27. 30. 29. 18.
      12. 15. 18. 17. 15. 18. 18. 15. 14. 15. 16. 14. 16. 20. 29. 28.
      29. 17. 14. 12. 12. 17. 21. 19. 19. 17. 15. 7. 7. 11. 18. 27. 24.
      18. 15. 15. 14. 13. 17. 18. 17. 14. 13. 12. 8. 6. 10. 19. 35. 25.
      15. 2. 24. 29.</_>
    <_>
      29. 21. 20. 34. 62. 70. 75. 72. 62. 61. 58. 62. 63. 68. 70. 69.
      62. 51. 47. 48. 57. 57. 58. 55. 56. 56. 44. 21. 7. 8. 11. 16. 20.
      69. 94. 124. 31. 27. 25. 18. 13. 1. 1. 1. 1. 6. 22. 25. 20. 17.
      14. 19. 25. 26. 23. 9. 3. 1. 1. 2. 19. 26. 26. 12. 8. 9. 12. 15.
      15. 17. 34. 35. 33. 28. 4. 3. 3. 6. 6. 6. 3. 2. 2. 5. 9. 11. 13.
      15. 17. 15. 16. 18. 26. 28. 27. 18. 4. 2. 2. 3. 7. 11. 14. 18. 17.
      17. 16. 18. 18. 18. 22. 18. 14. 10. 3. 3. 3. 3. 3. 3. 4. 11. 27.
      28. 27. 24. 2. 2. 2. 3. 3. 3. 5. 7. 17. 20. 28. 30. 25. 18. 17.
      19. 19. 23. 20. 16. 8. 2. 2. 2. 4. 10. 12. 12. 14. 13. 14. 17. 16.
      17. 18. 16. 9. 1. 0. 0. 0. 30. 26. 28. 35. 31.</_>
    <_>
      28. 22. 19. 28. 36. 57. 67. 79. 82. 64. 62. 62. 60. 65. 69. 75.
      76. 77. 78. 74. 64. 64. 63. 64. 63. 68. 69. 84. 84. 75. 64. 52.
      28. 21. 21. 34. 8. 22. 22. 17. 16. 22. 25. 26. 26. 25. 24. 22. 15.
      5. 0. 0. 0. 0. 2. 11. 15. 19. 24. 27. 25. 31. 35. 36. 34. 28. 24.
      16. 11. 5. 1. 0. 1. 3. 3. 0. 0. 0. 2. 27. 29. 30. 30. 32. 23. 19.
      18. 15. 14. 13. 12. 10. 8. 8. 2. 0. 0. 14. 22. 24. 26. 27. 14. 11.
      11. 10. 9. 10. 11. 25. 23. 22. 18. 2. 0. 0. 5. 16. 22. 24. 26. 20.
      14. 13. 14. 16. 21. 25. 24. 20. 12. 1. 0. 0. 3. 12. 24. 34. 36.
      33. 25. 23. 22. 23. 21. 24. 24. 23. 15. 5. 0. 0. 0. 5. 13. 22. 24.
      24. 19. 13. 13. 16. 17. 21. 26. 24. 19. 10. 1. 1. 2. 11.</_>
    <_>
      133. 105. 74. 36. 31. 30. 30. 35. 38. 46. 49. 44. 50. 57. 58. 56.
      50. 47. 48. 52. 60. 62. 65. 63. 64. 66. 61. 57. 63. 62. 59. 55.
      42. 36. 40. 118. 36. 36. 18. 2. 17. 22. 17. 3. 2. 3. 5. 11. 19.
      18. 9. 5. 7. 18. 20. 20. 22. 20. 21. 18. 13. 10. 8. 6. 6. 13. 15.
      8. 8. 16. 16. 23. 25. 29. 33. 32. 24. 15. 5. 5. 10. 23. 26. 3. 3.
      6. 9. 19. 21. 19. 16. 19. 17. 9. 8. 12. 11. 23. 26. 25. 24. 8. 10.
      5. 10. 11. 9. 16. 15. 19. 16. 7. 6. 13. 28. 26. 16. 16. 19. 10.
      10. 24. 25. 5. 4. 5. 9. 31. 26. 13. 9. 12. 16. 21. 27. 20. 15. 12.
      10. 15. 17. 18. 15. 16. 15. 12. 13. 13. 14. 15. 20. 24. 8. 7. 7.
      9. 19. 18. 6. 8. 13. 16. 3. 6. 6. 7. 25. 21. 10. 12. 36. 36.</_>
    <_>
      60. 60. 53. 45. 38. 36. 39. 40. 41. 40. 36. 39. 39. 44. 46. 47.
      48. 49. 47. 46. 45. 42. 39. 39. 40. 36. 37. 40. 39. 40. 42. 44.
      51. 59. 66. 63. 0. 10. 14. 5. 2. 22. 29. 24. 13. 10. 4. 7. 13. 15.
      0. 0. 0. 0. 0. 36. 36. 33. 7. 5. 4. 4. 4. 5. 5. 9. 35. 35. 31. 22.
      0. 0. 0. 0. 3. 3. 1. 0. 0. 0. 0. 24. 31. 35. 36. 9. 7. 7. 5. 5. 6.
      8. 11. 32. 30. 26. 0. 0. 0. 0. 0. 8. 12. 15. 16. 13. 13. 15. 15.
      14. 15. 18. 19. 14. 5. 0. 0. 0. 0. 0. 8. 15. 16. 17. 18. 15. 13.
      14. 13. 14. 17. 19. 14. 5. 0. 0. 0. 0. 3. 21. 32. 31. 17. 13. 11.
      10. 11. 12. 19. 29. 29. 19. 4. 0. 0. 0. 0. 0. 21. 29. 26. 17. 13.
      9. 8. 10. 12. 20. 30. 27. 18. 6.</_>
    <_>
      55. 50. 49. 56. 78. 81. 84. 87. 86. 84. 78. 71. 60. 50. 51. 46.
      44. 48. 58. 65. 80. 85. 81. 80. 79. 74. 72. 63. 52. 44. 44. 42.
      43. 48. 60. 71. 14. 17. 29. 33. 36. 36. 36. 31. 0. 0. 0. 0. 8. 16.
      19. 20. 18. 14. 15. 4. 0. 0. 4. 7. 16. 36. 36. 36. 36. 33. 31. 32.
      36. 36. 36. 24. 4. 0. 0. 0. 0. 11. 19. 19. 17. 15. 17. 15. 15. 15.
      17. 22. 28. 36. 34. 33. 29. 14. 6. 4. 5. 6. 13. 17. 17. 18. 16.
      15. 12. 10. 11. 14. 19. 33. 36. 36. 36. 20. 10. 4. 2. 1. 6. 15.
      17. 18. 17. 14. 3. 0. 1. 5. 9. 23. 34. 36. 36. 31. 26. 17. 12. 13.
      11. 12. 13. 16. 17. 18. 18. 8. 11. 11. 12. 22. 32. 33. 28. 13. 0.
      0. 1. 3. 14. 28. 29. 29. 29. 28. 22. 10. 0. 0. 0. 0. 4. 28.</_>
    <_>
      29. 80. 118. 130. 126. 124. 123. 105. 95. 81. 64. 56. 48. 43. 46.
      58. 64. 65. 65. 56. 53. 54. 53. 56. 61. 65. 70. 75. 76. 74. 75.
      82. 79. 73. 71. 68. 5. 5. 6. 32. 33. 34. 34. 34. 34. 34. 29. 18.
      7. 7. 7. 10. 14. 17. 9. 7. 9. 20. 26. 33. 34. 34. 14. 8. 8. 7. 16.
      22. 23. 20. 18. 15. 10. 11. 12. 18. 27. 28. 29. 25. 21. 19. 20.
      16. 19. 13. 17. 25. 28. 24. 6. 7. 8. 8. 10. 28. 29. 29. 31. 27.
      26. 20. 22. 26. 28. 23. 10. 6. 7. 7. 8. 35. 35. 35. 30. 28. 32.
      30. 24. 18. 13. 12. 14. 15. 16. 13. 14. 14. 14. 16. 19. 28. 33.
      34. 30. 22. 20. 16. 16. 17. 17. 14. 13. 12. 11. 16. 17. 21. 30.
      33. 24. 15. 11. 9. 8. 21. 21. 20. 13. 10. 4. 6. 8. 23. 30. 31. 24.
      32. 36. 35. 31. 11.</_>
    <_>
      107. 22. 20. 21. 37. 58. 69. 74. 69. 58. 54. 52. 47. 51. 55. 63.
      66. 59. 53. 48. 56. 60. 70. 65. 61. 64. 71. 69. 62. 45. 15. 5. 5.
      4. 14. 121. 36. 35. 18. 1. 0. 0. 1. 11. 18. 21. 23. 20. 17. 19.
      23. 24. 22. 11. 9. 5. 2. 2. 7. 20. 23. 25. 26. 11. 10. 11. 12. 17.
      19. 25. 24. 24. 14. 5. 2. 2. 6. 7. 8. 6. 2. 2. 3. 4. 5. 2. 2. 3.
      28. 28. 28. 28. 25. 2. 2. 3. 2. 2. 3. 2. 17. 21. 23. 25. 19. 12.
      15. 18. 17. 16. 19. 26. 25. 24. 18. 2. 2. 2. 18. 21. 24. 24. 19.
      16. 17. 17. 14. 15. 20. 19. 17. 11. 1. 1. 4. 21. 24. 26. 27. 23.
      17. 18. 16. 13. 15. 21. 21. 20. 13. 4. 2. 2. 4. 6. 6. 3. 2. 24.
      28. 28. 27. 24. 1. 1. 1. 1. 0. 0. 0. 3. 35. 36.</_>
    <_>
      66. 35. 30. 33. 36. 31. 33. 60. 72. 68. 50. 43. 44. 44. 47. 54.
      60. 64. 61. 55. 49. 50. 48. 44. 42. 45. 52. 61. 55. 47. 18. 16.
      23. 26. 32. 99. 12. 5. 2. 0. 2. 5. 25. 34. 36. 36. 36. 29. 1. 0.
      0. 0. 1. 7. 8. 12. 11. 4. 9. 18. 13. 8. 3. 1. 1. 1. 25. 31. 28.
      12. 11. 14. 16. 17. 19. 33. 32. 27. 4. 1. 1. 3. 5. 4. 1. 1. 2. 5.
      11. 15. 16. 17. 15. 14. 15. 15. 17. 14. 7. 2. 2. 2. 12. 20. 24.
      19. 13. 12. 12. 15. 25. 24. 19. 9. 2. 2. 2. 7. 10. 14. 13. 13. 11.
      14. 15. 16. 16. 12. 0. 2. 6. 9. 12. 14. 14. 15. 25. 30. 30. 31.
      18. 14. 6. 1. 0. 1. 1. 16. 18. 17. 10. 7. 8. 8. 8. 14. 13. 8. 0.
      0. 0. 0. 16. 36. 36. 36. 26. 15. 7. 10. 16. 14.</_>
    <_>
      115. 98. 106. 108. 61. 77. 66. 39. 34. 37. 35. 40. 62. 60. 61. 68.
      70. 67. 72. 77. 71. 66. 63. 62. 61. 53. 44. 41. 35. 37. 42. 46.
      26. 17. 18. 135. 36. 34. 34. 5. 3. 3. 27. 23. 2. 2. 1. 5. 12. 17.
      19. 12. 9. 11. 20. 24. 28. 26. 27. 12. 5. 6. 8. 9. 24. 25. 23. 23.
      27. 26. 14. 12. 14. 15. 32. 30. 25. 10. 5. 6. 11. 17. 15. 12. 7.
      5. 5. 17. 18. 13. 11. 11. 8. 16. 21. 21. 18. 20. 18. 20. 20. 15.
      15. 12. 9. 9. 18. 17. 14. 6. 11. 14. 18. 26. 26. 21. 18. 11. 11.
      12. 18. 18. 13. 13. 8. 6. 8. 17. 20. 19. 17. 27. 27. 22. 16. 17.
      18. 21. 21. 18. 15. 17. 15. 10. 9. 13. 16. 24. 28. 27. 26. 17. 17.
      17. 16. 16. 20. 16. 12. 9. 5. 6. 6. 6. 10. 14. 4. 3. 10. 34. 34.
      36.</_>
    <_>
      34. 48. 67. 74. 78. 79. 68. 56. 50. 48. 45. 54. 61. 67. 69. 73.
      76. 69. 61. 59. 54. 48. 51. 54. 59. 71. 80. 74. 67. 52. 27. 17.
      11. 14. 37. 86. 6. 16. 23. 24. 26. 25. 22. 15. 24. 26. 24. 15. 11.
      8. 2. 2. 2. 2. 28. 29. 30. 30. 18. 16. 15. 18. 20. 21. 21. 21. 20.
      14. 10. 1. 2. 1. 5. 6. 6. 5. 3. 1. 1. 6. 14. 16. 19. 21. 22. 22.
      21. 19. 18. 18. 22. 19. 18. 15. 8. 1. 1. 1. 5. 10. 15. 20. 23. 25.
      23. 21. 24. 27. 27. 19. 13. 8. 2. 0. 0. 0. 3. 20. 23. 24. 25. 24.
      20. 18. 17. 16. 17. 22. 21. 18. 16. 6. 2. 3. 8. 16. 23. 27. 28.
      26. 23. 19. 17. 19. 20. 22. 19. 14. 10. 5. 0. 0. 0. 6. 10. 15. 20.
      25. 22. 20. 18. 18. 17. 18. 20. 18. 15. 10. 0. 0. 1. 36.</_>
    <_>
      26. 21. 20. 20. 36. 55. 62. 69. 72. 69. 56. 52. 47. 41. 42. 41.
      43. 54. 69. 74. 75. 76. 75. 59. 55. 53. 51. 49. 47. 46. 54. 58.
      76. 71. 63. 50. 22. 2. 0. 0. 2. 8. 13. 21. 23. 26. 20. 13. 17. 27.
      25. 16. 10. 7. 1. 0. 0. 0. 31. 32. 32. 32. 15. 14. 14. 19. 20. 20.
      19. 19. 19. 14. 11. 1. 0. 2. 5. 5. 6. 4. 0. 0. 0. 14. 19. 25. 27.
      22. 22. 18. 18. 17. 18. 19. 17. 12. 8. 0. 0. 0. 0. 16. 25. 29. 30.
      25. 18. 15. 15. 17. 26. 30. 28. 22. 14. 0. 0. 0. 0. 13. 18. 22.
      22. 19. 21. 19. 19. 21. 22. 22. 19. 13. 9. 1. 0. 5. 5. 6. 7. 7. 8.
      36. 36. 34. 32. 31. 0. 0. 0. 0. 0. 0. 0. 0. 14. 23. 28. 30. 26.
      18. 14. 14. 14. 16. 26. 28. 22. 13. 0. 0. 0. 21.</_>
    <_>
      77. 133. 119. 102. 100. 91. 91. 94. 81. 63. 49. 46. 46. 44. 54.
      65. 65. 66. 62. 63. 69. 79. 77. 80. 85. 82. 81. 73. 70. 70. 63.
      69. 60. 54. 65. 95. 11. 20. 23. 27. 30. 34. 34. 34. 34. 25. 17.
      13. 13. 14. 17. 18. 20. 15. 5. 26. 30. 15. 9. 9. 10. 17. 20. 13.
      10. 10. 21. 26. 32. 34. 23. 11. 6. 5. 21. 27. 24. 25. 24. 23. 29.
      30. 28. 33. 25. 22. 20. 20. 20. 25. 25. 11. 10. 11. 9. 24. 24. 25.
      24. 17. 10. 11. 16. 25. 34. 32. 26. 24. 22. 23. 11. 15. 16. 10.
      24. 26. 26. 32. 32. 31. 25. 23. 19. 15. 16. 17. 13. 14. 14. 14.
      16. 22. 28. 32. 30. 22. 18. 18. 19. 19. 14. 14. 13. 10. 12. 13.
      17. 28. 28. 19. 19. 14. 11. 15. 12. 10. 8. 10. 9. 10. 12. 16. 16.
      5. 6. 28. 36. 34. 35. 25. 16. 21.</_>
    <_>
      127. 112. 90. 71. 56. 51. 52. 50. 53. 59. 58. 58. 64. 63. 66. 69.
      61. 62. 62. 60. 61. 67. 66. 60. 57. 63. 61. 61. 63. 63. 69. 70.
      81. 84. 85. 76. 5. 35. 36. 36. 23. 13. 14. 15. 9. 16. 18. 20. 6.
      7. 11. 22. 26. 22. 28. 34. 32. 5. 5. 5. 5. 27. 29. 29. 23. 25. 26.
      15. 5. 7. 7. 9. 36. 36. 31. 8. 5. 14. 20. 24. 33. 31. 4. 4. 4. 2.
      18. 24. 25. 21. 19. 11. 8. 11. 17. 24. 27. 29. 20. 7. 7. 6. 8. 31.
      35. 5. 3. 3. 4. 9. 36. 34. 28. 11. 12. 21. 19. 19. 10. 10. 15. 16.
      20. 20. 13. 14. 10. 10. 17. 20. 20. 16. 14. 17. 26. 8. 11. 12. 28.
      36. 36. 14. 7. 7. 7. 20. 36. 34. 23. 6. 10. 19. 26. 26. 17. 13. 8.
      7. 13. 15. 20. 21. 18. 20. 16. 20. 23. 28. 36. 36. 32. 0.</_>
    <_>
      87. 28. 18. 17. 27. 39. 49. 58. 62. 56. 55. 61. 62. 64. 58. 56.
      54. 60. 61. 69. 68. 66. 62. 55. 56. 61. 63. 67. 71. 69. 64. 63.
      57. 54. 48. 32. 18. 2. 1. 1. 4. 9. 17. 21. 26. 22. 16. 11. 23. 25.
      22. 14. 10. 4. 1. 1. 1. 10. 29. 29. 28. 14. 10. 11. 14. 17. 19.
      23. 36. 36. 36. 36. 10. 1. 1. 2. 5. 5. 4. 1. 1. 1. 1. 9. 17. 26.
      30. 28. 24. 19. 20. 23. 21. 18. 13. 10. 5. 1. 1. 0. 27. 30. 31.
      28. 11. 9. 11. 13. 19. 25. 25. 20. 16. 7. 5. 0. 0. 4. 8. 11. 16.
      23. 21. 18. 19. 21. 20. 21. 23. 21. 18. 12. 2. 0. 0. 8. 11. 12.
      13. 13. 13. 23. 26. 27. 28. 29. 17. 12. 10. 5. 0. 0. 0. 19. 25.
      27. 28. 18. 12. 11. 11. 11. 10. 11. 27. 26. 22. 17. 0. 0. 10. 36.</_>
    <_>
      38. 29. 24. 18. 21. 50. 62. 60. 48. 46. 48. 43. 41. 42. 38. 38.
      46. 51. 53. 46. 42. 44. 45. 46. 48. 52. 56. 79. 78. 66. 18. 13.
      24. 27. 26. 58. 12. 10. 10. 12. 12. 12. 12. 15. 17. 18. 11. 22. 1.
      0. 0. 13. 18. 12. 5. 20. 21. 16. 10. 10. 6. 12. 12. 1. 1. 1. 23.
      26. 26. 16. 8. 8. 9. 13. 16. 17. 32. 29. 26. 4. 2. 0. 2. 4. 4. 0.
      0. 0. 2. 8. 12. 13. 15. 12. 13. 12. 12. 13. 16. 15. 11. 5. 0. 0.
      0. 8. 11. 13. 15. 13. 13. 13. 13. 14. 16. 15. 11. 2. 0. 0. 0. 11.
      16. 18. 15. 15. 12. 11. 11. 12. 16. 12. 9. 0. 1. 2. 6. 13. 14. 16.
      19. 18. 14. 11. 13. 25. 26. 25. 3. 1. 0. 0. 0. 19. 23. 24. 8. 6.
      7. 7. 6. 8. 24. 23. 19. 0. 0. 0. 36. 36. 35. 15.</_>
    <_>
      101. 102. 82. 61. 53. 45. 44. 41. 38. 46. 44. 55. 56. 54. 52. 50.
      48. 48. 49. 42. 45. 42. 38. 39. 38. 35. 36. 46. 52. 62. 75. 86.
      97. 103. 110. 122. 36. 36. 25. 19. 21. 34. 30. 16. 6. 3. 4. 3. 5.
      4. 5. 4. 4. 5. 14. 20. 26. 35. 36. 18. 2. 1. 0. 3. 5. 13. 19. 20.
      20. 20. 6. 4. 4. 4. 4. 15. 31. 36. 25. 17. 20. 25. 32. 31. 15. 9.
      2. 0. 0. 19. 25. 19. 19. 21. 7. 0. 0. 1. 4. 14. 36. 34. 32. 22.
      11. 8. 7. 8. 8. 9. 9. 12. 12. 14. 19. 24. 27. 36. 33. 32. 22. 15.
      14. 16. 17. 13. 10. 6. 5. 5. 11. 18. 22. 26. 26. 33. 36. 26. 18.
      15. 12. 9. 8. 7. 12. 11. 12. 10. 14. 19. 22. 22. 27. 35. 27. 17.
      10. 9. 7. 8. 6. 7. 12. 11. 7. 7. 7. 7. 14. 23. 34. 36.</_>
    <_>
      66. 64. 60. 54. 51. 47. 43. 44. 45. 56. 70. 72. 73. 66. 63. 66.
      64. 71. 75. 83. 81. 78. 74. 69. 59. 63. 66. 63. 65. 62. 62. 61.
      59. 69. 79. 86. 0. 16. 36. 36. 36. 28. 15. 5. 6. 4. 12. 16. 16.
      15. 8. 8. 7. 20. 20. 24. 22. 27. 20. 13. 12. 9. 10. 8. 17. 16. 20.
      14. 17. 20. 22. 32. 30. 27. 29. 22. 6. 3. 7. 21. 23. 24. 18. 0. 0.
      1. 7. 15. 16. 14. 9. 6. 15. 16. 22. 18. 20. 23. 27. 34. 33. 7. 5.
      5. 13. 16. 16. 16. 16. 15. 12. 9. 8. 14. 35. 33. 33. 30. 23. 15.
      9. 11. 11. 10. 12. 10. 10. 11. 9. 9. 10. 21. 36. 36. 29. 28. 26.
      28. 27. 28. 25. 11. 11. 11. 23. 22. 20. 16. 16. 15. 15. 14. 18.
      19. 17. 15. 18. 16. 9. 8. 6. 14. 15. 20. 23. 21. 26. 33. 27. 19.
      21. 0.</_>
    <_>
      41. 13. 30. 96. 95. 116. 132. 120. 117. 86. 79. 73. 58. 73. 79.
      78. 77. 90. 81. 76. 68. 70. 79. 87. 81. 83. 79. 76. 83. 86. 75.
      71. 73. 83. 78. 76. 19. 18. 16. 15. 17. 15. 14. 16. 12. 15. 19.
      14. 14. 26. 30. 32. 33. 35. 35. 36. 36. 31. 33. 4. 2. 30. 13. 6.
      9. 10. 9. 7. 10. 16. 16. 14. 20. 33. 33. 14. 10. 9. 24. 25. 26.
      27. 22. 18. 21. 25. 34. 34. 31. 29. 27. 33. 32. 31. 17. 13. 7. 15.
      22. 19. 16. 17. 21. 28. 34. 34. 30. 13. 10. 12. 22. 21. 21. 19.
      13. 16. 21. 34. 33. 32. 14. 12. 10. 20. 20. 21. 19. 13. 16. 19.
      33. 34. 31. 24. 19. 15. 20. 20. 19. 17. 12. 15. 19. 31. 32. 32.
      25. 17. 12. 18. 17. 16. 13. 8. 10. 12. 19. 15. 0. 13. 35. 36. 36.
      36. 34. 34. 34. 29. 26. 17. 20. 14.</_>
    <_>
      62. 69. 63. 38. 28. 33. 35. 36. 34. 35. 36. 37. 35. 35. 39. 40.
      40. 46. 44. 40. 39. 34. 35. 36. 33. 34. 33. 39. 43. 43. 45. 39.
      37. 47. 59. 56. 11. 17. 11. 7. 6. 24. 25. 19. 9. 9. 3. 5. 11. 15.
      8. 0. 0. 0. 2. 27. 36. 36. 7. 4. 4. 5. 5. 5. 5. 7. 16. 36. 33. 27.
      7. 0. 0. 0. 2. 4. 4. 2. 0. 0. 0. 0. 4. 10. 14. 18. 17. 16. 16. 14.
      14. 14. 14. 15. 20. 17. 13. 6. 0. 0. 0. 0. 6. 8. 11. 14. 14. 14.
      15. 15. 18. 36. 36. 36. 36. 6. 1. 0. 0. 0. 0. 0. 3. 3. 3. 3. 3.
      12. 19. 25. 28. 21. 18. 16. 10. 7. 0. 0. 0. 0. 0. 5. 9. 11. 9. 11.
      12. 13. 15. 17. 20. 20. 28. 23. 17. 2. 0. 0. 0. 0. 20. 29. 32. 20.
      7. 6. 6. 6. 6. 6. 7. 7.</_>
    <_>
      71. 63. 57. 54. 49. 50. 54. 69. 72. 74. 72. 71. 71. 69. 65. 67.
      64. 65. 62. 66. 70. 70. 70. 73. 71. 70. 69. 69. 65. 64. 52. 43.
      46. 54. 56. 62. 17. 5. 3. 1. 3. 2. 6. 8. 0. 0. 3. 18. 20. 26. 36.
      36. 36. 35. 27. 21. 15. 8. 4. 4. 9. 12. 3. 3. 1. 8. 16. 24. 27.
      34. 36. 36. 36. 36. 36. 35. 33. 36. 36. 11. 4. 2. 0. 0. 20. 25.
      24. 23. 23. 23. 16. 0. 0. 2. 4. 12. 36. 36. 32. 27. 25. 25. 26.
      30. 31. 26. 30. 21. 30. 27. 0. 0. 1. 3. 17. 36. 36. 30. 23. 19.
      12. 9. 12. 12. 11. 8. 9. 9. 9. 9. 10. 15. 22. 36. 36. 36. 14. 3.
      1. 0. 5. 23. 25. 25. 24. 25. 23. 17. 0. 0. 3. 7. 21. 36. 36. 8. 5.
      2. 1. 3. 23. 25. 25. 24. 23. 21. 3. 0. 0. 2. 7. 27.</_>
    <_>
      128. 24. 50. 103. 63. 37. 32. 26. 36. 43. 42. 56. 54. 56. 54. 54.
      61. 59. 53. 54. 47. 54. 66. 70. 71. 65. 60. 43. 43. 50. 60. 65.
      82. 69. 56. 71. 36. 2. 0. 33. 27. 10. 6. 6. 12. 20. 11. 10. 12.
      19. 19. 16. 12. 9. 9. 26. 27. 27. 3. 4. 5. 8. 24. 24. 22. 23. 26.
      26. 25. 11. 11. 11. 12. 36. 35. 33. 23. 8. 4. 3. 12. 18. 16. 11.
      10. 11. 14. 14. 14. 13. 15. 15. 14. 14. 18. 21. 19. 24. 23. 24.
      17. 15. 7. 6. 10. 8. 10. 12. 16. 15. 14. 13. 17. 17. 21. 18. 19.
      9. 2. 2. 20. 26. 19. 3. 4. 2. 3. 27. 27. 18. 11. 4. 7. 16. 22. 23.
      17. 15. 15. 15. 18. 20. 22. 20. 17. 10. 9. 11. 13. 25. 24. 23. 7.
      6. 6. 4. 18. 22. 23. 15. 16. 21. 14. 4. 3. 6. 8. 25. 18. 1. 4. 36.</_>
    <_>
      20. 19. 17. 55. 74. 86. 94. 66. 58. 57. 56. 50. 50. 53. 55. 51.
      56. 52. 51. 48. 44. 42. 43. 46. 47. 48. 48. 59. 77. 77. 70. 51. 4.
      10. 15. 20. 29. 0. 0. 0. 11. 20. 18. 9. 16. 22. 20. 14. 10. 9. 8.
      12. 11. 2. 0. 0. 4. 27. 29. 29. 18. 7. 7. 7. 10. 11. 14. 16. 32.
      29. 25. 22. 19. 21. 23. 21. 15. 12. 10. 9. 1. 3. 8. 12. 15. 16.
      17. 15. 15. 15. 16. 17. 19. 18. 15. 8. 0. 0. 0. 4. 9. 14. 19. 15.
      16. 14. 14. 17. 17. 19. 18. 15. 9. 0. 0. 0. 4. 7. 12. 14. 16. 17.
      16. 15. 15. 17. 15. 19. 16. 15. 9. 2. 0. 2. 9. 10. 10. 10. 10. 15.
      20. 20. 24. 22. 17. 12. 9. 7. 2. 0. 0. 0. 16. 22. 23. 22. 15. 12.
      12. 12. 12. 13. 20. 18. 15. 4. 0. 0. 14. 36. 36. 21.</_>
    <_>
      114. 4. 12. 16. 60. 127. 120. 64. 57. 55. 50. 54. 66. 69. 70. 71.
      67. 59. 67. 70. 72. 81. 79. 71. 79. 79. 71. 70. 76. 86. 123. 128.
      116. 27. 24. 27. 36. 36. 34. 30. 5. 2. 13. 27. 20. 12. 8. 9. 9.
      12. 14. 17. 9. 10. 11. 21. 23. 26. 29. 30. 7. 6. 6. 6. 14. 22. 22.
      21. 24. 23. 10. 11. 13. 15. 18. 29. 27. 20. 18. 19. 21. 24. 25.
      25. 20. 17. 14. 12. 13. 15. 15. 16. 16. 14. 13. 16. 15. 21. 28.
      28. 24. 20. 19. 18. 14. 16. 17. 15. 13. 11. 8. 10. 13. 17. 26. 28.
      27. 24. 19. 27. 27. 21. 6. 6. 6. 8. 28. 30. 30. 29. 28. 28. 30.
      12. 9. 8. 9. 15. 27. 27. 25. 24. 22. 10. 7. 7. 8. 9. 30. 30. 29.
      26. 27. 27. 23. 6. 6. 6. 5. 18. 26. 23. 9. 18. 19. 1. 3. 5. 34.
      34. 36. 36.</_>
    <_>
      109. 107. 21. 20. 36. 50. 53. 53. 55. 43. 45. 55. 63. 59. 60. 66.
      63. 60. 65. 58. 58. 68. 70. 66. 65. 65. 83. 73. 68. 74. 70. 72.
      56. 44. 58. 83. 15. 16. 9. 11. 12. 9. 12. 10. 8. 5. 9. 11. 28. 30.
      30. 32. 32. 32. 33. 34. 35. 35. 3. 1. 20. 2. 3. 5. 5. 7. 14. 4. 6.
      19. 19. 18. 28. 18. 4. 5. 18. 22. 19. 16. 16. 18. 19. 21. 27. 27.
      9. 9. 7. 8. 19. 13. 7. 6. 14. 17. 19. 17. 13. 8. 16. 25. 23. 16.
      12. 13. 11. 11. 11. 13. 10. 13. 15. 17. 24. 30. 7. 6. 7. 23. 25.
      15. 20. 23. 4. 4. 12. 34. 34. 27. 22. 18. 21. 23. 22. 19. 12. 9.
      11. 24. 24. 16. 13. 8. 9. 8. 8. 9. 8. 6. 4. 5. 12. 1. 4. 34. 36.
      34. 32. 33. 34. 32. 30. 31. 27. 12. 13. 11. 11. 9. 8. 12.</_>
    <_>
      75. 70. 94. 129. 131. 112. 85. 75. 59. 38. 35. 44. 49. 53. 60. 54.
      60. 68. 66. 63. 63. 78. 78. 77. 78. 75. 60. 53. 46. 50. 59. 99.
      98. 88. 52. 62. 33. 36. 36. 9. 1. 0. 16. 8. 3. 4. 6. 8. 12. 8. 8.
      17. 22. 30. 30. 6. 7. 8. 11. 28. 28. 29. 21. 8. 9. 10. 14. 36. 34.
      22. 17. 22. 25. 22. 18. 15. 12. 14. 13. 13. 9. 12. 16. 23. 33. 32.
      6. 8. 7. 10. 22. 22. 24. 22. 21. 20. 27. 29. 34. 23. 17. 11. 12.
      14. 12. 12. 10. 11. 18. 22. 32. 36. 27. 22. 21. 19. 18. 17. 19.
      14. 13. 14. 18. 32. 28. 17. 11. 7. 7. 11. 13. 12. 7. 5. 7. 17. 17.
      2. 13. 36. 33. 30. 30. 30. 30. 30. 29. 29. 28. 25. 21. 19. 19. 19.
      23. 24. 23. 21. 21. 22. 21. 22. 22. 23. 23. 19. 20. 20. 22. 20.
      19. 19.</_>
    <_>
      111. 80. 38. 32. 19. 19. 27. 36. 47. 60. 57. 57. 55. 52. 51. 48.
      46. 50. 51. 56. 56. 54. 54. 54. 52. 54. 56. 54. 55. 63. 76. 84.
      88. 81. 65. 44. 24. 4. 4. 4. 5. 16. 16. 12. 15. 28. 25. 15. 19.
      27. 26. 24. 21. 3. 2. 2. 2. 3. 6. 10. 18. 24. 26. 23. 27. 28. 30.
      27. 26. 23. 19. 15. 3. 2. 2. 4. 6. 6. 4. 2. 2. 2. 11. 21. 28. 28.
      26. 18. 14. 14. 14. 17. 23. 27. 26. 17. 8. 2. 2. 5. 20. 24. 26.
      28. 13. 11. 11. 10. 10. 12. 18. 18. 16. 14. 6. 1. 1. 1. 10. 13.
      15. 18. 19. 20. 20. 19. 19. 21. 22. 19. 16. 13. 5. 1. 2. 5. 14.
      19. 23. 24. 26. 24. 17. 16. 18. 20. 20. 18. 15. 8. 3. 0. 0. 0. 8.
      11. 13. 19. 18. 18. 18. 22. 27. 28. 28. 22. 18. 11. 1. 0. 1. 24.</_>
    <_>
      59. 66. 70. 56. 40. 36. 35. 37. 37. 37. 33. 37. 38. 42. 45. 49.
      46. 45. 46. 43. 40. 37. 35. 35. 35. 31. 33. 35. 36. 34. 35. 39.
      52. 68. 69. 57. 7. 22. 17. 7. 2. 20. 29. 23. 12. 10. 6. 6. 15. 15.
      0. 0. 0. 0. 11. 36. 36. 27. 7. 6. 5. 5. 6. 7. 8. 11. 35. 33. 28.
      9. 0. 0. 0. 3. 5. 3. 0. 0. 0. 0. 0. 8. 11. 11. 13. 11. 14. 15. 16.
      19. 19. 20. 26. 21. 14. 0. 0. 0. 0. 10. 28. 32. 19. 10. 8. 6. 6.
      6. 8. 9. 13. 32. 29. 24. 0. 0. 0. 0. 4. 10. 14. 15. 16. 15. 14.
      15. 15. 15. 17. 21. 17. 13. 4. 0. 0. 0. 0. 7. 12. 14. 16. 17. 14.
      16. 14. 14. 17. 18. 21. 17. 11. 0. 0. 0. 0. 2. 12. 15. 17. 14. 14.
      13. 14. 16. 18. 20. 23. 23. 17. 7. 0. 0.</_>
    <_>
      63. 69. 74. 76. 57. 50. 47. 45. 44. 41. 36. 37. 41. 46. 49. 55.
      59. 64. 65. 60. 55. 50. 51. 53. 49. 48. 47. 48. 51. 51. 52. 57.
      66. 65. 60. 55. 20. 19. 13. 10. 14. 24. 24. 0. 0. 0. 0. 0. 26. 31.
      34. 35. 13. 9. 9. 8. 8. 9. 12. 18. 21. 22. 20. 14. 0. 0. 0. 0. 5.
      7. 5. 0. 0. 0. 0. 30. 36. 36. 36. 35. 12. 11. 12. 14. 21. 27. 36.
      27. 21. 12. 5. 0. 0. 0. 0. 0. 3. 4. 4. 4. 4. 21. 25. 28. 30. 34.
      25. 19. 13. 10. 5. 0. 0. 0. 0. 6. 21. 32. 34. 29. 20. 16. 13. 12.
      16. 18. 29. 34. 29. 20. 4. 0. 0. 0. 0. 18. 26. 27. 27. 20. 16. 15.
      14. 12. 14. 16. 21. 25. 23. 18. 3. 0. 0. 0. 0. 15. 20. 25. 24. 21.
      21. 22. 19. 17. 17. 19. 23. 16. 12. 7. 0. 0.</_>
    <_>
      21. 21. 42. 55. 65. 71. 71. 69. 60. 55. 52. 55. 58. 58. 63. 62.
      68. 65. 69. 69. 63. 52. 47. 45. 45. 49. 51. 52. 54. 54. 56. 61.
      65. 58. 57. 45. 21. 0. 0. 1. 17. 25. 17. 5. 9. 26. 24. 14. 11. 11.
      9. 14. 14. 11. 0. 0. 0. 32. 33. 33. 33. 13. 12. 14. 15. 18. 22.
      29. 36. 34. 28. 15. 0. 0. 0. 2. 4. 6. 4. 0. 0. 0. 23. 28. 30. 33.
      14. 12. 15. 17. 18. 17. 19. 32. 32. 30. 21. 0. 0. 0. 0. 0. 0. 0.
      0. 22. 34. 34. 34. 34. 1. 1. 2. 3. 0. 0. 0. 0. 8. 13. 20. 25. 23.
      19. 19. 20. 22. 22. 23. 24. 20. 15. 4. 0. 0. 0. 8. 21. 28. 34. 23.
      18. 15. 16. 16. 19. 25. 30. 27. 20. 11. 7. 4. 6. 6. 13. 16. 20.
      21. 17. 16. 15. 15. 17. 24. 23. 21. 16. 10. 5. 8. 17.</_>
    <_>
      4. 10. 30. 49. 106. 118. 110. 104. 90. 76. 72. 73. 74. 76. 70. 60.
      62. 61. 62. 66. 73. 81. 84. 86. 85. 82. 84. 90. 97. 105. 116. 110.
      100. 70. 52. 42. 12. 11. 10. 9. 9. 9. 9. 13. 31. 32. 32. 32. 32.
      30. 31. 30. 16. 9. 10. 11. 16. 18. 12. 9. 13. 23. 28. 31. 31. 31.
      10. 10. 10. 26. 26. 24. 25. 21. 19. 5. 6. 11. 30. 31. 31. 24. 24.
      29. 30. 30. 12. 9. 9. 17. 26. 26. 25. 26. 25. 10. 11. 12. 27. 32.
      30. 26. 18. 17. 16. 14. 15. 14. 16. 17. 16. 21. 28. 32. 30. 29.
      15. 11. 11. 16. 20. 19. 18. 17. 13. 14. 20. 29. 30. 29. 23. 19.
      17. 19. 14. 13. 14. 16. 13. 15. 19. 26. 30. 30. 30. 27. 25. 25.
      25. 24. 12. 8. 8. 16. 21. 25. 30. 30. 12. 8. 32. 32. 36. 33. 15.
      15. 15. 15. 15. 15. 17. 16.</_>
    <_>
      121. 122. 126. 123. 112. 98. 72. 52. 47. 52. 61. 55. 63. 72. 73.
      68. 73. 74. 68. 51. 47. 43. 37. 46. 62. 69. 70. 69. 68. 58. 52.
      49. 53. 60. 73. 90. 36. 28. 13. 9. 8. 10. 6. 7. 6. 7. 13. 19. 19.
      16. 18. 18. 18. 33. 34. 33. 28. 22. 17. 14. 10. 10. 16. 18. 11. 7.
      7. 9. 16. 23. 29. 31. 35. 34. 33. 28. 28. 24. 25. 30. 31. 21. 17.
      12. 9. 7. 10. 19. 22. 22. 23. 16. 10. 9. 10. 16. 23. 36. 36. 31.
      6. 6. 6. 6. 10. 31. 31. 31. 31. 31. 29. 8. 6. 6. 6. 9. 31. 34. 34.
      20. 13. 9. 7. 11. 17. 21. 21. 20. 16. 9. 8. 10. 16. 24. 36. 36.
      36. 24. 16. 13. 11. 9. 13. 16. 19. 17. 17. 15. 13. 16. 20. 23. 28.
      30. 30. 30. 19. 14. 11. 10. 12. 10. 8. 12. 17. 16. 11. 13. 14. 23.
      28. 33.</_>
    <_>
      80. 26. 24. 24. 22. 48. 68. 76. 76. 64. 61. 61. 62. 61. 67. 66.
      69. 71. 68. 61. 59. 59. 61. 65. 63. 70. 82. 79. 68. 52. 14. 18.
      24. 24. 33. 109. 30. 33. 36. 36. 36. 36. 36. 14. 2. 0. 0. 0. 8.
      17. 13. 7. 18. 19. 15. 11. 9. 8. 14. 13. 6. 2. 1. 24. 26. 26. 25.
      9. 8. 9. 15. 19. 19. 33. 32. 29. 12. 2. 3. 2. 7. 6. 4. 2. 1. 1.
      21. 24. 25. 14. 12. 10. 10. 10. 12. 26. 24. 21. 16. 1. 2. 3. 7. 9.
      12. 14. 14. 12. 12. 17. 26. 27. 27. 11. 2. 1. 2. 2. 22. 24. 26.
      12. 9. 8. 8. 10. 11. 24. 22. 21. 10. 1. 2. 7. 26. 30. 31. 26. 19.
      16. 13. 12. 15. 19. 17. 14. 4. 1. 1. 2. 16. 22. 25. 21. 13. 10. 9.
      13. 19. 22. 19. 9. 0. 0. 2. 16. 25. 36. 36. 36. 33. 30.</_>
    <_>
      27. 39. 48. 46. 38. 39. 41. 39. 36. 37. 37. 35. 40. 45. 46. 50.
      49. 46. 47. 38. 40. 35. 34. 36. 38. 37. 43. 46. 52. 59. 54. 52.
      45. 40. 21. 6. 0. 0. 0. 7. 9. 14. 5. 7. 12. 23. 13. 9. 11. 6. 6.
      13. 12. 0. 0. 0. 3. 25. 34. 34. 15. 11. 11. 11. 11. 13. 15. 21.
      31. 23. 13. 0. 0. 0. 0. 1. 3. 2. 0. 0. 0. 0. 22. 28. 31. 17. 9.
      10. 12. 14. 16. 15. 16. 33. 30. 24. 0. 0. 0. 0. 3. 8. 10. 9. 12.
      13. 15. 18. 21. 23. 25. 26. 23. 12. 0. 0. 0. 0. 0. 0. 0. 0. 0. 27.
      35. 35. 33. 3. 0. 0. 0. 0. 0. 0. 0. 0. 4. 7. 11. 13. 15. 15. 13.
      13. 20. 33. 34. 34. 8. 1. 0. 0. 0. 0. 3. 10. 14. 13. 12. 13. 15.
      15. 17. 18. 16. 20. 15. 7. 0. 0. 0. 0.</_>
    <_>
      91. 39. 24. 22. 23. 57. 67. 74. 81. 67. 61. 58. 54. 58. 67. 63.
      68. 72. 66. 61. 60. 58. 57. 63. 65. 67. 72. 73. 66. 53. 38. 18.
      18. 18. 18. 128. 25. 35. 36. 16. 2. 0. 1. 8. 15. 21. 25. 23. 18.
      15. 26. 28. 25. 14. 12. 8. 2. 2. 3. 6. 7. 8. 6. 3. 2. 4. 13. 21.
      26. 28. 32. 31. 27. 23. 25. 21. 19. 14. 10. 4. 1. 2. 2. 6. 12. 14.
      20. 20. 18. 17. 16. 17. 19. 21. 20. 16. 12. 2. 2. 1. 5. 13. 12.
      12. 16. 16. 16. 17. 18. 20. 23. 24. 21. 16. 7. 2. 2. 2. 21. 24.
      26. 19. 12. 11. 10. 10. 11. 11. 25. 24. 22. 18. 1. 1. 7. 15. 22.
      26. 30. 31. 32. 22. 21. 23. 21. 19. 14. 8. 4. 1. 1. 1. 2. 10. 21.
      26. 22. 23. 20. 17. 19. 17. 16. 14. 8. 1. 1. 2. 13. 36. 36. 27.</_>
    <_>
      130. 131. 117. 95. 95. 74. 50. 42. 39. 39. 36. 35. 47. 53. 59. 60.
      56. 59. 58. 60. 59. 65. 60. 64. 60. 43. 41. 42. 45. 47. 41. 18. 9.
      12. 62. 136. 36. 28. 11. 5. 4. 6. 9. 27. 33. 21. 7. 4. 5. 9. 10.
      12. 7. 5. 6. 11. 18. 23. 33. 33. 32. 27. 22. 14. 10. 8. 10. 11.
      12. 9. 9. 12. 15. 18. 21. 29. 29. 29. 20. 17. 17. 12. 21. 22. 22.
      17. 15. 10. 7. 9. 17. 18. 15. 6. 9. 14. 18. 16. 18. 25. 27. 21.
      22. 22. 21. 18. 14. 12. 10. 4. 5. 14. 16. 13. 15. 23. 29. 25. 21.
      15. 13. 12. 13. 14. 13. 13. 10. 8. 9. 11. 14. 24. 32. 32. 24. 12.
      10. 9. 10. 14. 16. 16. 15. 7. 7. 8. 8. 18. 30. 30. 14. 8. 7. 7. 8.
      20. 17. 17. 17. 18. 7. 8. 8. 10. 6. 9. 4. 5. 17. 36. 36. 36.</_>
    <_>
      95. 112. 113. 112. 106. 92. 70. 52. 47. 43. 40. 40. 51. 61. 67.
      69. 68. 69. 62. 62. 63. 62. 62. 67. 67. 66. 70. 68. 69. 65. 65.
      60. 63. 69. 76. 85. 6. 5. 0. 0. 0. 0. 1. 1. 2. 2. 13. 26. 34. 35.
      35. 36. 35. 22. 11. 6. 8. 11. 14. 12. 6. 7. 10. 20. 24. 35. 35.
      35. 7. 6. 5. 5. 18. 20. 21. 17. 5. 2. 6. 10. 19. 36. 36. 36. 33.
      32. 35. 35. 31. 34. 26. 9. 5. 5. 17. 18. 16. 14. 11. 16. 7. 6. 22.
      29. 34. 35. 16. 7. 7. 7. 22. 25. 19. 17. 11. 6. 8. 9. 14. 36. 31.
      20. 13. 9. 7. 15. 24. 24. 23. 21. 18. 6. 8. 11. 15. 36. 36. 32.
      22. 25. 24. 27. 16. 11. 10. 5. 14. 19. 24. 27. 25. 30. 32. 25. 26.
      28. 30. 6. 6. 4. 4. 7. 36. 36. 36. 32. 36. 36. 36. 36. 16. 2.</_>
    <_>
      102. 74. 47. 41. 47. 53. 61. 70. 71. 78. 74. 70. 66. 65. 68. 68.
      74. 78. 75. 78. 72. 62. 56. 61. 69. 76. 87. 98. 51. 3. 2. 2. 2.
      13. 96. 136. 19. 30. 30. 28. 28. 30. 27. 10. 6. 4. 7. 11. 19. 18.
      10. 5. 6. 15. 20. 22. 27. 29. 27. 20. 16. 13. 13. 11. 13. 13. 12.
      8. 11. 12. 15. 20. 28. 24. 20. 19. 13. 11. 12. 18. 20. 22. 20. 16.
      12. 11. 10. 12. 16. 15. 15. 14. 9. 11. 12. 15. 29. 29. 29. 12. 10.
      6. 5. 17. 20. 18. 17. 20. 19. 8. 8. 10. 10. 23. 27. 26. 20. 14.
      10. 11. 12. 13. 12. 13. 13. 11. 10. 13. 17. 21. 29. 27. 24. 12. 9.
      13. 14. 15. 17. 13. 12. 13. 10. 7. 11. 12. 17. 26. 30. 26. 25. 16.
      17. 21. 20. 9. 9. 9. 7. 3. 18. 18. 21. 30. 31. 28. 13. 11. 27. 33.
      15. 15.</_>
    <_>
      78. 62. 45. 38. 36. 40. 60. 69. 75. 76. 79. 82. 76. 70. 64. 58.
      58. 56. 57. 58. 67. 76. 76. 76. 73. 71. 69. 67. 61. 50. 40. 38.
      47. 59. 70. 87. 36. 36. 22. 7. 3. 1. 3. 6. 14. 15. 8. 4. 7. 14.
      22. 36. 36. 36. 36. 7. 0. 0. 0. 0. 18. 20. 19. 19. 17. 16. 17. 16.
      19. 29. 31. 27. 19. 12. 10. 8. 7. 9. 13. 22. 30. 27. 21. 26. 24.
      26. 19. 17. 9. 6. 4. 2. 17. 20. 23. 26. 33. 36. 36. 15. 9. 5. 4.
      2. 21. 22. 24. 24. 23. 22. 2. 2. 4. 6. 10. 36. 36. 36. 30. 19. 16.
      14. 11. 11. 11. 14. 15. 14. 9. 9. 9. 17. 24. 36. 36. 36. 15. 6. 4.
      3. 8. 22. 23. 22. 19. 14. 10. 2. 2. 6. 12. 28. 36. 36. 27. 7. 5.
      2. 2. 21. 24. 26. 21. 12. 3. 3. 3. 5. 7. 23. 36. 36.</_>
    <_>
      72. 61. 54. 50. 53. 70. 71. 74. 77. 71. 70. 66. 67. 61. 50. 50.
      57. 58. 65. 72. 77. 74. 78. 78. 74. 75. 74. 73. 71. 70. 68. 59.
      55. 55. 65. 72. 25. 15. 7. 7. 9. 6. 14. 22. 22. 14. 4. 4. 20. 25.
      27. 33. 36. 36. 33. 1. 0. 0. 0. 14. 32. 28. 18. 6. 16. 22. 24. 18.
      16. 13. 11. 19. 23. 28. 17. 8. 6. 9. 12. 24. 36. 36. 0. 0. 0. 0.
      9. 23. 25. 23. 21. 21. 24. 24. 14. 0. 0. 0. 14. 36. 36. 36. 24.
      10. 6. 5. 10. 18. 20. 18. 17. 19. 16. 11. 7. 10. 14. 20. 31. 31.
      31. 29. 17. 14. 14. 13. 16. 17. 17. 17. 18. 15. 12. 10. 9. 9. 18.
      30. 36. 36. 34. 21. 17. 17. 23. 31. 35. 22. 12. 8. 5. 8. 15. 20.
      19. 21. 28. 36. 33. 31. 28. 16. 15. 16. 36. 34. 1. 0. 0. 0. 2. 36.</_>
    <_>
      84. 66. 57. 50. 49. 49. 52. 55. 65. 71. 73. 72. 71. 65. 67. 63.
      63. 64. 61. 66. 66. 70. 73. 78. 79. 76. 77. 75. 74. 66. 59. 59.
      59. 65. 74. 84. 36. 18. 4. 2. 1. 2. 3. 3. 3. 2. 2. 5. 9. 28. 36.
      36. 36. 36. 2. 0. 0. 0. 15. 17. 17. 17. 17. 16. 7. 5. 6. 12. 23.
      36. 33. 26. 18. 22. 21. 25. 36. 36. 33. 26. 22. 25. 23. 22. 0. 7.
      8. 7. 6. 23. 24. 25. 29. 36. 36. 36. 33. 1. 0. 0. 1. 22. 28. 26.
      22. 12. 2. 0. 8. 16. 26. 36. 36. 36. 32. 24. 20. 26. 28. 27. 17.
      10. 8. 5. 3. 13. 19. 22. 26. 30. 36. 36. 34. 22. 8. 5. 4. 9. 17.
      18. 18. 15. 10. 0. 2. 5. 17. 36. 36. 36. 36. 10. 4. 2. 3. 21. 22.
      22. 21. 21. 20. 0. 1. 4. 10. 19. 36. 27. 0. 10. 36. 36.</_>
    <_>
      50. 49. 58. 99. 112. 83. 67. 58. 44. 41. 60. 63. 69. 72. 61. 55.
      55. 55. 52. 52. 58. 57. 55. 59. 54. 40. 38. 52. 59. 81. 103. 84.
      45. 48. 49. 46. 32. 15. 7. 5. 15. 27. 26. 19. 11. 7. 6. 7. 7. 11.
      12. 9. 7. 8. 14. 19. 21. 30. 31. 33. 27. 22. 14. 12. 14. 11. 10.
      6. 6. 3. 5. 9. 15. 20. 31. 34. 33. 30. 25. 24. 23. 22. 19. 11. 10.
      10. 11. 11. 15. 18. 26. 28. 27. 8. 9. 7. 9. 12. 22. 29. 26. 20.
      20. 19. 16. 17. 17. 15. 7. 3. 3. 2. 2. 10. 29. 33. 35. 30. 24. 23.
      16. 13. 11. 12. 13. 13. 11. 7. 7. 11. 13. 19. 30. 31. 25. 19. 13.
      14. 13. 12. 9. 13. 16. 17. 15. 16. 17. 20. 23. 33. 33. 26. 14. 8.
      6. 6. 8. 13. 13. 13. 12. 4. 5. 7. 9. 15. 26. 14. 0. 2. 23. 36.</_>
    <_>
      27. 35. 46. 50. 48. 44. 37. 39. 49. 47. 46. 50. 50. 56. 50. 53.
      46. 45. 43. 38. 41. 39. 49. 54. 57. 54. 45. 36. 38. 37. 27. 16. 8.
      7. 9. 15. 0. 0. 0. 8. 19. 18. 10. 5. 24. 22. 17. 8. 8. 6. 5. 12.
      12. 0. 0. 0. 2. 30. 31. 31. 8. 6. 7. 8. 10. 10. 11. 16. 31. 29.
      24. 2. 0. 0. 0. 3. 3. 3. 0. 0. 0. 0. 5. 8. 10. 12. 13. 13. 13. 13.
      15. 31. 32. 32. 27. 4. 2. 0. 0. 0. 4. 6. 8. 11. 11. 13. 12. 12.
      16. 29. 31. 31. 25. 4. 0. 0. 0. 0. 2. 9. 12. 16. 14. 15. 15. 15.
      16. 16. 18. 20. 17. 13. 2. 0. 0. 2. 4. 4. 4. 6. 6. 25. 31. 31. 30.
      13. 0. 0. 0. 0. 0. 0. 0. 0. 0. 8. 13. 17. 15. 13. 12. 13. 14. 16.
      15. 20. 17. 12. 3. 0. 0. 5.</_>
    <_>
      125. 116. 106. 113. 92. 76. 47. 45. 43. 39. 46. 48. 60. 64. 80.
      88. 93. 92. 87. 75. 60. 62. 61. 65. 74. 78. 78. 75. 70. 70. 68.
      60. 53. 59. 69. 90. 27. 14. 12. 10. 11. 13. 15. 20. 20. 8. 8. 13.
      20. 24. 25. 29. 34. 34. 35. 25. 21. 18. 15. 14. 13. 18. 19. 18.
      14. 14. 16. 19. 24. 32. 36. 33. 29. 25. 28. 28. 24. 25. 23. 22.
      18. 14. 12. 11. 11. 13. 14. 18. 18. 18. 16. 14. 15. 16. 20. 24.
      30. 27. 25. 19. 19. 17. 16. 14. 15. 13. 12. 15. 24. 24. 5. 3. 4.
      5. 7. 32. 36. 36. 24. 22. 23. 21. 19. 19. 19. 18. 15. 14. 14. 10.
      13. 17. 27. 36. 36. 36. 36. 24. 20. 13. 12. 15. 16. 21. 21. 20.
      20. 18. 15. 21. 23. 27. 32. 30. 26. 19. 14. 11. 6. 11. 13. 14. 16.
      15. 16. 17. 15. 12. 16. 16. 18. 30.</_>
    <_>
      62. 66. 65. 62. 58. 60. 62. 68. 67. 74. 74. 82. 81. 81. 74. 68.
      65. 73. 73. 76. 76. 79. 76. 76. 73. 65. 62. 63. 67. 64. 71. 68.
      70. 73. 81. 90. 1. 36. 36. 36. 35. 36. 36. 30. 14. 9. 5. 8. 6. 15.
      21. 17. 5. 4. 8. 24. 27. 34. 35. 34. 13. 0. 0. 0. 10. 21. 22. 21.
      22. 24. 24. 16. 2. 2. 2. 21. 36. 35. 26. 20. 19. 17. 21. 36. 36.
      1. 0. 0. 0. 24. 28. 28. 27. 26. 25. 23. 0. 0. 0. 3. 36. 34. 33.
      25. 25. 24. 21. 22. 24. 15. 17. 26. 24. 1. 2. 3. 5. 36. 35. 36.
      33. 21. 17. 15. 17. 19. 19. 16. 14. 12. 9. 7. 10. 15. 25. 36. 36.
      36. 22. 16. 15. 17. 18. 19. 19. 21. 19. 2. 0. 0. 15. 31. 36. 33.
      36. 30. 17. 10. 4. 7. 17. 19. 21. 20. 16. 9. 4. 6. 13. 27. 35. 27.</_>
    <_>
      123. 103. 84. 60. 56. 61. 66. 72. 76. 68. 65. 63. 68. 63. 58. 48.
      51. 51. 58. 61. 59. 60. 65. 61. 63. 74. 89. 99. 92. 73. 51. 32.
      26. 30. 50. 92. 12. 33. 30. 14. 14. 18. 20. 6. 7. 24. 17. 10. 9.
      10. 12. 32. 29. 27. 12. 8. 7. 22. 24. 25. 27. 25. 19. 15. 20. 22.
      25. 32. 27. 14. 13. 12. 21. 23. 28. 28. 17. 10. 7. 10. 15. 19. 20.
      20. 14. 8. 10. 15. 26. 32. 29. 22. 18. 17. 12. 15. 16. 17. 16. 12.
      10. 10. 15. 25. 24. 23. 21. 23. 21. 21. 25. 12. 6. 7. 5. 29. 27.
      18. 18. 20. 22. 25. 25. 20. 20. 19. 16. 16. 14. 13. 15. 8. 10. 12.
      20. 26. 29. 29. 13. 8. 8. 17. 22. 20. 19. 15. 15. 7. 4. 5. 23. 29.
      18. 0. 2. 10. 24. 36. 36. 30. 23. 10. 10. 10. 10. 10. 10. 9. 8. 7.
      9. 25.</_>
    <_>
      63. 87. 70. 58. 54. 75. 111. 106. 90. 72. 58. 53. 65. 71. 82. 84.
      90. 91. 77. 66. 66. 73. 75. 87. 83. 77. 74. 67. 71. 68. 61. 58.
      67. 75. 79. 71. 10. 32. 34. 34. 35. 35. 33. 20. 32. 31. 22. 14.
      10. 9. 9. 16. 18. 15. 10. 10. 16. 23. 28. 31. 32. 29. 7. 8. 7. 8.
      20. 21. 20. 20. 20. 19. 16. 19. 26. 29. 32. 30. 21. 21. 19. 14.
      22. 23. 16. 11. 10. 8. 9. 22. 21. 20. 20. 20. 16. 12. 14. 18. 24.
      30. 25. 24. 19. 19. 23. 22. 18. 12. 12. 9. 10. 20. 23. 25. 26. 26.
      25. 21. 21. 17. 20. 25. 18. 13. 9. 10. 8. 16. 19. 20. 25. 31. 31.
      16. 8. 8. 9. 21. 26. 26. 22. 15. 11. 11. 16. 18. 25. 32. 31. 27.
      23. 21. 18. 16. 16. 15. 17. 15. 11. 10. 8. 12. 14. 20. 17. 14. 19.
      36. 36. 36. 36. 20.</_>
    <_>
      105. 65. 33. 53. 82. 97. 89. 78. 61. 41. 32. 43. 46. 58. 65. 60.
      57. 49. 49. 52. 58. 63. 62. 63. 57. 51. 39. 37. 44. 49. 69. 94.
      102. 86. 71. 48. 36. 36. 12. 6. 3. 20. 24. 16. 7. 7. 7. 6. 8. 7.
      6. 9. 9. 11. 16. 22. 25. 27. 26. 7. 8. 8. 9. 10. 19. 26. 25. 21.
      19. 6. 5. 6. 7. 8. 23. 34. 30. 22. 19. 22. 29. 30. 21. 14. 11. 10.
      7. 7. 14. 16. 17. 16. 8. 10. 11. 12. 20. 28. 32. 31. 18. 13. 12.
      16. 16. 14. 13. 11. 16. 14. 15. 17. 19. 24. 32. 28. 11. 7. 6. 8.
      8. 16. 20. 20. 16. 15. 14. 14. 17. 22. 27. 31. 29. 18. 14. 13. 7.
      8. 12. 10. 14. 16. 14. 12. 17. 22. 24. 28. 34. 30. 25. 18. 14. 12.
      14. 14. 10. 11. 11. 9. 8. 9. 12. 16. 15. 9. 3. 5. 10. 35. 36. 36.</_>
    <_>
      11. 36. 58. 75. 86. 89. 74. 69. 63. 64. 62. 67. 69. 70. 71. 65.
      64. 63. 58. 62. 68. 69. 63. 55. 53. 50. 43. 50. 67. 80. 90. 96.
      100. 82. 67. 31. 2. 2. 17. 28. 35. 35. 14. 0. 0. 0. 0. 0. 15. 26.
      33. 18. 0. 13. 26. 28. 22. 12. 7. 8. 9. 13. 13. 8. 9. 13. 22. 24.
      30. 33. 34. 32. 25. 17. 10. 6. 7. 10. 7. 6. 9. 15. 20. 24. 30. 31.
      34. 30. 28. 28. 32. 31. 17. 11. 10. 7. 18. 21. 20. 21. 20. 17. 9.
      9. 12. 22. 32. 24. 9. 9. 9. 10. 21. 22. 23. 20. 20. 10. 10. 12.
      15. 32. 32. 27. 18. 16. 12. 12. 13. 13. 14. 17. 16. 16. 19. 20.
      23. 27. 23. 16. 15. 15. 11. 12. 15. 15. 15. 14. 12. 14. 19. 24.
      33. 32. 28. 19. 15. 15. 16. 14. 14. 13. 11. 11. 11. 15. 17. 27.
      27. 8. 4. 22.</_>
    <_>
      41. 0. 2. 32. 36. 59. 124. 121. 112. 85. 77. 65. 68. 66. 74. 80.
      82. 78. 65. 59. 56. 54. 56. 66. 69. 70. 71. 60. 56. 57. 50. 53.
      62. 67. 71. 76. 25. 16. 9. 7. 6. 7. 8. 9. 10. 6. 4. 5. 8. 18. 19.
      22. 30. 30. 30. 24. 22. 17. 12. 10. 8. 8. 13. 11. 9. 4. 6. 11. 13.
      18. 24. 32. 32. 30. 30. 29. 30. 27. 29. 31. 31. 21. 18. 16. 13.
      12. 13. 13. 11. 11. 11. 9. 4. 7. 11. 14. 19. 32. 31. 30. 31. 29.
      30. 30. 30. 4. 3. 3. 3. 4. 30. 30. 30. 30. 30. 31. 30. 31. 21. 16.
      13. 9. 6. 11. 12. 11. 13. 14. 13. 10. 15. 19. 22. 24. 32. 31. 24.
      17. 13. 9. 6. 7. 11. 10. 10. 15. 14. 13. 13. 18. 21. 23. 27. 34.
      33. 22. 12. 10. 8. 7. 11. 16. 16. 16. 16. 11. 6. 7. 9. 12. 20. 26.</_>
    <_>
      104. 87. 74. 64. 48. 49. 53. 60. 62. 60. 66. 65. 66. 65. 66. 67.
      74. 73. 71. 75. 77. 82. 88. 85. 83. 81. 76. 79. 72. 70. 61. 62.
      65. 65. 64. 73. 22. 10. 8. 7. 8. 10. 15. 20. 10. 6. 14. 19. 22.
      31. 32. 36. 29. 8. 4. 1. 5. 16. 19. 20. 20. 18. 16. 9. 9. 11. 18.
      33. 34. 30. 26. 20. 15. 14. 21. 29. 30. 30. 24. 19. 11. 8. 11. 13.
      16. 15. 16. 15. 12. 12. 16. 22. 34. 35. 36. 20. 2. 3. 7. 22. 21.
      22. 21. 22. 20. 21. 12. 3. 5. 13. 31. 36. 34. 28. 21. 17. 12. 11.
      12. 13. 12. 12. 13. 11. 10. 15. 22. 33. 36. 33. 31. 23. 20. 18.
      16. 17. 16. 17. 17. 16. 17. 12. 14. 15. 26. 34. 34. 33. 15. 7. 4.
      2. 20. 23. 24. 24. 23. 21. 17. 3. 5. 5. 13. 29. 26. 11. 13. 31.
      36. 36. 36. 36.</_>
    <_>
      98. 79. 59. 45. 39. 56. 72. 79. 80. 71. 68. 69. 63. 66. 66. 64.
      77. 83. 75. 72. 74. 69. 68. 59. 48. 54. 61. 65. 81. 80. 72. 64.
      64. 57. 65. 95. 30. 29. 32. 21. 8. 7. 14. 6. 7. 7. 8. 10. 13. 22.
      23. 17. 16. 22. 22. 23. 26. 33. 33. 28. 9. 8. 8. 23. 24. 22. 21.
      20. 23. 16. 14. 17. 23. 31. 34. 26. 18. 11. 8. 7. 8. 21. 24. 15.
      9. 6. 8. 22. 23. 22. 23. 24. 23. 18. 7. 7. 12. 27. 27. 24. 12. 6.
      7. 13. 21. 23. 23. 20. 19. 20. 19. 17. 16. 20. 22. 21. 21. 20. 17.
      14. 13. 17. 18. 17. 18. 15. 15. 12. 11. 12. 16. 28. 31. 28. 14. 9.
      7. 15. 26. 29. 25. 24. 26. 22. 11. 13. 14. 19. 27. 27. 20. 16. 13.
      19. 18. 20. 16. 13. 16. 16. 13. 13. 15. 16. 18. 20. 5. 0. 8. 30.
      36. 36.</_>
    <_>
      63. 57. 48. 43. 43. 45. 59. 67. 72. 72. 77. 80. 83. 82. 76. 59.
      58. 56. 54. 55. 60. 68. 74. 83. 89. 91. 90. 85. 80. 66. 57. 53.
      53. 52. 58. 64. 21. 23. 34. 36. 36. 36. 36. 13. 4. 5. 12. 16. 12.
      6. 2. 0. 0. 1. 9. 18. 32. 35. 36. 32. 19. 11. 7. 7. 12. 17. 18.
      17. 16. 11. 6. 7. 11. 16. 23. 33. 32. 25. 16. 10. 11. 16. 24. 24.
      14. 15. 9. 8. 17. 25. 20. 11. 10. 6. 0. 12. 15. 23. 27. 31. 36.
      36. 17. 0. 0. 0. 0. 20. 24. 23. 23. 23. 22. 21. 21. 22. 25. 29.
      28. 28. 27. 20. 16. 12. 14. 11. 13. 13. 15. 15. 13. 10. 11. 15.
      18. 24. 35. 36. 36. 22. 19. 13. 12. 11. 15. 16. 18. 16. 18. 10.
      11. 13. 18. 30. 36. 36. 30. 7. 3. 0. 2. 24. 25. 25. 25. 24. 21. 0.
      1. 2. 8. 22.</_>
    <_>
      118. 62. 25. 47. 57. 62. 51. 45. 51. 50. 61. 62. 67. 67. 70. 67.
      56. 51. 51. 53. 59. 55. 54. 49. 43. 42. 38. 49. 56. 66. 44. 30.
      19. 59. 101. 132. 2. 21. 22. 27. 25. 24. 21. 19. 25. 27. 30. 31.
      34. 36. 36. 27. 6. 5. 3. 21. 15. 7. 3. 4. 6. 10. 7. 4. 5. 10. 16.
      18. 23. 26. 26. 19. 16. 10. 7. 8. 10. 11. 9. 7. 10. 14. 18. 23.
      30. 29. 21. 11. 10. 17. 24. 19. 4. 4. 3. 5. 17. 21. 21. 20. 16. 5.
      5. 7. 8. 26. 28. 23. 11. 8. 7. 9. 9. 8. 12. 13. 10. 12. 18. 20.
      24. 23. 19. 12. 9. 8. 7. 10. 11. 14. 13. 12. 13. 18. 20. 30. 30.
      23. 13. 10. 11. 12. 16. 15. 14. 16. 11. 11. 12. 17. 24. 30. 20. 9.
      8. 7. 7. 23. 25. 20. 16. 12. 6. 5. 5. 6. 13. 3. 5. 7. 33. 36.</_>
    <_>
      8. 67. 112. 116. 125. 126. 125. 124. 122. 69. 48. 40. 37. 68. 76.
      85. 85. 78. 69. 73. 71. 79. 82. 78. 73. 67. 68. 71. 58. 54. 61.
      80. 112. 129. 127. 44. 5. 5. 7. 7. 7. 7. 7. 34. 33. 33. 28. 25.
      32. 32. 26. 16. 14. 14. 14. 19. 21. 13. 13. 14. 24. 26. 34. 34.
      33. 12. 11. 11. 16. 27. 27. 25. 27. 27. 13. 14. 16. 17. 33. 33.
      28. 21. 21. 22. 32. 33. 29. 15. 13. 11. 18. 25. 25. 23. 24. 25.
      19. 18. 21. 25. 33. 33. 33. 23. 19. 20. 19. 20. 20. 18. 17. 13.
      14. 17. 23. 33. 33. 33. 30. 29. 29. 29. 26. 18. 14. 14. 12. 19.
      24. 26. 29. 34. 34. 31. 19. 16. 16. 20. 24. 23. 22. 21. 19. 16.
      17. 20. 33. 34. 34. 18. 14. 13. 12. 26. 26. 26. 25. 21. 14. 13.
      16. 23. 27. 10. 2. 29. 33. 34. 15. 10. 8. 5.</_>
    <_>
      42. 23. 24. 39. 52. 62. 69. 69. 75. 68. 59. 49. 49. 50. 55. 58.
      65. 63. 62. 63. 63. 62. 58. 52. 53. 56. 57. 62. 72. 82. 79. 77.
      71. 66. 55. 46. 27. 14. 0. 0. 2. 6. 7. 8. 7. 7. 6. 8. 9. 11. 13.
      17. 36. 36. 36. 36. 36. 29. 3. 1. 0. 0. 0. 0. 0. 0. 0. 0. 0. 11.
      16. 21. 25. 27. 29. 27. 27. 28. 27. 27. 24. 23. 15. 11. 8. 5. 0.
      0. 0. 0. 7. 23. 26. 28. 30. 27. 23. 23. 23. 21. 23. 28. 29. 28.
      26. 18. 0. 0. 0. 0. 0. 5. 12. 16. 20. 21. 23. 26. 29. 29. 29. 30.
      24. 20. 18. 13. 9. 0. 0. 1. 2. 11. 14. 20. 22. 24. 24. 25. 27. 29.
      30. 26. 27. 26. 22. 17. 9. 0. 0. 0. 0. 3. 8. 11. 13. 22. 25. 22.
      27. 24. 23. 21. 24. 23. 21. 17. 12. 2. 0. 0. 5. 35.</_>
    <_>
      82. 83. 91. 98. 103. 106. 99. 83. 84. 81. 64. 78. 83. 88. 87. 83.
      86. 86. 84. 78. 80. 78. 76. 75. 79. 87. 90. 93. 96. 89. 67. 66.
      68. 74. 66. 56. 22. 20. 18. 16. 14. 6. 10. 12. 14. 14. 16. 15. 17.
      20. 22. 21. 20. 21. 21. 20. 17. 19. 20. 19. 20. 19. 19. 19. 21.
      22. 20. 19. 20. 19. 20. 21. 23. 24. 27. 29. 27. 30. 25. 25. 23.
      20. 21. 22. 24. 24. 22. 22. 23. 25. 22. 21. 20. 21. 20. 22. 20.
      21. 20. 24. 25. 27. 27. 31. 31. 30. 31. 31. 31. 30. 30. 29. 22.
      19. 15. 17. 14. 20. 20. 21. 24. 27. 30. 30. 29. 31. 27. 26. 25.
      27. 26. 28. 26. 26. 27. 26. 27. 27. 25. 26. 26. 25. 24. 21. 23.
      23. 26. 29. 27. 23. 21. 21. 24. 24. 22. 23. 22. 18. 13. 14. 14.
      15. 13. 12. 13. 14. 16. 16. 16. 16. 16. 16.</_>
    <_>
      48. 13. 30. 34. 31. 30. 40. 36. 39. 39. 43. 41. 41. 57. 55. 47.
      42. 33. 35. 37. 33. 28. 25. 26. 24. 30. 33. 49. 61. 70. 56. 45.
      19. 18. 18. 82. 35. 36. 17. 7. 2. 1. 1. 1. 1. 1. 1. 21. 8. 5. 2.
      8. 25. 19. 20. 23. 20. 15. 14. 3. 1. 1. 1. 1. 2. 5. 10. 11. 11. 9.
      11. 13. 9. 4. 0. 5. 31. 35. 8. 1. 1. 1. 1. 1. 1. 2. 1. 1. 1. 1.
      11. 14. 15. 14. 13. 9. 5. 5. 3. 3. 3. 2. 2. 4. 6. 7. 7. 6. 6. 7.
      7. 8. 7. 9. 8. 10. 8. 9. 8. 5. 5. 4. 4. 5. 20. 23. 17. 21. 20. 7.
      7. 12. 24. 18. 20. 18. 22. 19. 7. 8. 8. 6. 4. 20. 27. 7. 3. 3. 3.
      3. 3. 3. 15. 32. 34. 33. 33. 33. 29. 28. 20. 14. 10. 8. 4. 5. 4.
      3. 7. 7. 6. 5.</_>
    <_>
      102. 31. 4. 9. 12. 21. 20. 26. 54. 69. 74. 37. 22. 22. 17. 21. 34.
      37. 45. 57. 57. 62. 39. 62. 73. 66. 40. 39. 45. 50. 41. 10. 4. 4.
      28. 65. 36. 25. 1. 0. 0. 1. 1. 2. 4. 4. 4. 3. 3. 4. 4. 5. 19. 20.
      20. 20. 7. 7. 8. 7. 7. 7. 7. 7. 3. 3. 3. 1. 2. 6. 10. 16. 16. 11.
      9. 11. 13. 18. 19. 18. 14. 12. 15. 16. 17. 12. 17. 17. 17. 14. 12.
      7. 4. 4. 4. 7. 5. 6. 6. 6. 5. 5. 5. 5. 6. 6. 9. 10. 6. 6. 6. 4. 6.
      7. 13. 13. 6. 9. 10. 9. 12. 14. 13. 11. 11. 12. 11. 14. 12. 4. 3.
      3. 4. 5. 7. 10. 12. 11. 9. 11. 14. 13. 9. 12. 15. 14. 15. 13. 13.
      9. 11. 12. 11. 10. 9. 10. 5. 5. 5. 5. 5. 5. 4. 3. 16. 33. 32. 30.
      30. 31. 31. 30.</_>
    <_>
      19. 16. 7. 11. 9. 9. 4. 6. 8. 26. 29. 41. 48. 34. 29. 40. 44. 31.
      35. 30. 19. 13. 8. 11. 22. 27. 31. 44. 74. 56. 43. 55. 35. 46. 24.
      12. 10. 11. 12. 12. 9. 8. 8. 9. 8. 8. 8. 6. 5. 5. 5. 4. 3. 2. 3.
      3. 3. 4. 6. 4. 0. 1. 4. 5. 5. 5. 4. 4. 4. 7. 8. 8. 6. 6. 5. 5. 5.
      5. 4. 4. 3. 2. 0. 0. 2. 3. 5. 7. 10. 9. 11. 7. 8. 12. 11. 12. 13.
      14. 16. 14. 14. 13. 15. 14. 16. 13. 7. 8. 7. 7. 7. 7. 8. 10. 12.
      15. 15. 14. 13. 16. 14. 15. 14. 15. 12. 14. 13. 14. 11. 10. 9. 6.
      7. 3. 4. 4. 4. 5. 6. 8. 8. 4. 4. 5. 5. 6. 8. 9. 9. 8. 5. 3. 4. 3.
      3. 4. 2. 2. 1. 0. 2. 4. 6. 1. 2. 2. 3. 2. 6. 8. 13. 25.</_>
    <_>
      11. 21. 25. 27. 34. 59. 59. 58. 57. 35. 16. 21. 28. 56. 78. 73.
      60. 59. 61. 63. 44. 37. 45. 64. 59. 54. 36. 27. 29. 31. 31. 26.
      20. 26. 40. 98. 1. 1. 1. 10. 23. 29. 36. 36. 36. 36. 36. 35. 23.
      7. 7. 7. 6. 7. 7. 7. 7. 7. 7. 7. 7. 7. 7. 7. 7. 8. 8. 8. 8. 7. 2.
      2. 3. 2. 1. 1. 1. 1. 1. 1. 1. 1. 1. 1. 1. 1. 1. 1. 1. 1. 0. 3. 5.
      9. 10. 13. 16. 19. 21. 24. 24. 21. 20. 11. 8. 3. 6. 9. 10. 10. 11.
      13. 22. 31. 35. 33. 32. 29. 26. 16. 15. 12. 9. 9. 8. 10. 13. 17.
      20. 20. 19. 18. 18. 17. 13. 11. 12. 12. 11. 11. 11. 13. 26. 26.
      26. 27. 28. 24. 14. 14. 14. 12. 6. 6. 2. 2. 1. 0. 0. 0. 0. 0. 3.
      5. 7. 9. 8. 8. 8. 9. 8. 8.</_>
    <_>
      22. 47. 54. 81. 117. 85. 27. 0. 1. 0. 0. 1. 3. 30. 84. 109. 116.
      118. 78. 39. 38. 43. 32. 34. 37. 36. 34. 30. 43. 41. 51. 57. 55.
      52. 67. 44. 11. 10. 9. 9. 10. 13. 12. 12. 14. 15. 16. 19. 22. 20.
      15. 13. 12. 12. 12. 12. 12. 13. 13. 13. 16. 17. 16. 17. 18. 18.
      16. 16. 11. 11. 9. 10. 11. 12. 11. 8. 5. 8. 8. 8. 11. 14. 15. 15.
      12. 13. 13. 12. 13. 14. 14. 10. 10. 10. 10. 10. 12. 12. 13. 15.
      13. 15. 15. 14. 15. 11. 11. 9. 9. 7. 10. 13. 17. 17. 16. 15. 15.
      16. 13. 13. 10. 9. 8. 9. 10. 9. 11. 11. 12. 14. 13. 14. 13. 15.
      12. 11. 10. 10. 10. 12. 12. 10. 9. 9. 9. 14. 14. 12. 9. 10. 9. 11.
      14. 18. 21. 21. 21. 21. 20. 19. 19. 19. 14. 10. 6. 4. 3. 2. 5. 8.
      15. 18.</_>
    <_>
      92. 58. 47. 58. 69. 81. 88. 96. 94. 60. 58. 60. 67. 75. 62. 55.
      59. 55. 58. 64. 69. 63. 65. 74. 84. 70. 62. 57. 69. 64. 74. 82.
      66. 56. 45. 73. 27. 19. 12. 11. 13. 15. 21. 21. 19. 18. 14. 15.
      14. 14. 12. 11. 11. 14. 17. 17. 23. 22. 21. 27. 30. 32. 32. 32.
      25. 21. 14. 16. 13. 11. 13. 13. 13. 15. 14. 19. 21. 20. 17. 19.
      19. 26. 29. 28. 27. 24. 23. 20. 18. 19. 14. 11. 9. 9. 10. 15. 16.
      18. 21. 19. 21. 24. 26. 23. 21. 14. 9. 8. 6. 8. 10. 12. 18. 22.
      24. 30. 30. 29. 28. 22. 16. 6. 5. 6. 9. 17. 20. 20. 18. 20. 21.
      25. 28. 25. 24. 20. 20. 18. 16. 15. 15. 13. 12. 12. 16. 17. 13.
      16. 20. 20. 19. 22. 16. 15. 12. 6. 7. 7. 7. 13. 12. 13. 15. 22.
      25. 24. 22. 22. 24. 25. 22. 18.</_>
    <_>
      52. 61. 57. 65. 74. 68. 60. 49. 48. 52. 60. 57. 48. 39. 45. 43.
      54. 59. 71. 74. 69. 72. 69. 76. 82. 84. 76. 64. 73. 88. 96. 87.
      79. 63. 49. 27. 7. 6. 5. 4. 4. 4. 3. 3. 3. 5. 9. 13. 18. 17. 18.
      16. 17. 17. 14. 13. 15. 15. 14. 14. 13. 15. 13. 13. 14. 13. 17.
      17. 17. 18. 16. 16. 15. 14. 19. 25. 23. 23. 22. 20. 13. 11. 11.
      13. 15. 15. 15. 15. 11. 10. 12. 13. 16. 17. 17. 22. 22. 21. 23.
      22. 20. 20. 19. 19. 20. 19. 21. 22. 20. 19. 19. 21. 26. 25. 24.
      26. 27. 27. 29. 27. 25. 21. 18. 18. 16. 15. 15. 12. 11. 12. 14.
      16. 14. 13. 15. 18. 24. 27. 30. 28. 29. 31. 30. 22. 19. 17. 17.
      17. 15. 14. 14. 13. 15. 17. 19. 18. 14. 11. 11. 11. 11. 10. 14.
      16. 17. 16. 14. 9. 10. 26. 36. 34.</_>
    <_>
      125. 115. 101. 87. 68. 51. 20. 20. 30. 36. 39. 48. 54. 36. 26. 21.
      7. 13. 15. 16. 13. 17. 19. 49. 42. 40. 34. 36. 20. 6. 6. 6. 6. 5.
      13. 84. 36. 34. 25. 19. 5. 5. 6. 6. 6. 6. 6. 6. 6. 6. 6. 8. 11. 9.
      7. 6. 7. 12. 12. 15. 11. 11. 12. 12. 12. 19. 19. 19. 16. 11. 7. 7.
      9. 10. 12. 12. 12. 8. 6. 6. 6. 6. 7. 9. 10. 10. 8. 7. 8. 12. 12.
      12. 9. 8. 8. 14. 13. 12. 7. 6. 5. 5. 5. 5. 7. 10. 11. 12. 9. 10.
      13. 13. 13. 10. 10. 10. 12. 14. 13. 15. 15. 10. 8. 11. 12. 10. 6.
      5. 4. 4. 5. 6. 6. 8. 9. 10. 9. 9. 7. 5. 3. 2. 2. 3. 4. 6. 8. 11.
      12. 10. 12. 10. 9. 11. 9. 8. 7. 7. 8. 5. 4. 1. 0. 0. 0. 0. 3. 12.
      20. 26. 34. 36.</_>
    <_>
      92. 99. 73. 23. 1. 18. 48. 53. 31. 27. 29. 29. 25. 35. 104. 105.
      108. 106. 103. 107. 131. 135. 108. 61. 29. 18. 40. 42. 46. 39. 39.
      23. 23. 28. 74. 119. 14. 13. 16. 14. 14. 14. 14. 14. 13. 13. 13.
      11. 13. 13. 15. 14. 16. 18. 19. 20. 19. 20. 19. 19. 16. 19. 17.
      16. 14. 17. 18. 17. 19. 19. 19. 19. 21. 21. 21. 20. 17. 17. 17.
      17. 17. 17. 17. 17. 17. 17. 17. 17. 17. 16. 15. 16. 17. 18. 19.
      19. 18. 18. 17. 15. 15. 15. 15. 15. 16. 16. 16. 16. 16. 16. 16.
      16. 15. 15. 15. 11. 18. 16. 11. 6. 4. 4. 17. 21. 22. 22. 20. 22.
      19. 19. 17. 14. 8. 8. 8. 13. 16. 18. 19. 19. 21. 21. 19. 16. 13.
      10. 14. 15. 20. 22. 15. 11. 13. 14. 15. 15. 15. 15. 15. 15. 15.
      15. 15. 15. 15. 15. 15. 15. 15. 15. 16. 16.</_>
    <_>
      61. 67. 85. 82. 91. 99. 99. 101. 110. 102. 105. 89. 90. 89. 98.
      108. 92. 75. 75. 71. 71. 56. 53. 54. 61. 57. 60. 56. 60. 51. 54.
      58. 53. 49. 58. 65. 23. 19. 18. 17. 15. 18. 16. 21. 22. 20. 17.
      17. 19. 19. 21. 21. 21. 20. 18. 18. 20. 22. 22. 14. 15. 13. 16.
      17. 17. 16. 18. 15. 17. 19. 19. 18. 25. 25. 25. 23. 18. 21. 25.
      23. 25. 20. 18. 16. 15. 19. 17. 17. 19. 21. 23. 22. 19. 17. 19.
      18. 24. 23. 23. 21. 17. 17. 21. 21. 21. 20. 22. 21. 22. 27. 25.
      26. 23. 26. 26. 22. 23. 25. 28. 25. 26. 25. 25. 26. 24. 24. 25.
      22. 18. 17. 19. 23. 23. 24. 24. 24. 21. 23. 24. 23. 21. 22. 18.
      18. 20. 17. 17. 20. 19. 20. 19. 18. 16. 15. 16. 15. 18. 19. 18.
      16. 14. 16. 14. 11. 13. 16. 15. 16. 18. 17. 17. 19.</_>
    <_>
      51. 49. 64. 69. 77. 78. 79. 74. 67. 69. 58. 59. 75. 76. 92. 85.
      77. 79. 69. 72. 93. 95. 98. 91. 85. 98. 107. 115. 101. 93. 82. 87.
      71. 56. 15. 10. 25. 25. 26. 26. 25. 24. 22. 24. 23. 22. 21. 20.
      20. 22. 23. 26. 25. 25. 26. 25. 24. 22. 23. 20. 20. 15. 20. 21.
      22. 19. 21. 21. 19. 19. 19. 19. 21. 18. 14. 15. 15. 17. 13. 12.
      17. 23. 29. 26. 25. 21. 19. 17. 16. 19. 20. 17. 19. 20. 18. 21.
      20. 20. 23. 21. 17. 17. 16. 16. 15. 14. 18. 21. 26. 26. 25. 19.
      16. 17. 23. 24. 24. 18. 16. 15. 15. 21. 20. 20. 21. 23. 22. 17.
      22. 22. 23. 20. 20. 16. 20. 17. 15. 15. 15. 14. 17. 16. 17. 18.
      19. 25. 23. 21. 21. 18. 17. 17. 20. 19. 18. 17. 16. 15. 18. 19.
      18. 21. 24. 23. 23. 25. 24. 21. 21. 18. 15. 16.</_>
    <_>
      73. 72. 70. 66. 65. 70. 68. 65. 65. 68. 64. 60. 59. 57. 60. 62.
      63. 65. 64. 57. 54. 54. 53. 46. 46. 44. 50. 47. 47. 46. 49. 55.
      58. 55. 61. 55. 28. 17. 6. 6. 6. 11. 11. 8. 7. 13. 10. 12. 18. 17.
      18. 16. 22. 19. 17. 16. 10. 7. 10. 11. 13. 17. 12. 12. 15. 18. 22.
      21. 24. 29. 28. 26. 26. 22. 18. 13. 12. 12. 6. 1. 0. 3. 3. 3. 3.
      9. 14. 17. 18. 16. 11. 13. 14. 9. 10. 11. 12. 10. 10. 12. 15. 14.
      17. 27. 27. 28. 28. 25. 21. 12. 8. 7. 6. 5. 8. 8. 9. 11. 12. 13.
      17. 18. 21. 24. 24. 24. 23. 23. 22. 16. 14. 16. 17. 16. 15. 14.
      12. 12. 9. 9. 9. 12. 17. 21. 23. 25. 26. 24. 22. 23. 23. 18. 17.
      16. 17. 17. 19. 20. 18. 18. 20. 24. 28. 21. 14. 15. 13. 14. 14.
      16. 19. 22.</_>
    <_>
      55. 17. 40. 45. 51. 49. 35. 35. 36. 30. 23. 45. 42. 42. 43. 31.
      19. 15. 19. 35. 44. 44. 43. 41. 38. 20. 20. 32. 27. 32. 32. 33.
      28. 31. 25. 69. 34. 28. 17. 2. 1. 3. 15. 21. 19. 11. 5. 5. 5. 5.
      3. 4. 5. 6. 7. 7. 7. 7. 7. 5. 5. 6. 6. 5. 5. 3. 2. 3. 3. 2. 3. 2.
      1. 1. 2. 2. 3. 3. 3. 2. 3. 1. 3. 12. 30. 32. 35. 33. 33. 33. 31.
      29. 16. 2. 0. 0. 3. 6. 4. 4. 5. 8. 6. 4. 3. 2. 3. 5. 4. 5. 4. 5.
      5. 5. 6. 7. 8. 9. 8. 9. 12. 18. 26. 30. 27. 25. 18. 16. 10. 5. 0.
      2. 2. 1. 0. 0. 0. 1. 1. 1. 3. 3. 2. 2. 2. 3. 11. 11. 7. 8. 5. 8.
      11. 13. 14. 14. 19. 21. 21. 19. 21. 21. 19. 19. 15. 12. 12. 11. 7.
      7. 8. 10.</_>
    <_>
      85. 78. 58. 44. 28. 27. 23. 29. 36. 41. 39. 40. 37. 35. 25. 28.
      44. 48. 57. 67. 65. 57. 53. 63. 65. 57. 52. 68. 78. 81. 79. 64.
      43. 9. 13. 11. 0. 0. 2. 4. 4. 6. 5. 6. 5. 7. 4. 4. 3. 3. 2. 6. 3.
      6. 7. 8. 8. 10. 9. 9. 7. 7. 8. 8. 10. 11. 10. 11. 15. 15. 15. 15.
      11. 9. 9. 8. 10. 8. 7. 6. 6. 7. 8. 8. 6. 6. 6. 6. 6. 4. 7. 7. 7.
      6. 7. 8. 7. 7. 6. 5. 4. 4. 4. 6. 11. 15. 17. 20. 21. 21. 24. 28.
      25. 25. 23. 23. 21. 21. 21. 19. 15. 16. 18. 22. 24. 22. 16. 13.
      10. 10. 11. 11. 13. 20. 20. 20. 22. 18. 20. 23. 23. 25. 25. 25.
      25. 26. 25. 25. 21. 18. 17. 17. 15. 15. 15. 17. 17. 25. 23. 22.
      16. 10. 9. 8. 8. 8. 7. 11. 12. 14. 27. 28.</_>
    <_>
      14. 13. 14. 25. 44. 56. 55. 59. 50. 45. 45. 40. 38. 35. 32. 34.
      45. 56. 56. 54. 58. 53. 51. 42. 33. 27. 31. 30. 37. 36. 30. 19.
      18. 16. 21. 32. 6. 6. 8. 8. 7. 9. 12. 15. 18. 18. 18. 17. 16. 14.
      15. 14. 13. 14. 13. 16. 15. 17. 15. 15. 15. 15. 14. 12. 12. 13.
      10. 10. 9. 9. 9. 8. 6. 8. 8. 8. 10. 8. 6. 5. 5. 5. 6. 7. 9. 8. 8.
      8. 10. 11. 12. 12. 13. 14. 15. 14. 15. 14. 12. 8. 9. 8. 7. 8. 8.
      8. 7. 8. 8. 8. 8. 8. 8. 10. 9. 9. 10. 12. 10. 8. 8. 8. 6. 7. 7. 8.
      7. 5. 4. 4. 4. 3. 2. 4. 2. 3. 4. 5. 5. 5. 6. 9. 10. 13. 11. 12.
      10. 10. 9. 10. 12. 13. 11. 10. 9. 10. 11. 13. 19. 20. 20. 21. 20.
      18. 14. 7. 5. 5. 5. 3. 3. 3.</_>
    <_>
      57. 45. 25. 10. 12. 7. 7. 25. 51. 55. 83. 84. 89. 91. 85. 82. 76.
      77. 84. 97. 100. 91. 81. 74. 78. 65. 29. 22. 7. 71. 13. 15. 24.
      98. 88. 95. 23. 23. 18. 14. 11. 9. 8. 10. 10. 11. 12. 15. 20. 23.
      23. 21. 19. 16. 14. 17. 16. 15. 14. 14. 20. 18. 17. 16. 14. 9. 7.
      3. 5. 7. 10. 14. 15. 15. 14. 15. 13. 12. 14. 14. 15. 17. 17. 21.
      20. 21. 20. 21. 20. 19. 19. 18. 13. 11. 9. 8. 9. 10. 11. 12. 13.
      17. 14. 16. 18. 21. 22. 23. 23. 22. 21. 20. 20. 18. 19. 18. 15.
      14. 13. 13. 15. 16. 15. 16. 15. 17. 16. 16. 14. 14. 13. 15. 13.
      11. 11. 11. 11. 12. 11. 11. 11. 11. 11. 9. 10. 11. 12. 13. 14. 15.
      16. 16. 15. 16. 16. 15. 16. 17. 18. 18. 19. 20. 21. 22. 23. 23.
      23. 22. 17. 17. 17. 17.</_>
    <_>
      118. 93. 25. 18. 46. 49. 42. 35. 30. 28. 46. 60. 57. 64. 75. 69.
      61. 56. 58. 63. 66. 68. 75. 79. 78. 83. 82. 84. 85. 82. 77. 69.
      49. 43. 41. 49. 12. 14. 13. 14. 15. 13. 12. 14. 11. 13. 12. 14.
      16. 17. 20. 21. 21. 21. 20. 17. 16. 14. 14. 14. 15. 18. 17. 20.
      22. 22. 22. 21. 19. 17. 16. 13. 13. 12. 11. 10. 9. 11. 13. 14. 15.
      18. 19. 15. 12. 16. 16. 19. 20. 19. 16. 16. 17. 20. 23. 22. 22.
      25. 27. 27. 23. 19. 17. 15. 14. 14. 13. 14. 14. 16. 15. 17. 17.
      16. 16. 17. 19. 18. 18. 18. 17. 16. 13. 13. 14. 17. 16. 16. 17.
      15. 14. 10. 11. 14. 14. 16. 17. 18. 16. 16. 19. 21. 21. 19. 16.
      12. 11. 13. 12. 11. 9. 8. 10. 11. 11. 13. 12. 14. 13. 18. 19. 21.
      18. 16. 14. 15. 17. 20. 21. 22. 24. 25.</_>
    <_>
      52. 49. 36. 25. 21. 22. 28. 32. 38. 56. 56. 35. 47. 28. 34. 45.
      52. 64. 74. 64. 60. 34. 20. 37. 46. 57. 64. 70. 62. 41. 28. 20.
      29. 43. 54. 56. 15. 17. 11. 10. 16. 12. 11. 13. 16. 11. 14. 17.
      16. 17. 12. 12. 15. 13. 8. 11. 9. 10. 9. 14. 12. 16. 14. 10. 12.
      10. 10. 13. 12. 17. 13. 9. 10. 10. 13. 6. 4. 5. 8. 3. 2. 4. 7. 5.
      2. 4. 8. 9. 10. 11. 14. 11. 10. 12. 20. 21. 17. 18. 13. 12. 9. 13.
      15. 16. 14. 16. 15. 13. 11. 12. 10. 11. 15. 14. 15. 12. 9. 12. 15.
      11. 12. 13. 13. 14. 9. 11. 6. 11. 8. 4. 8. 8. 8. 12. 16. 13. 13.
      11. 14. 14. 14. 15. 13. 11. 15. 16. 16. 18. 16. 12. 12. 9. 9. 13.
      12. 9. 9. 7. 11. 7. 7. 9. 11. 9. 8. 13. 13. 10. 14. 14. 15. 10.</_>
    <_>
      65. 64. 79. 82. 80. 72. 65. 70. 70. 75. 78. 61. 57. 58. 58. 53.
      54. 45. 47. 52. 61. 61. 53. 44. 44. 55. 58. 68. 64. 66. 71. 84.
      86. 75. 74. 80. 18. 18. 16. 16. 16. 13. 13. 14. 13. 14. 15. 16.
      16. 18. 18. 18. 19. 18. 19. 20. 14. 8. 7. 7. 8. 8. 8. 7. 9. 11.
      18. 19. 20. 20. 13. 12. 14. 18. 18. 20. 15. 7. 8. 11. 12. 11. 14.
      20. 17. 12. 11. 16. 21. 21. 25. 19. 18. 19. 21. 18. 18. 17. 21.
      27. 29. 28. 28. 26. 25. 24. 21. 17. 16. 18. 16. 12. 13. 13. 14.
      14. 16. 15. 16. 16. 26. 27. 27. 25. 27. 27. 29. 30. 27. 13. 11.
      14. 15. 15. 17. 17. 16. 17. 21. 25. 27. 18. 20. 15. 15. 17. 18.
      23. 19. 14. 15. 20. 23. 22. 17. 19. 18. 15. 13. 11. 8. 9. 10. 9.
      8. 11. 16. 18. 17. 19. 25. 31.</_>
    <_>
      56. 28. 25. 26. 26. 26. 27. 26. 27. 42. 90. 104. 106. 99. 100. 99.
      100. 100. 98. 79. 62. 58. 54. 46. 34. 28. 29. 28. 29. 29. 40. 55.
      56. 57. 59. 96. 36. 3. 3. 4. 4. 4. 4. 4. 4. 10. 14. 16. 16. 17.
      17. 18. 17. 18. 18. 17. 16. 15. 13. 5. 0. 0. 0. 0. 1. 2. 31. 36.
      36. 36. 36. 36. 36. 36. 10. 1. 1. 0. 0. 0. 0. 0. 13. 15. 17. 17.
      17. 18. 17. 16. 15. 15. 15. 15. 14. 13. 13. 14. 20. 21. 24. 26.
      28. 32. 36. 36. 36. 32. 27. 21. 20. 19. 13. 9. 9. 12. 13. 13. 16.
      15. 15. 16. 16. 17. 17. 17. 17. 15. 13. 6. 0. 0. 0. 0. 0. 0. 2.
      32. 36. 36. 36. 36. 36. 36. 29. 2. 1. 0. 0. 0. 0. 1. 10. 12. 14.
      15. 15. 15. 15. 16. 16. 16. 14. 14. 14. 14. 13. 13. 13. 13. 18.
      29.</_>
    <_>
      60. 59. 56. 54. 55. 66. 59. 61. 70. 65. 75. 77. 55. 54. 39. 45.
      45. 49. 51. 63. 68. 61. 62. 59. 52. 52. 58. 62. 62. 62. 70. 64.
      62. 60. 61. 53. 8. 5. 3. 6. 10. 9. 8. 6. 6. 4. 3. 2. 4. 5. 7. 10.
      13. 20. 16. 15. 11. 10. 6. 5. 6. 6. 12. 14. 10. 6. 5. 5. 3. 8. 9.
      7. 11. 19. 20. 21. 24. 26. 34. 30. 30. 27. 17. 15. 11. 7. 5. 6. 8.
      9. 11. 19. 22. 28. 25. 27. 27. 27. 24. 25. 27. 17. 12. 15. 13. 12.
      17. 22. 24. 27. 27. 27. 23. 23. 25. 29. 17. 9. 5. 5. 5. 5. 5. 5.
      12. 21. 19. 20. 25. 30. 30. 27. 19. 16. 16. 14. 14. 19. 21. 24.
      29. 27. 28. 24. 23. 22. 23. 21. 18. 16. 16. 15. 15. 16. 16. 15.
      18. 19. 16. 18. 22. 28. 23. 10. 7. 11. 10. 10. 9. 11. 13. 16.</_>
    <_>
      93. 94. 91. 80. 74. 64. 40. 30. 29. 33. 46. 50. 55. 52. 53. 64.
      67. 74. 75. 74. 70. 57. 60. 55. 56. 59. 68. 62. 71. 60. 62. 48.
      43. 36. 26. 45. 12. 12. 12. 10. 7. 10. 10. 11. 7. 7. 14. 17. 17.
      19. 16. 17. 23. 18. 20. 19. 22. 20. 17. 13. 12. 13. 12. 13. 14.
      18. 17. 16. 17. 21. 23. 16. 14. 13. 13. 12. 9. 11. 13. 15. 12. 12.
      14. 17. 18. 24. 26. 25. 25. 22. 18. 18. 13. 10. 11. 10. 12. 10.
      12. 13. 8. 11. 11. 15. 14. 16. 14. 14. 14. 18. 22. 18. 15. 15. 19.
      17. 19. 20. 14. 12. 12. 10. 13. 16. 18. 14. 12. 12. 19. 23. 24.
      18. 15. 15. 16. 19. 20. 19. 22. 23. 22. 18. 15. 12. 18. 17. 15.
      13. 12. 10. 10. 10. 10. 15. 17. 21. 20. 21. 22. 24. 23. 19. 18.
      18. 18. 17. 16. 16. 10. 9. 9. 11.</_>
    <_>
      76. 71. 58. 38. 29. 33. 35. 50. 50. 60. 63. 57. 61. 66. 61. 67.
      66. 60. 61. 63. 71. 72. 70. 67. 58. 51. 52. 63. 61. 54. 49. 37.
      39. 45. 57. 90. 20. 24. 22. 19. 21. 23. 17. 13. 10. 10. 7. 6. 4.
      4. 6. 5. 2. 3. 3. 5. 6. 6. 10. 12. 9. 7. 10. 12. 14. 12. 16. 14.
      14. 14. 17. 15. 13. 14. 17. 14. 15. 15. 17. 15. 13. 13. 16. 16.
      21. 22. 18. 17. 20. 12. 17. 18. 13. 15. 13. 14. 13. 12. 14. 14.
      13. 11. 11. 16. 18. 19. 19. 18. 21. 20. 20. 23. 23. 19. 17. 16.
      15. 15. 12. 14. 17. 16. 17. 19. 19. 21. 18. 18. 17. 15. 16. 18.
      20. 18. 14. 14. 14. 19. 23. 23. 23. 24. 24. 24. 23. 22. 21. 18.
      15. 14. 11. 11. 9. 7. 7. 8. 7. 8. 9. 8. 10. 13. 14. 15. 17. 19.
      20. 23. 21. 27. 26. 24.</_>
    <_>
      94. 96. 91. 89. 71. 53. 33. 29. 33. 37. 44. 59. 51. 46. 46. 56.
      58. 59. 64. 66. 68. 67. 60. 54. 51. 49. 42. 58. 61. 55. 52. 46.
      45. 40. 42. 56. 8. 5. 6. 4. 3. 3. 5. 4. 2. 4. 6. 8. 9. 16. 16. 14.
      17. 17. 18. 22. 17. 21. 23. 19. 16. 12. 11. 14. 17. 15. 17. 16.
      15. 15. 14. 15. 15. 15. 11. 10. 12. 14. 12. 10. 10. 13. 13. 15.
      22. 24. 22. 19. 13. 15. 13. 14. 13. 13. 12. 9. 10. 12. 14. 18. 20.
      21. 22. 18. 16. 19. 17. 16. 20. 14. 11. 9. 16. 20. 22. 20. 15. 12.
      7. 12. 18. 18. 23. 23. 16. 12. 9. 14. 18. 21. 20. 19. 18. 16. 13.
      11. 16. 19. 27. 26. 26. 20. 19. 17. 7. 14. 19. 11. 6. 7. 5. 8. 13.
      16. 22. 24. 21. 21. 21. 19. 18. 18. 19. 20. 19. 17. 17. 16. 13.
      10. 9. 8.</_>
    <_>
      56. 31. 28. 26. 27. 29. 29. 29. 37. 60. 100. 108. 109. 106. 101.
      100. 100. 100. 99. 98. 79. 57. 58. 60. 56. 39. 26. 25. 25. 26. 27.
      27. 31. 46. 56. 56. 36. 5. 4. 4. 5. 5. 5. 4. 4. 11. 15. 16. 17.
      18. 18. 18. 18. 18. 18. 19. 17. 17. 15. 13. 0. 0. 0. 0. 0. 0. 36.
      36. 36. 36. 36. 36. 36. 36. 26. 2. 1. 1. 0. 0. 0. 3. 13. 14. 17.
      16. 16. 16. 15. 15. 13. 12. 12. 12. 12. 12. 12. 11. 14. 21. 23.
      26. 31. 32. 36. 36. 36. 27. 25. 21. 21. 20. 16. 13. 12. 11. 14.
      13. 13. 14. 15. 15. 16. 16. 16. 16. 15. 15. 13. 9. 0. 0. 0. 0. 0.
      0. 0. 32. 36. 36. 36. 36. 36. 36. 36. 3. 2. 1. 0. 0. 0. 0. 5. 14.
      15. 16. 16. 16. 16. 16. 16. 15. 15. 15. 14. 15. 15. 13. 12. 14.
      15. 24.</_>
    <_>
      57. 59. 74. 80. 82. 84. 83. 89. 82. 78. 76. 78. 71. 70. 62. 63.
      60. 60. 63. 67. 77. 66. 54. 54. 63. 67. 82. 82. 84. 83. 78. 79.
      86. 85. 86. 79. 23. 26. 25. 25. 17. 16. 15. 25. 23. 26. 24. 22.
      18. 12. 11. 11. 9. 11. 10. 8. 4. 7. 12. 16. 22. 33. 31. 34. 36.
      33. 30. 32. 29. 29. 23. 18. 13. 11. 13. 19. 12. 11. 11. 9. 17. 17.
      22. 23. 22. 22. 23. 27. 24. 26. 32. 33. 30. 20. 19. 19. 21. 26.
      25. 26. 24. 21. 20. 22. 35. 29. 14. 8. 10. 11. 14. 16. 15. 16. 19.
      26. 30. 25. 23. 22. 16. 14. 10. 10. 12. 15. 16. 18. 19. 21. 25.
      20. 20. 18. 22. 21. 18. 17. 14. 15. 15. 17. 16. 8. 15. 17. 19. 25.
      24. 27. 22. 14. 17. 19. 19. 19. 16. 15. 10. 9. 6. 11. 8. 13. 21.
      21. 23. 22. 26. 26. 30. 33.</_>
    <_>
      109. 63. 43. 41. 47. 50. 53. 60. 65. 63. 56. 61. 67. 73. 77. 80.
      71. 66. 63. 65. 54. 54. 47. 51. 51. 53. 51. 56. 54. 48. 46. 43.
      42. 35. 30. 36. 27. 29. 23. 22. 29. 33. 31. 27. 22. 20. 17. 11.
      10. 4. 3. 4. 6. 11. 19. 24. 22. 20. 16. 12. 13. 14. 15. 15. 14.
      16. 21. 19. 17. 16. 16. 14. 13. 12. 10. 9. 11. 17. 18. 22. 29. 27.
      18. 8. 10. 9. 11. 13. 17. 19. 15. 13. 13. 15. 21. 21. 25. 25. 24.
      31. 31. 31. 26. 19. 18. 16. 18. 20. 18. 14. 14. 17. 18. 22. 25.
      32. 34. 33. 33. 31. 23. 19. 13. 9. 8. 8. 9. 9. 8. 8. 7. 7. 7. 7.
      13. 14. 17. 20. 20. 20. 17. 17. 16. 12. 10. 5. 0. 0. 0. 0. 1. 4.
      9. 9. 18. 17. 17. 16. 14. 11. 7. 0. 0. 0. 0. 0. 0. 0. 0. 0. 0. 0.</_>
    <_>
      56. 42. 38. 36. 33. 42. 46. 47. 49. 52. 55. 66. 77. 79. 79. 82.
      79. 73. 72. 71. 68. 71. 69. 66. 59. 53. 57. 45. 35. 35. 26. 22.
      21. 23. 32. 34. 17. 20. 19. 20. 19. 18. 18. 17. 16. 15. 16. 14.
      15. 15. 16. 15. 13. 11. 13. 14. 16. 15. 13. 14. 15. 16. 16. 16.
      17. 15. 14. 14. 12. 10. 8. 8. 8. 9. 8. 9. 10. 12. 14. 15. 16. 16.
      16. 14. 15. 14. 13. 16. 16. 14. 13. 13. 10. 9. 6. 8. 4. 3. 0. 0.
      0. 0. 0. 0. 0. 0. 3. 14. 19. 20. 25. 30. 31. 33. 23. 19. 15. 13.
      11. 8. 6. 5. 6. 4. 4. 3. 2. 8. 9. 10. 9. 12. 15. 16. 18. 20. 21.
      21. 19. 21. 19. 17. 16. 19. 19. 19. 21. 24. 19. 20. 17. 18. 16.
      16. 15. 14. 13. 13. 14. 14. 14. 15. 14. 17. 17. 19. 19. 21. 18.
      19. 21. 19.</_>
    <_>
      105. 109. 109. 101. 63. 34. 18. 35. 54. 52. 43. 49. 49. 50. 62.
      70. 71. 70. 71. 70. 69. 77. 68. 66. 67. 66. 73. 66. 51. 50. 34.
      50. 73. 61. 52. 67. 11. 14. 13. 13. 14. 15. 16. 16. 13. 12. 15.
      13. 12. 8. 7. 10. 15. 16. 18. 21. 21. 17. 13. 13. 15. 21. 19. 13.
      10. 12. 17. 20. 23. 24. 25. 20. 20. 19. 20. 24. 22. 13. 13. 11.
      10. 12. 12. 10. 18. 19. 18. 21. 18. 22. 24. 19. 19. 16. 15. 21.
      19. 12. 16. 12. 16. 14. 16. 16. 23. 26. 24. 22. 24. 25. 26. 27.
      28. 19. 18. 21. 17. 19. 18. 15. 12. 10. 17. 21. 23. 22. 19. 23.
      26. 28. 21. 20. 20. 19. 12. 12. 11. 11. 8. 8. 12. 14. 17. 20. 25.
      23. 22. 26. 27. 30. 21. 17. 16. 13. 14. 16. 15. 12. 14. 12. 9. 10.
      9. 5. 7. 6. 4. 9. 12. 15. 19. 17.</_>
    <_>
      57. 60. 78. 80. 79. 76. 74. 68. 64. 50. 43. 45. 55. 68. 68. 62.
      67. 76. 67. 72. 75. 75. 77. 77. 70. 82. 84. 68. 61. 50. 37. 36.
      43. 61. 54. 88. 8. 10. 11. 10. 14. 9. 11. 19. 19. 21. 20. 26. 21.
      19. 23. 19. 17. 15. 16. 23. 22. 30. 30. 26. 22. 21. 24. 26. 20.
      18. 16. 15. 14. 11. 15. 16. 14. 18. 17. 14. 8. 11. 21. 21. 25. 25.
      23. 23. 19. 20. 15. 15. 17. 19. 19. 18. 17. 19. 21. 21. 17. 11.
      11. 18. 16. 6. 10. 9. 4. 5. 10. 14. 10. 14. 18. 18. 24. 24. 27.
      26. 27. 21. 21. 17. 15. 16. 10. 11. 9. 8. 8. 15. 18. 21. 17. 19.
      22. 19. 16. 19. 22. 25. 18. 20. 24. 30. 28. 21. 16. 16. 13. 11.
      12. 13. 15. 17. 20. 19. 19. 24. 23. 24. 24. 24. 24. 22. 17. 14.
      12. 9. 9. 7. 9. 10. 9. 9.</_>
    <_>
      111. 95. 29. 26. 24. 49. 54. 66. 66. 55. 56. 72. 31. 32. 69. 79.
      82. 22. 20. 23. 51. 97. 82. 68. 52. 54. 77. 53. 51. 52. 42. 59.
      34. 33. 37. 92. 27. 32. 36. 36. 36. 36. 31. 27. 19. 15. 11. 7. 5.
      3. 7. 13. 17. 20. 22. 34. 30. 19. 17. 17. 15. 14. 11. 9. 9. 8. 7.
      9. 8. 12. 12. 11. 12. 12. 13. 14. 14. 15. 16. 16. 17. 18. 26. 36.
      36. 36. 36. 31. 5. 6. 7. 6. 5. 5. 8. 14. 12. 13. 14. 14. 15. 16.
      15. 15. 9. 9. 10. 9. 5. 5. 10. 11. 11. 12. 12. 11. 11. 12. 12. 8.
      8. 7. 8. 8. 8. 10. 32. 36. 36. 36. 36. 7. 5. 5. 5. 5. 5. 5. 12.
      22. 22. 22. 21. 12. 9. 7. 7. 7. 7. 6. 14. 16. 17. 18. 18. 12. 12.
      16. 16. 15. 14. 11. 15. 15. 2. 2. 2. 2. 2. 3. 4. 36.</_>
    <_>
      89. 96. 105. 105. 107. 101. 85. 73. 64. 71. 72. 73. 82. 89. 79.
      79. 85. 86. 83. 76. 67. 68. 63. 68. 71. 79. 90. 79. 95. 84. 81.
      74. 66. 46. 47. 60. 10. 11. 12. 12. 11. 14. 15. 16. 16. 15. 19.
      20. 19. 16. 20. 21. 22. 23. 26. 27. 26. 27. 27. 23. 19. 18. 17.
      16. 15. 16. 17. 17. 18. 17. 16. 18. 17. 20. 27. 26. 27. 26. 27.
      27. 29. 29. 29. 28. 28. 27. 26. 27. 23. 21. 22. 21. 20. 21. 22.
      25. 29. 31. 30. 31. 31. 31. 31. 31. 28. 26. 25. 26. 24. 23. 18.
      19. 19. 22. 22. 21. 21. 22. 23. 23. 23. 24. 26. 27. 29. 26. 24.
      24. 24. 26. 28. 29. 27. 23. 21. 22. 18. 19. 20. 18. 18. 18. 18.
      18. 18. 19. 21. 20. 18. 19. 18. 19. 16. 22. 24. 23. 22. 19. 19.
      19. 13. 14. 11. 6. 3. 3. 6. 8. 11. 14. 13. 16.</_>
    <_>
      73. 69. 64. 71. 63. 58. 67. 70. 64. 77. 78. 78. 80. 87. 75. 88.
      75. 50. 32. 46. 46. 44. 34. 37. 32. 33. 30. 40. 39. 46. 55. 52.
      52. 58. 68. 49. 22. 22. 22. 18. 19. 18. 15. 17. 16. 17. 17. 16.
      17. 17. 16. 15. 15. 14. 13. 14. 13. 12. 12. 13. 12. 12. 11. 13.
      12. 12. 12. 14. 13. 13. 11. 14. 12. 13. 12. 11. 12. 10. 10. 13.
      12. 14. 13. 15. 15. 14. 15. 17. 17. 16. 15. 17. 17. 17. 15. 16.
      16. 23. 25. 30. 22. 17. 20. 22. 17. 13. 14. 13. 12. 9. 9. 13. 18.
      15. 18. 15. 11. 10. 10. 11. 16. 17. 14. 15. 10. 13. 16. 13. 10.
      13. 12. 12. 15. 19. 19. 22. 20. 19. 19. 19. 18. 20. 18. 16. 13.
      13. 13. 12. 12. 10. 8. 8. 13. 13. 15. 17. 18. 18. 17. 20. 21. 17.
      16. 17. 14. 13. 15. 15. 16. 18. 23. 30.</_>
    <_>
      117. 80. 29. 29. 25. 29. 30. 34. 45. 61. 55. 54. 53. 64. 75. 75.
      71. 79. 84. 82. 77. 81. 54. 51. 51. 58. 59. 76. 97. 94. 89. 75.
      76. 71. 58. 68. 11. 13. 14. 16. 18. 16. 14. 13. 16. 19. 23. 20.
      16. 17. 14. 15. 15. 13. 7. 12. 19. 20. 22. 21. 22. 24. 25. 24. 15.
      12. 14. 18. 19. 19. 18. 21. 21. 22. 21. 19. 15. 18. 20. 21. 22.
      20. 15. 13. 14. 16. 17. 19. 22. 24. 26. 25. 24. 28. 24. 22. 17.
      15. 10. 11. 14. 12. 12. 11. 14. 16. 19. 18. 16. 13. 15. 16. 14.
      19. 24. 26. 22. 22. 16. 13. 16. 19. 16. 14. 19. 25. 23. 24. 21.
      20. 17. 15. 16. 13. 11. 13. 13. 11. 8. 6. 7. 7. 10. 15. 17. 24.
      27. 31. 30. 27. 25. 22. 15. 16. 16. 11. 9. 9. 9. 10. 10. 9. 10.
      13. 14. 15. 14. 13. 17. 13. 15. 18.</_>
    <_>
      107. 53. 34. 35. 36. 38. 39. 48. 58. 53. 59. 65. 50. 63. 77. 92.
      95. 105. 84. 71. 84. 77. 81. 87. 65. 47. 40. 41. 54. 59. 50. 73.
      79. 71. 59. 84. 11. 11. 13. 15. 14. 14. 16. 15. 14. 14. 17. 16.
      17. 18. 19. 22. 23. 25. 22. 20. 20. 17. 14. 11. 12. 11. 12. 13.
      14. 12. 14. 15. 19. 17. 17. 17. 17. 17. 16. 17. 19. 20. 17. 16.
      17. 17. 18. 21. 19. 17. 16. 15. 13. 11. 12. 12. 12. 13. 13. 13.
      13. 10. 10. 11. 11. 11. 14. 16. 22. 23. 25. 25. 16. 12. 14. 14.
      13. 16. 18. 17. 18. 15. 14. 15. 16. 19. 20. 22. 20. 18. 19. 25.
      28. 28. 20. 16. 21. 20. 21. 21. 17. 15. 14. 16. 17. 18. 22. 28.
      30. 27. 24. 23. 21. 27. 25. 16. 15. 13. 13. 13. 17. 17. 18. 16.
      16. 15. 14. 13. 15. 20. 22. 13. 14. 13. 18. 22.</_>
    <_>
      99. 74. 44. 14. 17. 19. 28. 30. 31. 27. 23. 37. 64. 98. 93. 82.
      74. 67. 59. 53. 58. 70. 66. 58. 42. 38. 38. 53. 52. 35. 22. 23.
      22. 31. 54. 81. 8. 5. 5. 18. 34. 36. 36. 33. 30. 24. 16. 5. 5. 5.
      5. 5. 5. 6. 5. 6. 6. 5. 6. 11. 11. 11. 10. 12. 12. 13. 14. 15. 13.
      12. 11. 11. 11. 10. 11. 12. 10. 8. 8. 6. 12. 9. 8. 13. 13. 12. 16.
      19. 15. 11. 8. 13. 12. 15. 11. 13. 11. 10. 13. 15. 12. 10. 12. 13.
      13. 14. 16. 11. 14. 16. 17. 16. 18. 22. 20. 15. 15. 10. 13. 13.
      12. 14. 15. 15. 15. 20. 20. 16. 18. 19. 13. 10. 10. 6. 7. 8. 17.
      18. 18. 21. 22. 19. 19. 19. 22. 20. 17. 17. 17. 15. 16. 19. 15.
      12. 9. 7. 7. 6. 6. 7. 4. 3. 7. 8. 9. 10. 11. 13. 13. 12. 12. 11.</_>
    <_>
